digraph Tree {
node [shape=box] ;
0 [label="d <= 0.5\ngini = 0.2138\nsamples = 23062\nvalue = [20255, 2807]"] ;
1 [label="g <= 1.1667\ngini = 0.1054\nsamples = 20299\nvalue = [19166, 1133]"] ;
0 -> 1 [labeldistance=2.5, labelangle=45, headlabel="True"] ;
2 [label="b <= 100.9314\ngini = 0.0559\nsamples = 17788\nvalue = [17276, 512]"] ;
1 -> 2 ;
3 [label="g <= 0.1667\ngini = 0.0224\nsamples = 14894\nvalue = [14725, 169]"] ;
2 -> 3 ;
4 [label="g <= -0.1667\ngini = 0.0196\nsamples = 14681\nvalue = [14536, 145]"] ;
3 -> 4 ;
5 [label="g <= -6.8333\ngini = 0.0342\nsamples = 6038\nvalue = [5933, 105]"] ;
4 -> 5 ;
6 [label="g <= -18.8333\ngini = 0.0062\nsamples = 3828\nvalue = [3816, 12]"] ;
5 -> 6 ;
7 [label="b <= 99.98\ngini = 0.0012\nsamples = 3306\nvalue = [3304, 2]"] ;
6 -> 7 ;
8 [label="c <= 46.5\ngini = 0.0006\nsamples = 3292\nvalue = [3291, 1]"] ;
7 -> 8 ;
9 [label="gini = 0.0\nsamples = 3147\nvalue = [3147, 0]"] ;
8 -> 9 ;
10 [label="c <= 47.5\ngini = 0.0137\nsamples = 145\nvalue = [144, 1]"] ;
8 -> 10 ;
11 [label="gini = 0.0\nsamples = 1\nvalue = [0, 1]"] ;
10 -> 11 ;
12 [label="gini = 0.0\nsamples = 144\nvalue = [144, 0]"] ;
10 -> 12 ;
13 [label="a <= 1305.8201\ngini = 0.1327\nsamples = 14\nvalue = [13, 1]"] ;
7 -> 13 ;
14 [label="gini = 0.0\nsamples = 13\nvalue = [13, 0]"] ;
13 -> 14 ;
15 [label="gini = 0.0\nsamples = 1\nvalue = [0, 1]"] ;
13 -> 15 ;
16 [label="g <= -17.8333\ngini = 0.0376\nsamples = 522\nvalue = [512, 10]"] ;
6 -> 16 ;
17 [label="gini = 0.0\nsamples = 3\nvalue = [0, 3]"] ;
16 -> 17 ;
18 [label="c <= 3.5\ngini = 0.0266\nsamples = 519\nvalue = [512, 7]"] ;
16 -> 18 ;
19 [label="a <= 919.23\ngini = 0.0584\nsamples = 166\nvalue = [161, 5]"] ;
18 -> 19 ;
20 [label="g <= -9.5\ngini = 0.1588\nsamples = 23\nvalue = [21, 2]"] ;
19 -> 20 ;
21 [label="f <= 524994.1875\ngini = 0.4444\nsamples = 3\nvalue = [2, 1]"] ;
20 -> 21 ;
22 [label="gini = 0.0\nsamples = 2\nvalue = [2, 0]"] ;
21 -> 22 ;
23 [label="gini = 0.0\nsamples = 1\nvalue = [0, 1]"] ;
21 -> 23 ;
24 [label="f <= 143633.0\ngini = 0.095\nsamples = 20\nvalue = [19, 1]"] ;
20 -> 24 ;
25 [label="f <= 106424.6641\ngini = 0.32\nsamples = 5\nvalue = [4, 1]"] ;
24 -> 25 ;
26 [label="gini = 0.0\nsamples = 4\nvalue = [4, 0]"] ;
25 -> 26 ;
27 [label="gini = 0.0\nsamples = 1\nvalue = [0, 1]"] ;
25 -> 27 ;
28 [label="gini = 0.0\nsamples = 15\nvalue = [15, 0]"] ;
24 -> 28 ;
29 [label="e <= 209887.6719\ngini = 0.0411\nsamples = 143\nvalue = [140, 3]"] ;
19 -> 29 ;
30 [label="gini = 0.0\nsamples = 95\nvalue = [95, 0]"] ;
29 -> 30 ;
31 [label="e <= 212315.8438\ngini = 0.1172\nsamples = 48\nvalue = [45, 3]"] ;
29 -> 31 ;
32 [label="gini = 0.0\nsamples = 1\nvalue = [0, 1]"] ;
31 -> 32 ;
33 [label="g <= -8.1667\ngini = 0.0815\nsamples = 47\nvalue = [45, 2]"] ;
31 -> 33 ;
34 [label="gini = 0.0\nsamples = 28\nvalue = [28, 0]"] ;
33 -> 34 ;
35 [label="b <= 91.8514\ngini = 0.1884\nsamples = 19\nvalue = [17, 2]"] ;
33 -> 35 ;
36 [label="a <= 1051.29\ngini = 0.4444\nsamples = 3\nvalue = [2, 1]"] ;
35 -> 36 ;
37 [label="gini = 0.0\nsamples = 2\nvalue = [2, 0]"] ;
36 -> 37 ;
38 [label="gini = 0.0\nsamples = 1\nvalue = [0, 1]"] ;
36 -> 38 ;
39 [label="e <= 736318.5\ngini = 0.1172\nsamples = 16\nvalue = [15, 1]"] ;
35 -> 39 ;
40 [label="gini = 0.0\nsamples = 11\nvalue = [11, 0]"] ;
39 -> 40 ;
41 [label="e <= 751798.75\ngini = 0.32\nsamples = 5\nvalue = [4, 1]"] ;
39 -> 41 ;
42 [label="gini = 0.0\nsamples = 1\nvalue = [0, 1]"] ;
41 -> 42 ;
43 [label="gini = 0.0\nsamples = 4\nvalue = [4, 0]"] ;
41 -> 43 ;
44 [label="f <= 12825656.0\ngini = 0.0113\nsamples = 353\nvalue = [351, 2]"] ;
18 -> 44 ;
45 [label="e <= 402596.3125\ngini = 0.0058\nsamples = 341\nvalue = [340, 1]"] ;
44 -> 45 ;
46 [label="gini = 0.0\nsamples = 307\nvalue = [307, 0]"] ;
45 -> 46 ;
47 [label="e <= 424479.9375\ngini = 0.0571\nsamples = 34\nvalue = [33, 1]"] ;
45 -> 47 ;
48 [label="gini = 0.0\nsamples = 1\nvalue = [0, 1]"] ;
47 -> 48 ;
49 [label="gini = 0.0\nsamples = 33\nvalue = [33, 0]"] ;
47 -> 49 ;
50 [label="b <= 97.5162\ngini = 0.1528\nsamples = 12\nvalue = [11, 1]"] ;
44 -> 50 ;
51 [label="gini = 0.0\nsamples = 11\nvalue = [11, 0]"] ;
50 -> 51 ;
52 [label="gini = 0.0\nsamples = 1\nvalue = [0, 1]"] ;
50 -> 52 ;
53 [label="g <= -3.1667\ngini = 0.0806\nsamples = 2210\nvalue = [2117, 93]"] ;
5 -> 53 ;
54 [label="c <= 252.0\ngini = 0.061\nsamples = 1206\nvalue = [1168, 38]"] ;
53 -> 54 ;
55 [label="e <= 295264.875\ngini = 0.0595\nsamples = 1205\nvalue = [1168, 37]"] ;
54 -> 55 ;
56 [label="b <= 96.5266\ngini = 0.05\nsamples = 1013\nvalue = [987, 26]"] ;
55 -> 56 ;
57 [label="f <= 5778979.0\ngini = 0.0302\nsamples = 587\nvalue = [578, 9]"] ;
56 -> 57 ;
58 [label="b <= 88.0484\ngini = 0.0244\nsamples = 566\nvalue = [559, 7]"] ;
57 -> 58 ;
59 [label="g <= -5.1667\ngini = 0.1172\nsamples = 48\nvalue = [45, 3]"] ;
58 -> 59 ;
60 [label="f <= 640403.75\ngini = 0.2778\nsamples = 18\nvalue = [15, 3]"] ;
59 -> 60 ;
61 [label="f <= 626470.875\ngini = 0.4444\nsamples = 9\nvalue = [6, 3]"] ;
60 -> 61 ;
62 [label="e <= 57067.6133\ngini = 0.375\nsamples = 8\nvalue = [6, 2]"] ;
61 -> 62 ;
63 [label="e <= 25030.0\ngini = 0.4444\nsamples = 3\nvalue = [1, 2]"] ;
62 -> 63 ;
64 [label="gini = 0.0\nsamples = 1\nvalue = [1, 0]"] ;
63 -> 64 ;
65 [label="gini = 0.0\nsamples = 2\nvalue = [0, 2]"] ;
63 -> 65 ;
66 [label="gini = 0.0\nsamples = 5\nvalue = [5, 0]"] ;
62 -> 66 ;
67 [label="gini = 0.0\nsamples = 1\nvalue = [0, 1]"] ;
61 -> 67 ;
68 [label="gini = 0.0\nsamples = 9\nvalue = [9, 0]"] ;
60 -> 68 ;
69 [label="gini = 0.0\nsamples = 30\nvalue = [30, 0]"] ;
59 -> 69 ;
70 [label="c <= 35.5\ngini = 0.0153\nsamples = 518\nvalue = [514, 4]"] ;
58 -> 70 ;
71 [label="a <= 766.48\ngini = 0.0119\nsamples = 501\nvalue = [498, 3]"] ;
70 -> 71 ;
72 [label="g <= -3.8333\ngini = 0.0868\nsamples = 22\nvalue = [21, 1]"] ;
71 -> 72 ;
73 [label="gini = 0.0\nsamples = 15\nvalue = [15, 0]"] ;
72 -> 73 ;
74 [label="g <= -3.5\ngini = 0.2449\nsamples = 7\nvalue = [6, 1]"] ;
72 -> 74 ;
75 [label="f <= 684628.375\ngini = 0.5\nsamples = 2\nvalue = [1, 1]"] ;
74 -> 75 ;
76 [label="gini = 0.0\nsamples = 1\nvalue = [0, 1]"] ;
75 -> 76 ;
77 [label="gini = 0.0\nsamples = 1\nvalue = [1, 0]"] ;
75 -> 77 ;
78 [label="gini = 0.0\nsamples = 5\nvalue = [5, 0]"] ;
74 -> 78 ;
79 [label="a <= 1306.6699\ngini = 0.0083\nsamples = 479\nvalue = [477, 2]"] ;
71 -> 79 ;
80 [label="g <= -6.5\ngini = 0.0044\nsamples = 453\nvalue = [452, 1]"] ;
79 -> 80 ;
81 [label="e <= 206898.25\ngini = 0.0666\nsamples = 29\nvalue = [28, 1]"] ;
80 -> 81 ;
82 [label="gini = 0.0\nsamples = 25\nvalue = [25, 0]"] ;
81 -> 82 ;
83 [label="f <= 708378.0\ngini = 0.375\nsamples = 4\nvalue = [3, 1]"] ;
81 -> 83 ;
84 [label="gini = 0.0\nsamples = 1\nvalue = [0, 1]"] ;
83 -> 84 ;
85 [label="gini = 0.0\nsamples = 3\nvalue = [3, 0]"] ;
83 -> 85 ;
86 [label="gini = 0.0\nsamples = 424\nvalue = [424, 0]"] ;
80 -> 86 ;
87 [label="g <= -3.5\ngini = 0.074\nsamples = 26\nvalue = [25, 1]"] ;
79 -> 87 ;
88 [label="gini = 0.0\nsamples = 21\nvalue = [21, 0]"] ;
87 -> 88 ;
89 [label="c <= 15.0\ngini = 0.32\nsamples = 5\nvalue = [4, 1]"] ;
87 -> 89 ;
90 [label="gini = 0.0\nsamples = 3\nvalue = [3, 0]"] ;
89 -> 90 ;
91 [label="f <= 2989459.0\ngini = 0.5\nsamples = 2\nvalue = [1, 1]"] ;
89 -> 91 ;
92 [label="gini = 0.0\nsamples = 1\nvalue = [0, 1]"] ;
91 -> 92 ;
93 [label="gini = 0.0\nsamples = 1\nvalue = [1, 0]"] ;
91 -> 93 ;
94 [label="c <= 36.5\ngini = 0.1107\nsamples = 17\nvalue = [16, 1]"] ;
70 -> 94 ;
95 [label="e <= 25252.7676\ngini = 0.5\nsamples = 2\nvalue = [1, 1]"] ;
94 -> 95 ;
96 [label="gini = 0.0\nsamples = 1\nvalue = [1, 0]"] ;
95 -> 96 ;
97 [label="gini = 0.0\nsamples = 1\nvalue = [0, 1]"] ;
95 -> 97 ;
98 [label="gini = 0.0\nsamples = 15\nvalue = [15, 0]"] ;
94 -> 98 ;
99 [label="f <= 6160117.0\ngini = 0.1723\nsamples = 21\nvalue = [19, 2]"] ;
57 -> 99 ;
100 [label="gini = 0.0\nsamples = 1\nvalue = [0, 1]"] ;
99 -> 100 ;
101 [label="a <= 850.56\ngini = 0.095\nsamples = 20\nvalue = [19, 1]"] ;
99 -> 101 ;
102 [label="c <= 32.5\ngini = 0.5\nsamples = 2\nvalue = [1, 1]"] ;
101 -> 102 ;
103 [label="gini = 0.0\nsamples = 1\nvalue = [1, 0]"] ;
102 -> 103 ;
104 [label="gini = 0.0\nsamples = 1\nvalue = [0, 1]"] ;
102 -> 104 ;
105 [label="gini = 0.0\nsamples = 18\nvalue = [18, 0]"] ;
101 -> 105 ;
106 [label="c <= 9.5\ngini = 0.0766\nsamples = 426\nvalue = [409, 17]"] ;
56 -> 106 ;
107 [label="a <= 1050.085\ngini = 0.1177\nsamples = 207\nvalue = [194, 13]"] ;
106 -> 107 ;
108 [label="c <= 3.5\ngini = 0.3967\nsamples = 11\nvalue = [8, 3]"] ;
107 -> 108 ;
109 [label="gini = 0.0\nsamples = 5\nvalue = [5, 0]"] ;
108 -> 109 ;
110 [label="a <= 932.495\ngini = 0.5\nsamples = 6\nvalue = [3, 3]"] ;
108 -> 110 ;
111 [label="e <= 72699.25\ngini = 0.375\nsamples = 4\nvalue = [3, 1]"] ;
110 -> 111 ;
112 [label="gini = 0.0\nsamples = 1\nvalue = [0, 1]"] ;
111 -> 112 ;
113 [label="gini = 0.0\nsamples = 3\nvalue = [3, 0]"] ;
111 -> 113 ;
114 [label="gini = 0.0\nsamples = 2\nvalue = [0, 2]"] ;
110 -> 114 ;
115 [label="f <= 390642.7188\ngini = 0.0968\nsamples = 196\nvalue = [186, 10]"] ;
107 -> 115 ;
116 [label="a <= 1428.425\ngini = 0.0225\nsamples = 88\nvalue = [87, 1]"] ;
115 -> 116 ;
117 [label="gini = 0.0\nsamples = 85\nvalue = [85, 0]"] ;
116 -> 117 ;
118 [label="g <= -4.6667\ngini = 0.4444\nsamples = 3\nvalue = [2, 1]"] ;
116 -> 118 ;
119 [label="gini = 0.0\nsamples = 2\nvalue = [2, 0]"] ;
118 -> 119 ;
120 [label="gini = 0.0\nsamples = 1\nvalue = [0, 1]"] ;
118 -> 120 ;
121 [label="f <= 399769.375\ngini = 0.1528\nsamples = 108\nvalue = [99, 9]"] ;
115 -> 121 ;
122 [label="gini = 0.0\nsamples = 1\nvalue = [0, 1]"] ;
121 -> 122 ;
123 [label="f <= 749382.375\ngini = 0.1384\nsamples = 107\nvalue = [99, 8]"] ;
121 -> 123 ;
124 [label="f <= 555613.0\ngini = 0.3122\nsamples = 31\nvalue = [25, 6]"] ;
123 -> 124 ;
125 [label="g <= -6.5\ngini = 0.0907\nsamples = 21\nvalue = [20, 1]"] ;
124 -> 125 ;
126 [label="e <= 78777.1719\ngini = 0.2778\nsamples = 6\nvalue = [5, 1]"] ;
125 -> 126 ;
127 [label="f <= 466954.5\ngini = 0.5\nsamples = 2\nvalue = [1, 1]"] ;
126 -> 127 ;
128 [label="gini = 0.0\nsamples = 1\nvalue = [1, 0]"] ;
127 -> 128 ;
129 [label="gini = 0.0\nsamples = 1\nvalue = [0, 1]"] ;
127 -> 129 ;
130 [label="gini = 0.0\nsamples = 4\nvalue = [4, 0]"] ;
126 -> 130 ;
131 [label="gini = 0.0\nsamples = 15\nvalue = [15, 0]"] ;
125 -> 131 ;
132 [label="g <= -5.8333\ngini = 0.5\nsamples = 10\nvalue = [5, 5]"] ;
124 -> 132 ;
133 [label="gini = 0.0\nsamples = 3\nvalue = [0, 3]"] ;
132 -> 133 ;
134 [label="e <= 76033.2812\ngini = 0.4082\nsamples = 7\nvalue = [5, 2]"] ;
132 -> 134 ;
135 [label="gini = 0.0\nsamples = 2\nvalue = [0, 2]"] ;
134 -> 135 ;
136 [label="gini = 0.0\nsamples = 5\nvalue = [5, 0]"] ;
134 -> 136 ;
137 [label="g <= -5.1667\ngini = 0.0512\nsamples = 76\nvalue = [74, 2]"] ;
123 -> 137 ;
138 [label="f <= 1239228.5\ngini = 0.1139\nsamples = 33\nvalue = [31, 2]"] ;
137 -> 138 ;
139 [label="gini = 0.0\nsamples = 18\nvalue = [18, 0]"] ;
138 -> 139 ;
140 [label="f <= 1377693.375\ngini = 0.2311\nsamples = 15\nvalue = [13, 2]"] ;
138 -> 140 ;
141 [label="gini = 0.0\nsamples = 2\nvalue = [0, 2]"] ;
140 -> 141 ;
142 [label="gini = 0.0\nsamples = 13\nvalue = [13, 0]"] ;
140 -> 142 ;
143 [label="gini = 0.0\nsamples = 43\nvalue = [43, 0]"] ;
137 -> 143 ;
144 [label="e <= 19576.1836\ngini = 0.0359\nsamples = 219\nvalue = [215, 4]"] ;
106 -> 144 ;
145 [label="e <= 13501.4453\ngini = 0.4444\nsamples = 3\nvalue = [2, 1]"] ;
144 -> 145 ;
146 [label="gini = 0.0\nsamples = 2\nvalue = [2, 0]"] ;
145 -> 146 ;
147 [label="gini = 0.0\nsamples = 1\nvalue = [0, 1]"] ;
145 -> 147 ;
148 [label="a <= 1274.9399\ngini = 0.0274\nsamples = 216\nvalue = [213, 3]"] ;
144 -> 148 ;
149 [label="g <= -3.8333\ngini = 0.088\nsamples = 65\nvalue = [62, 3]"] ;
148 -> 149 ;
150 [label="f <= 1026901.625\ngini = 0.0384\nsamples = 51\nvalue = [50, 1]"] ;
149 -> 150 ;
151 [label="f <= 913529.3125\ngini = 0.2188\nsamples = 8\nvalue = [7, 1]"] ;
150 -> 151 ;
152 [label="gini = 0.0\nsamples = 7\nvalue = [7, 0]"] ;
151 -> 152 ;
153 [label="gini = 0.0\nsamples = 1\nvalue = [0, 1]"] ;
151 -> 153 ;
154 [label="gini = 0.0\nsamples = 43\nvalue = [43, 0]"] ;
150 -> 154 ;
155 [label="c <= 75.5\ngini = 0.2449\nsamples = 14\nvalue = [12, 2]"] ;
149 -> 155 ;
156 [label="g <= -3.5\ngini = 0.142\nsamples = 13\nvalue = [12, 1]"] ;
155 -> 156 ;
157 [label="c <= 26.5\ngini = 0.32\nsamples = 5\nvalue = [4, 1]"] ;
156 -> 157 ;
158 [label="e <= 144363.1719\ngini = 0.5\nsamples = 2\nvalue = [1, 1]"] ;
157 -> 158 ;
159 [label="gini = 0.0\nsamples = 1\nvalue = [0, 1]"] ;
158 -> 159 ;
160 [label="gini = 0.0\nsamples = 1\nvalue = [1, 0]"] ;
158 -> 160 ;
161 [label="gini = 0.0\nsamples = 3\nvalue = [3, 0]"] ;
157 -> 161 ;
162 [label="gini = 0.0\nsamples = 8\nvalue = [8, 0]"] ;
156 -> 162 ;
163 [label="gini = 0.0\nsamples = 1\nvalue = [0, 1]"] ;
155 -> 163 ;
164 [label="gini = 0.0\nsamples = 151\nvalue = [151, 0]"] ;
148 -> 164 ;
165 [label="e <= 299858.75\ngini = 0.108\nsamples = 192\nvalue = [181, 11]"] ;
55 -> 165 ;
166 [label="g <= -5.5\ngini = 0.5\nsamples = 6\nvalue = [3, 3]"] ;
165 -> 166 ;
167 [label="gini = 0.0\nsamples = 2\nvalue = [0, 2]"] ;
166 -> 167 ;
168 [label="a <= 1069.0901\ngini = 0.375\nsamples = 4\nvalue = [3, 1]"] ;
166 -> 168 ;
169 [label="gini = 0.0\nsamples = 1\nvalue = [0, 1]"] ;
168 -> 169 ;
170 [label="gini = 0.0\nsamples = 3\nvalue = [3, 0]"] ;
168 -> 170 ;
171 [label="f <= 2916118.0\ngini = 0.0823\nsamples = 186\nvalue = [178, 8]"] ;
165 -> 171 ;
172 [label="f <= 2874072.0\ngini = 0.1408\nsamples = 105\nvalue = [97, 8]"] ;
171 -> 172 ;
173 [label="b <= 100.5392\ngini = 0.1256\nsamples = 104\nvalue = [97, 7]"] ;
172 -> 173 ;
174 [label="e <= 1042887.5\ngini = 0.1107\nsamples = 102\nvalue = [96, 6]"] ;
173 -> 174 ;
175 [label="a <= 1081.64\ngini = 0.0807\nsamples = 95\nvalue = [91, 4]"] ;
174 -> 175 ;
176 [label="b <= 91.7061\ngini = 0.2248\nsamples = 31\nvalue = [27, 4]"] ;
175 -> 176 ;
177 [label="gini = 0.0\nsamples = 19\nvalue = [19, 0]"] ;
176 -> 177 ;
178 [label="g <= -4.5\ngini = 0.4444\nsamples = 12\nvalue = [8, 4]"] ;
176 -> 178 ;
179 [label="c <= 3.5\ngini = 0.4898\nsamples = 7\nvalue = [3, 4]"] ;
178 -> 179 ;
180 [label="gini = 0.0\nsamples = 3\nvalue = [0, 3]"] ;
179 -> 180 ;
181 [label="g <= -6.3333\ngini = 0.375\nsamples = 4\nvalue = [3, 1]"] ;
179 -> 181 ;
182 [label="gini = 0.0\nsamples = 1\nvalue = [0, 1]"] ;
181 -> 182 ;
183 [label="gini = 0.0\nsamples = 3\nvalue = [3, 0]"] ;
181 -> 183 ;
184 [label="gini = 0.0\nsamples = 5\nvalue = [5, 0]"] ;
178 -> 184 ;
185 [label="gini = 0.0\nsamples = 64\nvalue = [64, 0]"] ;
175 -> 185 ;
186 [label="e <= 1106237.5\ngini = 0.4082\nsamples = 7\nvalue = [5, 2]"] ;
174 -> 186 ;
187 [label="gini = 0.0\nsamples = 1\nvalue = [0, 1]"] ;
186 -> 187 ;
188 [label="b <= 99.9216\ngini = 0.2778\nsamples = 6\nvalue = [5, 1]"] ;
186 -> 188 ;
189 [label="gini = 0.0\nsamples = 5\nvalue = [5, 0]"] ;
188 -> 189 ;
190 [label="gini = 0.0\nsamples = 1\nvalue = [0, 1]"] ;
188 -> 190 ;
191 [label="e <= 401640.125\ngini = 0.5\nsamples = 2\nvalue = [1, 1]"] ;
173 -> 191 ;
192 [label="gini = 0.0\nsamples = 1\nvalue = [0, 1]"] ;
191 -> 192 ;
193 [label="gini = 0.0\nsamples = 1\nvalue = [1, 0]"] ;
191 -> 193 ;
194 [label="gini = 0.0\nsamples = 1\nvalue = [0, 1]"] ;
172 -> 194 ;
195 [label="gini = 0.0\nsamples = 81\nvalue = [81, 0]"] ;
171 -> 195 ;
196 [label="gini = 0.0\nsamples = 1\nvalue = [0, 1]"] ;
54 -> 196 ;
197 [label="f <= 7239105.5\ngini = 0.1036\nsamples = 1004\nvalue = [949, 55]"] ;
53 -> 197 ;
198 [label="f <= 7173189.5\ngini = 0.1149\nsamples = 899\nvalue = [844, 55]"] ;
197 -> 198 ;
199 [label="c <= 111.5\ngini = 0.1113\nsamples = 896\nvalue = [843, 53]"] ;
198 -> 199 ;
200 [label="e <= 1272985.0\ngini = 0.1094\nsamples = 895\nvalue = [843, 52]"] ;
199 -> 200 ;
201 [label="c <= 17.5\ngini = 0.1047\nsamples = 884\nvalue = [835, 49]"] ;
200 -> 201 ;
202 [label="f <= -32310.166\ngini = 0.0836\nsamples = 709\nvalue = [678, 31]"] ;
201 -> 202 ;
203 [label="b <= 89.1559\ngini = 0.4444\nsamples = 3\nvalue = [2, 1]"] ;
202 -> 203 ;
204 [label="gini = 0.0\nsamples = 2\nvalue = [2, 0]"] ;
203 -> 204 ;
205 [label="gini = 0.0\nsamples = 1\nvalue = [0, 1]"] ;
203 -> 205 ;
206 [label="b <= 95.4315\ngini = 0.0814\nsamples = 706\nvalue = [676, 30]"] ;
202 -> 206 ;
207 [label="a <= 1004.05\ngini = 0.0409\nsamples = 287\nvalue = [281, 6]"] ;
206 -> 207 ;
208 [label="e <= 574875.0\ngini = 0.0987\nsamples = 96\nvalue = [91, 5]"] ;
207 -> 208 ;
209 [label="e <= 59172.6562\ngini = 0.0815\nsamples = 94\nvalue = [90, 4]"] ;
208 -> 209 ;
210 [label="e <= 48196.3359\ngini = 0.1913\nsamples = 28\nvalue = [25, 3]"] ;
209 -> 210 ;
211 [label="c <= 1.5\ngini = 0.0768\nsamples = 25\nvalue = [24, 1]"] ;
210 -> 211 ;
212 [label="b <= 88.0484\ngini = 0.2778\nsamples = 6\nvalue = [5, 1]"] ;
211 -> 212 ;
213 [label="g <= -2.6667\ngini = 0.5\nsamples = 2\nvalue = [1, 1]"] ;
212 -> 213 ;
214 [label="gini = 0.0\nsamples = 1\nvalue = [1, 0]"] ;
213 -> 214 ;
215 [label="gini = 0.0\nsamples = 1\nvalue = [0, 1]"] ;
213 -> 215 ;
216 [label="gini = 0.0\nsamples = 4\nvalue = [4, 0]"] ;
212 -> 216 ;
217 [label="gini = 0.0\nsamples = 19\nvalue = [19, 0]"] ;
211 -> 217 ;
218 [label="f <= 648529.9375\ngini = 0.4444\nsamples = 3\nvalue = [1, 2]"] ;
210 -> 218 ;
219 [label="gini = 0.0\nsamples = 2\nvalue = [0, 2]"] ;
218 -> 219 ;
220 [label="gini = 0.0\nsamples = 1\nvalue = [1, 0]"] ;
218 -> 220 ;
221 [label="g <= -2.5\ngini = 0.0298\nsamples = 66\nvalue = [65, 1]"] ;
209 -> 221 ;
222 [label="c <= 8.0\ngini = 0.1049\nsamples = 18\nvalue = [17, 1]"] ;
221 -> 222 ;
223 [label="gini = 0.0\nsamples = 14\nvalue = [14, 0]"] ;
222 -> 223 ;
224 [label="a <= 849.345\ngini = 0.375\nsamples = 4\nvalue = [3, 1]"] ;
222 -> 224 ;
225 [label="gini = 0.0\nsamples = 3\nvalue = [3, 0]"] ;
224 -> 225 ;
226 [label="gini = 0.0\nsamples = 1\nvalue = [0, 1]"] ;
224 -> 226 ;
227 [label="gini = 0.0\nsamples = 48\nvalue = [48, 0]"] ;
221 -> 227 ;
228 [label="f <= 2368123.25\ngini = 0.5\nsamples = 2\nvalue = [1, 1]"] ;
208 -> 228 ;
229 [label="gini = 0.0\nsamples = 1\nvalue = [1, 0]"] ;
228 -> 229 ;
230 [label="gini = 0.0\nsamples = 1\nvalue = [0, 1]"] ;
228 -> 230 ;
231 [label="f <= 131538.6562\ngini = 0.0104\nsamples = 191\nvalue = [190, 1]"] ;
207 -> 231 ;
232 [label="f <= 130911.5\ngini = 0.0868\nsamples = 22\nvalue = [21, 1]"] ;
231 -> 232 ;
233 [label="gini = 0.0\nsamples = 21\nvalue = [21, 0]"] ;
232 -> 233 ;
234 [label="gini = 0.0\nsamples = 1\nvalue = [0, 1]"] ;
232 -> 234 ;
235 [label="gini = 0.0\nsamples = 169\nvalue = [169, 0]"] ;
231 -> 235 ;
236 [label="b <= 95.6227\ngini = 0.108\nsamples = 419\nvalue = [395, 24]"] ;
206 -> 236 ;
237 [label="f <= 2244105.5\ngini = 0.375\nsamples = 24\nvalue = [18, 6]"] ;
236 -> 237 ;
238 [label="g <= -2.8333\ngini = 0.3084\nsamples = 21\nvalue = [17, 4]"] ;
237 -> 238 ;
239 [label="gini = 0.0\nsamples = 1\nvalue = [0, 1]"] ;
238 -> 239 ;
240 [label="g <= -1.1667\ngini = 0.255\nsamples = 20\nvalue = [17, 3]"] ;
238 -> 240 ;
241 [label="c <= 1.5\ngini = 0.1327\nsamples = 14\nvalue = [13, 1]"] ;
240 -> 241 ;
242 [label="f <= 655086.5\ngini = 0.5\nsamples = 2\nvalue = [1, 1]"] ;
241 -> 242 ;
243 [label="gini = 0.0\nsamples = 1\nvalue = [0, 1]"] ;
242 -> 243 ;
244 [label="gini = 0.0\nsamples = 1\nvalue = [1, 0]"] ;
242 -> 244 ;
245 [label="gini = 0.0\nsamples = 12\nvalue = [12, 0]"] ;
241 -> 245 ;
246 [label="g <= -0.8333\ngini = 0.4444\nsamples = 6\nvalue = [4, 2]"] ;
240 -> 246 ;
247 [label="gini = 0.0\nsamples = 2\nvalue = [0, 2]"] ;
246 -> 247 ;
248 [label="gini = 0.0\nsamples = 4\nvalue = [4, 0]"] ;
246 -> 248 ;
249 [label="g <= -2.0\ngini = 0.4444\nsamples = 3\nvalue = [1, 2]"] ;
237 -> 249 ;
250 [label="gini = 0.0\nsamples = 1\nvalue = [1, 0]"] ;
249 -> 250 ;
251 [label="gini = 0.0\nsamples = 2\nvalue = [0, 2]"] ;
249 -> 251 ;
252 [label="f <= 271101.125\ngini = 0.087\nsamples = 395\nvalue = [377, 18]"] ;
236 -> 252 ;
253 [label="gini = 0.0\nsamples = 62\nvalue = [62, 0]"] ;
252 -> 253 ;
254 [label="f <= 276953.4375\ngini = 0.1023\nsamples = 333\nvalue = [315, 18]"] ;
252 -> 254 ;
255 [label="gini = 0.0\nsamples = 1\nvalue = [0, 1]"] ;
254 -> 255 ;
256 [label="a <= 1428.425\ngini = 0.0972\nsamples = 332\nvalue = [315, 17]"] ;
254 -> 256 ;
257 [label="c <= 13.5\ngini = 0.0891\nsamples = 321\nvalue = [306, 15]"] ;
256 -> 257 ;
258 [label="e <= 164117.5156\ngini = 0.1014\nsamples = 280\nvalue = [265, 15]"] ;
257 -> 258 ;
259 [label="e <= 163032.8594\ngini = 0.142\nsamples = 130\nvalue = [120, 10]"] ;
258 -> 259 ;
260 [label="e <= 106326.6719\ngini = 0.1172\nsamples = 128\nvalue = [120, 8]"] ;
259 -> 260 ;
261 [label="a <= 1050.085\ngini = 0.0506\nsamples = 77\nvalue = [75, 2]"] ;
260 -> 261 ;
262 [label="g <= -2.0\ngini = 0.4444\nsamples = 3\nvalue = [2, 1]"] ;
261 -> 262 ;
263 [label="gini = 0.0\nsamples = 2\nvalue = [2, 0]"] ;
262 -> 263 ;
264 [label="gini = 0.0\nsamples = 1\nvalue = [0, 1]"] ;
262 -> 264 ;
265 [label="f <= 305186.8125\ngini = 0.0267\nsamples = 74\nvalue = [73, 1]"] ;
261 -> 265 ;
266 [label="f <= 302784.25\ngini = 0.32\nsamples = 5\nvalue = [4, 1]"] ;
265 -> 266 ;
267 [label="gini = 0.0\nsamples = 4\nvalue = [4, 0]"] ;
266 -> 267 ;
268 [label="gini = 0.0\nsamples = 1\nvalue = [0, 1]"] ;
266 -> 268 ;
269 [label="gini = 0.0\nsamples = 69\nvalue = [69, 0]"] ;
265 -> 269 ;
270 [label="e <= 107949.4219\ngini = 0.2076\nsamples = 51\nvalue = [45, 6]"] ;
260 -> 270 ;
271 [label="gini = 0.0\nsamples = 1\nvalue = [0, 1]"] ;
270 -> 271 ;
272 [label="c <= 9.5\ngini = 0.18\nsamples = 50\nvalue = [45, 5]"] ;
270 -> 272 ;
273 [label="b <= 95.6682\ngini = 0.0907\nsamples = 42\nvalue = [40, 2]"] ;
272 -> 273 ;
274 [label="g <= -1.6667\ngini = 0.5\nsamples = 2\nvalue = [1, 1]"] ;
273 -> 274 ;
275 [label="gini = 0.0\nsamples = 1\nvalue = [1, 0]"] ;
274 -> 275 ;
276 [label="gini = 0.0\nsamples = 1\nvalue = [0, 1]"] ;
274 -> 276 ;
277 [label="b <= 96.431\ngini = 0.0487\nsamples = 40\nvalue = [39, 1]"] ;
273 -> 277 ;
278 [label="b <= 96.2197\ngini = 0.2188\nsamples = 8\nvalue = [7, 1]"] ;
277 -> 278 ;
279 [label="gini = 0.0\nsamples = 6\nvalue = [6, 0]"] ;
278 -> 279 ;
280 [label="e <= 123505.5\ngini = 0.5\nsamples = 2\nvalue = [1, 1]"] ;
278 -> 280 ;
281 [label="gini = 0.0\nsamples = 1\nvalue = [0, 1]"] ;
280 -> 281 ;
282 [label="gini = 0.0\nsamples = 1\nvalue = [1, 0]"] ;
280 -> 282 ;
283 [label="gini = 0.0\nsamples = 32\nvalue = [32, 0]"] ;
277 -> 283 ;
284 [label="e <= 139595.0625\ngini = 0.4688\nsamples = 8\nvalue = [5, 3]"] ;
272 -> 284 ;
285 [label="f <= 2337523.5\ngini = 0.375\nsamples = 4\nvalue = [1, 3]"] ;
284 -> 285 ;
286 [label="gini = 0.0\nsamples = 3\nvalue = [0, 3]"] ;
285 -> 286 ;
287 [label="gini = 0.0\nsamples = 1\nvalue = [1, 0]"] ;
285 -> 287 ;
288 [label="gini = 0.0\nsamples = 4\nvalue = [4, 0]"] ;
284 -> 288 ;
289 [label="gini = 0.0\nsamples = 2\nvalue = [0, 2]"] ;
259 -> 289 ;
290 [label="b <= 97.7787\ngini = 0.0644\nsamples = 150\nvalue = [145, 5]"] ;
258 -> 290 ;
291 [label="gini = 0.0\nsamples = 92\nvalue = [92, 0]"] ;
290 -> 291 ;
292 [label="f <= 788200.625\ngini = 0.1576\nsamples = 58\nvalue = [53, 5]"] ;
290 -> 292 ;
293 [label="e <= 250166.6562\ngini = 0.48\nsamples = 5\nvalue = [3, 2]"] ;
292 -> 293 ;
294 [label="gini = 0.0\nsamples = 3\nvalue = [3, 0]"] ;
293 -> 294 ;
295 [label="gini = 0.0\nsamples = 2\nvalue = [0, 2]"] ;
293 -> 295 ;
296 [label="e <= 826061.5\ngini = 0.1068\nsamples = 53\nvalue = [50, 3]"] ;
292 -> 296 ;
297 [label="a <= 1232.925\ngini = 0.0768\nsamples = 50\nvalue = [48, 2]"] ;
296 -> 297 ;
298 [label="e <= 314987.375\ngini = 0.375\nsamples = 4\nvalue = [3, 1]"] ;
297 -> 298 ;
299 [label="gini = 0.0\nsamples = 1\nvalue = [0, 1]"] ;
298 -> 299 ;
300 [label="gini = 0.0\nsamples = 3\nvalue = [3, 0]"] ;
298 -> 300 ;
301 [label="b <= 100.2639\ngini = 0.0425\nsamples = 46\nvalue = [45, 1]"] ;
297 -> 301 ;
302 [label="gini = 0.0\nsamples = 37\nvalue = [37, 0]"] ;
301 -> 302 ;
303 [label="b <= 100.5392\ngini = 0.1975\nsamples = 9\nvalue = [8, 1]"] ;
301 -> 303 ;
304 [label="gini = 0.0\nsamples = 1\nvalue = [0, 1]"] ;
303 -> 304 ;
305 [label="gini = 0.0\nsamples = 8\nvalue = [8, 0]"] ;
303 -> 305 ;
306 [label="b <= 99.9216\ngini = 0.4444\nsamples = 3\nvalue = [2, 1]"] ;
296 -> 306 ;
307 [label="gini = 0.0\nsamples = 1\nvalue = [0, 1]"] ;
306 -> 307 ;
308 [label="gini = 0.0\nsamples = 2\nvalue = [2, 0]"] ;
306 -> 308 ;
309 [label="gini = 0.0\nsamples = 41\nvalue = [41, 0]"] ;
257 -> 309 ;
310 [label="c <= 2.5\ngini = 0.2975\nsamples = 11\nvalue = [9, 2]"] ;
256 -> 310 ;
311 [label="gini = 0.0\nsamples = 1\nvalue = [0, 1]"] ;
310 -> 311 ;
312 [label="g <= -2.8333\ngini = 0.18\nsamples = 10\nvalue = [9, 1]"] ;
310 -> 312 ;
313 [label="e <= 160542.2656\ngini = 0.5\nsamples = 2\nvalue = [1, 1]"] ;
312 -> 313 ;
314 [label="gini = 0.0\nsamples = 1\nvalue = [0, 1]"] ;
313 -> 314 ;
315 [label="gini = 0.0\nsamples = 1\nvalue = [1, 0]"] ;
313 -> 315 ;
316 [label="gini = 0.0\nsamples = 8\nvalue = [8, 0]"] ;
312 -> 316 ;
317 [label="b <= 95.6227\ngini = 0.1846\nsamples = 175\nvalue = [157, 18]"] ;
201 -> 317 ;
318 [label="e <= 220013.1875\ngini = 0.3628\nsamples = 42\nvalue = [32, 10]"] ;
317 -> 318 ;
319 [label="a <= 811.875\ngini = 0.3006\nsamples = 38\nvalue = [31, 7]"] ;
318 -> 319 ;
320 [label="f <= 3545906.25\ngini = 0.4444\nsamples = 3\nvalue = [1, 2]"] ;
319 -> 320 ;
321 [label="gini = 0.0\nsamples = 2\nvalue = [0, 2]"] ;
320 -> 321 ;
322 [label="gini = 0.0\nsamples = 1\nvalue = [1, 0]"] ;
320 -> 322 ;
323 [label="b <= 95.4315\ngini = 0.2449\nsamples = 35\nvalue = [30, 5]"] ;
319 -> 323 ;
324 [label="e <= 26818.332\ngini = 0.1284\nsamples = 29\nvalue = [27, 2]"] ;
323 -> 324 ;
325 [label="a <= 1113.255\ngini = 0.5\nsamples = 2\nvalue = [1, 1]"] ;
324 -> 325 ;
326 [label="gini = 0.0\nsamples = 1\nvalue = [0, 1]"] ;
325 -> 326 ;
327 [label="gini = 0.0\nsamples = 1\nvalue = [1, 0]"] ;
325 -> 327 ;
328 [label="a <= 1178.0601\ngini = 0.0713\nsamples = 27\nvalue = [26, 1]"] ;
324 -> 328 ;
329 [label="gini = 0.0\nsamples = 25\nvalue = [25, 0]"] ;
328 -> 329 ;
330 [label="e <= 62835.8281\ngini = 0.5\nsamples = 2\nvalue = [1, 1]"] ;
328 -> 330 ;
331 [label="gini = 0.0\nsamples = 1\nvalue = [1, 0]"] ;
330 -> 331 ;
332 [label="gini = 0.0\nsamples = 1\nvalue = [0, 1]"] ;
330 -> 332 ;
333 [label="c <= 26.0\ngini = 0.5\nsamples = 6\nvalue = [3, 3]"] ;
323 -> 333 ;
334 [label="f <= 2032913.125\ngini = 0.375\nsamples = 4\nvalue = [1, 3]"] ;
333 -> 334 ;
335 [label="e <= 70882.8047\ngini = 0.5\nsamples = 2\nvalue = [1, 1]"] ;
334 -> 335 ;
336 [label="gini = 0.0\nsamples = 1\nvalue = [0, 1]"] ;
335 -> 336 ;
337 [label="gini = 0.0\nsamples = 1\nvalue = [1, 0]"] ;
335 -> 337 ;
338 [label="gini = 0.0\nsamples = 2\nvalue = [0, 2]"] ;
334 -> 338 ;
339 [label="gini = 0.0\nsamples = 2\nvalue = [2, 0]"] ;
333 -> 339 ;
340 [label="b <= 92.32\ngini = 0.375\nsamples = 4\nvalue = [1, 3]"] ;
318 -> 340 ;
341 [label="gini = 0.0\nsamples = 1\nvalue = [1, 0]"] ;
340 -> 341 ;
342 [label="gini = 0.0\nsamples = 3\nvalue = [0, 3]"] ;
340 -> 342 ;
343 [label="b <= 98.3453\ngini = 0.1131\nsamples = 133\nvalue = [125, 8]"] ;
317 -> 343 ;
344 [label="b <= 98.0383\ngini = 0.178\nsamples = 81\nvalue = [73, 8]"] ;
343 -> 344 ;
345 [label="a <= 1354.405\ngini = 0.142\nsamples = 78\nvalue = [72, 6]"] ;
344 -> 345 ;
346 [label="f <= 2296551.75\ngini = 0.1049\nsamples = 72\nvalue = [68, 4]"] ;
345 -> 346 ;
347 [label="b <= 97.7787\ngini = 0.2188\nsamples = 32\nvalue = [28, 4]"] ;
346 -> 347 ;
348 [label="f <= 1699422.25\ngini = 0.1748\nsamples = 31\nvalue = [28, 3]"] ;
347 -> 348 ;
349 [label="gini = 0.0\nsamples = 15\nvalue = [15, 0]"] ;
348 -> 349 ;
350 [label="f <= 1848202.0\ngini = 0.3047\nsamples = 16\nvalue = [13, 3]"] ;
348 -> 350 ;
351 [label="a <= 1181.905\ngini = 0.375\nsamples = 4\nvalue = [1, 3]"] ;
350 -> 351 ;
352 [label="gini = 0.0\nsamples = 1\nvalue = [1, 0]"] ;
351 -> 352 ;
353 [label="gini = 0.0\nsamples = 3\nvalue = [0, 3]"] ;
351 -> 353 ;
354 [label="gini = 0.0\nsamples = 12\nvalue = [12, 0]"] ;
350 -> 354 ;
355 [label="gini = 0.0\nsamples = 1\nvalue = [0, 1]"] ;
347 -> 355 ;
356 [label="gini = 0.0\nsamples = 40\nvalue = [40, 0]"] ;
346 -> 356 ;
357 [label="e <= 208312.9375\ngini = 0.4444\nsamples = 6\nvalue = [4, 2]"] ;
345 -> 357 ;
358 [label="gini = 0.0\nsamples = 4\nvalue = [4, 0]"] ;
357 -> 358 ;
359 [label="gini = 0.0\nsamples = 2\nvalue = [0, 2]"] ;
357 -> 359 ;
360 [label="e <= 90184.2734\ngini = 0.4444\nsamples = 3\nvalue = [1, 2]"] ;
344 -> 360 ;
361 [label="gini = 0.0\nsamples = 1\nvalue = [1, 0]"] ;
360 -> 361 ;
362 [label="gini = 0.0\nsamples = 2\nvalue = [0, 2]"] ;
360 -> 362 ;
363 [label="gini = 0.0\nsamples = 52\nvalue = [52, 0]"] ;
343 -> 363 ;
364 [label="e <= 1414696.875\ngini = 0.3967\nsamples = 11\nvalue = [8, 3]"] ;
200 -> 364 ;
365 [label="b <= 91.1021\ngini = 0.4444\nsamples = 3\nvalue = [1, 2]"] ;
364 -> 365 ;
366 [label="gini = 0.0\nsamples = 1\nvalue = [1, 0]"] ;
365 -> 366 ;
367 [label="gini = 0.0\nsamples = 2\nvalue = [0, 2]"] ;
365 -> 367 ;
368 [label="a <= 1363.395\ngini = 0.2188\nsamples = 8\nvalue = [7, 1]"] ;
364 -> 368 ;
369 [label="gini = 0.0\nsamples = 7\nvalue = [7, 0]"] ;
368 -> 369 ;
370 [label="gini = 0.0\nsamples = 1\nvalue = [0, 1]"] ;
368 -> 370 ;
371 [label="gini = 0.0\nsamples = 1\nvalue = [0, 1]"] ;
199 -> 371 ;
372 [label="a <= 1407.5249\ngini = 0.4444\nsamples = 3\nvalue = [1, 2]"] ;
198 -> 372 ;
373 [label="gini = 0.0\nsamples = 2\nvalue = [0, 2]"] ;
372 -> 373 ;
374 [label="gini = 0.0\nsamples = 1\nvalue = [1, 0]"] ;
372 -> 374 ;
375 [label="gini = 0.0\nsamples = 105\nvalue = [105, 0]"] ;
197 -> 375 ;
376 [label="a <= 806.575\ngini = 0.0092\nsamples = 8643\nvalue = [8603, 40]"] ;
4 -> 376 ;
377 [label="e <= 7987.8335\ngini = 0.48\nsamples = 5\nvalue = [3, 2]"] ;
376 -> 377 ;
378 [label="a <= 766.48\ngini = 0.4444\nsamples = 3\nvalue = [1, 2]"] ;
377 -> 378 ;
379 [label="gini = 0.5\nsamples = 2\nvalue = [1, 1]"] ;
378 -> 379 ;
380 [label="gini = 0.0\nsamples = 1\nvalue = [0, 1]"] ;
378 -> 380 ;
381 [label="gini = 0.0\nsamples = 2\nvalue = [2, 0]"] ;
377 -> 381 ;
382 [label="f <= 96.3333\ngini = 0.0088\nsamples = 8638\nvalue = [8600, 38]"] ;
376 -> 382 ;
383 [label="b <= 96.3801\ngini = 0.0448\nsamples = 1091\nvalue = [1066, 25]"] ;
382 -> 383 ;
384 [label="b <= 88.0883\ngini = 0.0302\nsamples = 978\nvalue = [963, 15]"] ;
383 -> 384 ;
385 [label="gini = 0.0\nsamples = 489\nvalue = [489, 0]"] ;
384 -> 385 ;
386 [label="b <= 88.3717\ngini = 0.0595\nsamples = 489\nvalue = [474, 15]"] ;
384 -> 386 ;
387 [label="gini = 0.0\nsamples = 1\nvalue = [0, 1]"] ;
386 -> 387 ;
388 [label="b <= 92.8669\ngini = 0.0557\nsamples = 488\nvalue = [474, 14]"] ;
386 -> 388 ;
389 [label="b <= 92.6996\ngini = 0.1033\nsamples = 238\nvalue = [225, 13]"] ;
388 -> 389 ;
390 [label="a <= 891.58\ngini = 0.0825\nsamples = 232\nvalue = [222, 10]"] ;
389 -> 390 ;
391 [label="gini = 0.0\nsamples = 1\nvalue = [0, 1]"] ;
390 -> 391 ;
392 [label="a <= 1105.61\ngini = 0.0749\nsamples = 231\nvalue = [222, 9]"] ;
390 -> 392 ;
393 [label="b <= 90.4429\ngini = 0.213\nsamples = 66\nvalue = [58, 8]"] ;
392 -> 393 ;
394 [label="a <= 1028.405\ngini = 0.0512\nsamples = 38\nvalue = [37, 1]"] ;
393 -> 394 ;
395 [label="a <= 1018.815\ngini = 0.1528\nsamples = 12\nvalue = [11, 1]"] ;
394 -> 395 ;
396 [label="gini = 0.0\nsamples = 10\nvalue = [10, 0]"] ;
395 -> 396 ;
397 [label="gini = 0.5\nsamples = 2\nvalue = [1, 1]"] ;
395 -> 397 ;
398 [label="gini = 0.0\nsamples = 26\nvalue = [26, 0]"] ;
394 -> 398 ;
399 [label="a <= 1066.825\ngini = 0.375\nsamples = 28\nvalue = [21, 7]"] ;
393 -> 399 ;
400 [label="gini = 0.0\nsamples = 16\nvalue = [16, 0]"] ;
399 -> 400 ;
401 [label="c <= 2.0\ngini = 0.4861\nsamples = 12\nvalue = [5, 7]"] ;
399 -> 401 ;
402 [label="c <= 0.5\ngini = 0.3457\nsamples = 9\nvalue = [2, 7]"] ;
401 -> 402 ;
403 [label="b <= 91.2698\ngini = 0.375\nsamples = 8\nvalue = [2, 6]"] ;
402 -> 403 ;
404 [label="gini = 0.5\nsamples = 2\nvalue = [1, 1]"] ;
403 -> 404 ;
405 [label="b <= 92.06\ngini = 0.2778\nsamples = 6\nvalue = [1, 5]"] ;
403 -> 405 ;
406 [label="gini = 0.32\nsamples = 5\nvalue = [1, 4]"] ;
405 -> 406 ;
407 [label="gini = 0.0\nsamples = 1\nvalue = [0, 1]"] ;
405 -> 407 ;
408 [label="gini = 0.0\nsamples = 1\nvalue = [0, 1]"] ;
402 -> 408 ;
409 [label="gini = 0.0\nsamples = 3\nvalue = [3, 0]"] ;
401 -> 409 ;
410 [label="a <= 1122.6499\ngini = 0.012\nsamples = 165\nvalue = [164, 1]"] ;
392 -> 410 ;
411 [label="b <= 91.3465\ngini = 0.0868\nsamples = 22\nvalue = [21, 1]"] ;
410 -> 411 ;
412 [label="gini = 0.0\nsamples = 1\nvalue = [0, 1]"] ;
411 -> 412 ;
413 [label="gini = 0.0\nsamples = 21\nvalue = [21, 0]"] ;
411 -> 413 ;
414 [label="gini = 0.0\nsamples = 143\nvalue = [143, 0]"] ;
410 -> 414 ;
415 [label="c <= 11.5\ngini = 0.5\nsamples = 6\nvalue = [3, 3]"] ;
389 -> 415 ;
416 [label="e <= 154473.75\ngini = 0.48\nsamples = 5\nvalue = [3, 2]"] ;
415 -> 416 ;
417 [label="e <= 98551.5\ngini = 0.375\nsamples = 4\nvalue = [3, 1]"] ;
416 -> 417 ;
418 [label="e <= 79379.2812\ngini = 0.5\nsamples = 2\nvalue = [1, 1]"] ;
417 -> 418 ;
419 [label="gini = 0.0\nsamples = 1\nvalue = [1, 0]"] ;
418 -> 419 ;
420 [label="gini = 0.0\nsamples = 1\nvalue = [0, 1]"] ;
418 -> 420 ;
421 [label="gini = 0.0\nsamples = 2\nvalue = [2, 0]"] ;
417 -> 421 ;
422 [label="gini = 0.0\nsamples = 1\nvalue = [0, 1]"] ;
416 -> 422 ;
423 [label="gini = 0.0\nsamples = 1\nvalue = [0, 1]"] ;
415 -> 423 ;
424 [label="b <= 95.5865\ngini = 0.008\nsamples = 250\nvalue = [249, 1]"] ;
388 -> 424 ;
425 [label="gini = 0.0\nsamples = 187\nvalue = [187, 0]"] ;
424 -> 425 ;
426 [label="a <= 1053.7649\ngini = 0.0312\nsamples = 63\nvalue = [62, 1]"] ;
424 -> 426 ;
427 [label="gini = 0.0\nsamples = 1\nvalue = [0, 1]"] ;
426 -> 427 ;
428 [label="gini = 0.0\nsamples = 62\nvalue = [62, 0]"] ;
426 -> 428 ;
429 [label="a <= 1240.5701\ngini = 0.1613\nsamples = 113\nvalue = [103, 10]"] ;
383 -> 429 ;
430 [label="gini = 0.0\nsamples = 88\nvalue = [88, 0]"] ;
429 -> 430 ;
431 [label="a <= 1419.6499\ngini = 0.48\nsamples = 25\nvalue = [15, 10]"] ;
429 -> 431 ;
432 [label="b <= 99.831\ngini = 0.4986\nsamples = 19\nvalue = [9, 10]"] ;
431 -> 432 ;
433 [label="b <= 97.799\ngini = 0.426\nsamples = 13\nvalue = [4, 9]"] ;
432 -> 433 ;
434 [label="a <= 1323.235\ngini = 0.4898\nsamples = 7\nvalue = [4, 3]"] ;
433 -> 434 ;
435 [label="c <= 0.5\ngini = 0.32\nsamples = 5\nvalue = [4, 1]"] ;
434 -> 435 ;
436 [label="gini = 0.0\nsamples = 1\nvalue = [0, 1]"] ;
435 -> 436 ;
437 [label="gini = 0.0\nsamples = 4\nvalue = [4, 0]"] ;
435 -> 437 ;
438 [label="gini = 0.0\nsamples = 2\nvalue = [0, 2]"] ;
434 -> 438 ;
439 [label="gini = 0.0\nsamples = 6\nvalue = [0, 6]"] ;
433 -> 439 ;
440 [label="a <= 1344.825\ngini = 0.2778\nsamples = 6\nvalue = [5, 1]"] ;
432 -> 440 ;
441 [label="gini = 0.0\nsamples = 4\nvalue = [4, 0]"] ;
440 -> 441 ;
442 [label="c <= 2.5\ngini = 0.5\nsamples = 2\nvalue = [1, 1]"] ;
440 -> 442 ;
443 [label="gini = 0.0\nsamples = 1\nvalue = [0, 1]"] ;
442 -> 443 ;
444 [label="gini = 0.0\nsamples = 1\nvalue = [1, 0]"] ;
442 -> 444 ;
445 [label="gini = 0.0\nsamples = 6\nvalue = [6, 0]"] ;
431 -> 445 ;
446 [label="b <= 90.9855\ngini = 0.0034\nsamples = 7547\nvalue = [7534, 13]"] ;
382 -> 446 ;
447 [label="a <= 895.975\ngini = 0.0124\nsamples = 642\nvalue = [638, 4]"] ;
446 -> 447 ;
448 [label="f <= 1968354.125\ngini = 0.4444\nsamples = 3\nvalue = [2, 1]"] ;
447 -> 448 ;
449 [label="gini = 0.0\nsamples = 1\nvalue = [0, 1]"] ;
448 -> 449 ;
450 [label="gini = 0.0\nsamples = 2\nvalue = [2, 0]"] ;
448 -> 450 ;
451 [label="b <= 90.7613\ngini = 0.0093\nsamples = 639\nvalue = [636, 3]"] ;
447 -> 451 ;
452 [label="c <= 3.5\ngini = 0.0063\nsamples = 635\nvalue = [633, 2]"] ;
451 -> 452 ;
453 [label="a <= 1063.5049\ngini = 0.0336\nsamples = 117\nvalue = [115, 2]"] ;
452 -> 453 ;
454 [label="a <= 1018.815\ngini = 0.1372\nsamples = 27\nvalue = [25, 2]"] ;
453 -> 454 ;
455 [label="gini = 0.0\nsamples = 25\nvalue = [25, 0]"] ;
454 -> 455 ;
456 [label="gini = 0.0\nsamples = 2\nvalue = [0, 2]"] ;
454 -> 456 ;
457 [label="gini = 0.0\nsamples = 90\nvalue = [90, 0]"] ;
453 -> 457 ;
458 [label="gini = 0.0\nsamples = 518\nvalue = [518, 0]"] ;
452 -> 458 ;
459 [label="c <= 13.5\ngini = 0.375\nsamples = 4\nvalue = [3, 1]"] ;
451 -> 459 ;
460 [label="gini = 0.0\nsamples = 3\nvalue = [3, 0]"] ;
459 -> 460 ;
461 [label="gini = 0.0\nsamples = 1\nvalue = [0, 1]"] ;
459 -> 461 ;
462 [label="f <= 25692378.0\ngini = 0.0026\nsamples = 6905\nvalue = [6896, 9]"] ;
446 -> 462 ;
463 [label="a <= 1284.415\ngini = 0.0023\nsamples = 6851\nvalue = [6843, 8]"] ;
462 -> 463 ;
464 [label="e <= 88755.75\ngini = 0.0011\nsamples = 5293\nvalue = [5290, 3]"] ;
463 -> 464 ;
465 [label="gini = 0.0\nsamples = 2374\nvalue = [2374, 0]"] ;
464 -> 465 ;
466 [label="e <= 88816.7812\ngini = 0.0021\nsamples = 2919\nvalue = [2916, 3]"] ;
464 -> 466 ;
467 [label="gini = 0.0\nsamples = 1\nvalue = [0, 1]"] ;
466 -> 467 ;
468 [label="e <= 96232.7969\ngini = 0.0014\nsamples = 2918\nvalue = [2916, 2]"] ;
466 -> 468 ;
469 [label="e <= 96218.6406\ngini = 0.0131\nsamples = 152\nvalue = [151, 1]"] ;
468 -> 469 ;
470 [label="gini = 0.0\nsamples = 151\nvalue = [151, 0]"] ;
469 -> 470 ;
471 [label="gini = 0.0\nsamples = 1\nvalue = [0, 1]"] ;
469 -> 471 ;
472 [label="a <= 907.435\ngini = 0.0007\nsamples = 2766\nvalue = [2765, 1]"] ;
468 -> 472 ;
473 [label="a <= 899.745\ngini = 0.0072\nsamples = 277\nvalue = [276, 1]"] ;
472 -> 473 ;
474 [label="gini = 0.0\nsamples = 276\nvalue = [276, 0]"] ;
473 -> 474 ;
475 [label="gini = 0.0\nsamples = 1\nvalue = [0, 1]"] ;
473 -> 475 ;
476 [label="gini = 0.0\nsamples = 2489\nvalue = [2489, 0]"] ;
472 -> 476 ;
477 [label="a <= 1286.245\ngini = 0.0064\nsamples = 1558\nvalue = [1553, 5]"] ;
463 -> 477 ;
478 [label="gini = 0.0\nsamples = 1\nvalue = [0, 1]"] ;
477 -> 478 ;
479 [label="b <= 96.6042\ngini = 0.0051\nsamples = 1557\nvalue = [1553, 4]"] ;
477 -> 479 ;
480 [label="gini = 0.0\nsamples = 1525\nvalue = [1525, 0]"] ;
479 -> 480 ;
481 [label="c <= 1.5\ngini = 0.2188\nsamples = 32\nvalue = [28, 4]"] ;
479 -> 481 ;
482 [label="gini = 0.0\nsamples = 1\nvalue = [0, 1]"] ;
481 -> 482 ;
483 [label="e <= 206293.8125\ngini = 0.1748\nsamples = 31\nvalue = [28, 3]"] ;
481 -> 483 ;
484 [label="gini = 0.0\nsamples = 20\nvalue = [20, 0]"] ;
483 -> 484 ;
485 [label="b <= 99.5182\ngini = 0.3967\nsamples = 11\nvalue = [8, 3]"] ;
483 -> 485 ;
486 [label="e <= 259630.2188\ngini = 0.48\nsamples = 5\nvalue = [2, 3]"] ;
485 -> 486 ;
487 [label="gini = 0.0\nsamples = 2\nvalue = [0, 2]"] ;
486 -> 487 ;
488 [label="f <= 3157255.0\ngini = 0.4444\nsamples = 3\nvalue = [2, 1]"] ;
486 -> 488 ;
489 [label="gini = 0.0\nsamples = 1\nvalue = [0, 1]"] ;
488 -> 489 ;
490 [label="gini = 0.0\nsamples = 2\nvalue = [2, 0]"] ;
488 -> 490 ;
491 [label="gini = 0.0\nsamples = 6\nvalue = [6, 0]"] ;
485 -> 491 ;
492 [label="e <= 367822.25\ngini = 0.0364\nsamples = 54\nvalue = [53, 1]"] ;
462 -> 492 ;
493 [label="gini = 0.0\nsamples = 53\nvalue = [53, 0]"] ;
492 -> 493 ;
494 [label="gini = 0.0\nsamples = 1\nvalue = [0, 1]"] ;
492 -> 494 ;
495 [label="a <= 1372.5\ngini = 0.2\nsamples = 213\nvalue = [189, 24]"] ;
3 -> 495 ;
496 [label="a <= 1053.205\ngini = 0.1375\nsamples = 175\nvalue = [162, 13]"] ;
495 -> 496 ;
497 [label="a <= 849.345\ngini = 0.0333\nsamples = 59\nvalue = [58, 1]"] ;
496 -> 497 ;
498 [label="f <= 629571.5\ngini = 0.1975\nsamples = 9\nvalue = [8, 1]"] ;
497 -> 498 ;
499 [label="f <= 414153.1875\ngini = 0.4444\nsamples = 3\nvalue = [2, 1]"] ;
498 -> 499 ;
500 [label="gini = 0.0\nsamples = 2\nvalue = [2, 0]"] ;
499 -> 500 ;
501 [label="gini = 0.0\nsamples = 1\nvalue = [0, 1]"] ;
499 -> 501 ;
502 [label="gini = 0.0\nsamples = 6\nvalue = [6, 0]"] ;
498 -> 502 ;
503 [label="gini = 0.0\nsamples = 50\nvalue = [50, 0]"] ;
497 -> 503 ;
504 [label="b <= 97.7715\ngini = 0.1855\nsamples = 116\nvalue = [104, 12]"] ;
496 -> 504 ;
505 [label="b <= 97.5322\ngini = 0.2425\nsamples = 85\nvalue = [73, 12]"] ;
504 -> 505 ;
506 [label="e <= 1566607.0\ngini = 0.2119\nsamples = 83\nvalue = [73, 10]"] ;
505 -> 506 ;
507 [label="f <= 335845.0\ngini = 0.1975\nsamples = 81\nvalue = [72, 9]"] ;
506 -> 507 ;
508 [label="e <= 44477.3203\ngini = 0.4444\nsamples = 6\nvalue = [4, 2]"] ;
507 -> 508 ;
509 [label="gini = 0.0\nsamples = 4\nvalue = [4, 0]"] ;
508 -> 509 ;
510 [label="gini = 0.0\nsamples = 2\nvalue = [0, 2]"] ;
508 -> 510 ;
511 [label="b <= 96.2197\ngini = 0.1692\nsamples = 75\nvalue = [68, 7]"] ;
507 -> 511 ;
512 [label="f <= 10798026.0\ngini = 0.0832\nsamples = 46\nvalue = [44, 2]"] ;
511 -> 512 ;
513 [label="e <= 450835.0\ngini = 0.0465\nsamples = 42\nvalue = [41, 1]"] ;
512 -> 513 ;
514 [label="gini = 0.0\nsamples = 38\nvalue = [38, 0]"] ;
513 -> 514 ;
515 [label="e <= 525500.0\ngini = 0.375\nsamples = 4\nvalue = [3, 1]"] ;
513 -> 515 ;
516 [label="gini = 0.0\nsamples = 1\nvalue = [0, 1]"] ;
515 -> 516 ;
517 [label="gini = 0.0\nsamples = 3\nvalue = [3, 0]"] ;
515 -> 517 ;
518 [label="c <= 52.0\ngini = 0.375\nsamples = 4\nvalue = [3, 1]"] ;
512 -> 518 ;
519 [label="gini = 0.0\nsamples = 1\nvalue = [0, 1]"] ;
518 -> 519 ;
520 [label="gini = 0.0\nsamples = 3\nvalue = [3, 0]"] ;
518 -> 520 ;
521 [label="e <= 82499.0\ngini = 0.2854\nsamples = 29\nvalue = [24, 5]"] ;
511 -> 521 ;
522 [label="e <= 38581.3711\ngini = 0.5\nsamples = 6\nvalue = [3, 3]"] ;
521 -> 522 ;
523 [label="gini = 0.0\nsamples = 2\nvalue = [2, 0]"] ;
522 -> 523 ;
524 [label="c <= 520.5\ngini = 0.375\nsamples = 4\nvalue = [1, 3]"] ;
522 -> 524 ;
525 [label="gini = 0.0\nsamples = 3\nvalue = [0, 3]"] ;
524 -> 525 ;
526 [label="gini = 0.0\nsamples = 1\nvalue = [1, 0]"] ;
524 -> 526 ;
527 [label="f <= 18970932.0\ngini = 0.1588\nsamples = 23\nvalue = [21, 2]"] ;
521 -> 527 ;
528 [label="f <= 756514.8125\ngini = 0.0907\nsamples = 21\nvalue = [20, 1]"] ;
527 -> 528 ;
529 [label="f <= 627925.8125\ngini = 0.375\nsamples = 4\nvalue = [3, 1]"] ;
528 -> 529 ;
530 [label="gini = 0.0\nsamples = 3\nvalue = [3, 0]"] ;
529 -> 530 ;
531 [label="gini = 0.0\nsamples = 1\nvalue = [0, 1]"] ;
529 -> 531 ;
532 [label="gini = 0.0\nsamples = 17\nvalue = [17, 0]"] ;
528 -> 532 ;
533 [label="a <= 1323.235\ngini = 0.5\nsamples = 2\nvalue = [1, 1]"] ;
527 -> 533 ;
534 [label="gini = 0.0\nsamples = 1\nvalue = [0, 1]"] ;
533 -> 534 ;
535 [label="gini = 0.0\nsamples = 1\nvalue = [1, 0]"] ;
533 -> 535 ;
536 [label="f <= 6876336.0\ngini = 0.5\nsamples = 2\nvalue = [1, 1]"] ;
506 -> 536 ;
537 [label="gini = 0.0\nsamples = 1\nvalue = [0, 1]"] ;
536 -> 537 ;
538 [label="gini = 0.0\nsamples = 1\nvalue = [1, 0]"] ;
536 -> 538 ;
539 [label="gini = 0.0\nsamples = 2\nvalue = [0, 2]"] ;
505 -> 539 ;
540 [label="gini = 0.0\nsamples = 31\nvalue = [31, 0]"] ;
504 -> 540 ;
541 [label="e <= 181187.9062\ngini = 0.4114\nsamples = 38\nvalue = [27, 11]"] ;
495 -> 541 ;
542 [label="e <= 28845.0938\ngini = 0.2449\nsamples = 21\nvalue = [18, 3]"] ;
541 -> 542 ;
543 [label="f <= 127865.6641\ngini = 0.4444\nsamples = 3\nvalue = [1, 2]"] ;
542 -> 543 ;
544 [label="gini = 0.0\nsamples = 1\nvalue = [1, 0]"] ;
543 -> 544 ;
545 [label="gini = 0.0\nsamples = 2\nvalue = [0, 2]"] ;
543 -> 545 ;
546 [label="f <= 153133.3281\ngini = 0.1049\nsamples = 18\nvalue = [17, 1]"] ;
542 -> 546 ;
547 [label="gini = 0.0\nsamples = 1\nvalue = [0, 1]"] ;
546 -> 547 ;
548 [label="gini = 0.0\nsamples = 17\nvalue = [17, 0]"] ;
546 -> 548 ;
549 [label="e <= 240637.0625\ngini = 0.4983\nsamples = 17\nvalue = [9, 8]"] ;
541 -> 549 ;
550 [label="gini = 0.0\nsamples = 4\nvalue = [0, 4]"] ;
549 -> 550 ;
551 [label="f <= 1015675.375\ngini = 0.426\nsamples = 13\nvalue = [9, 4]"] ;
549 -> 551 ;
552 [label="gini = 0.0\nsamples = 2\nvalue = [0, 2]"] ;
551 -> 552 ;
553 [label="e <= 2118903.75\ngini = 0.2975\nsamples = 11\nvalue = [9, 2]"] ;
551 -> 553 ;
554 [label="e <= 314448.75\ngini = 0.18\nsamples = 10\nvalue = [9, 1]"] ;
553 -> 554 ;
555 [label="f <= 2611205.5\ngini = 0.4444\nsamples = 3\nvalue = [2, 1]"] ;
554 -> 555 ;
556 [label="gini = 0.0\nsamples = 2\nvalue = [2, 0]"] ;
555 -> 556 ;
557 [label="gini = 0.0\nsamples = 1\nvalue = [0, 1]"] ;
555 -> 557 ;
558 [label="gini = 0.0\nsamples = 7\nvalue = [7, 0]"] ;
554 -> 558 ;
559 [label="gini = 0.0\nsamples = 1\nvalue = [0, 1]"] ;
553 -> 559 ;
560 [label="a <= 1257.835\ngini = 0.2089\nsamples = 2894\nvalue = [2551, 343]"] ;
2 -> 560 ;
561 [label="e <= 859237.6875\ngini = 0.2301\nsamples = 98\nvalue = [13, 85]"] ;
560 -> 561 ;
562 [label="e <= 134939.625\ngini = 0.2168\nsamples = 97\nvalue = [12, 85]"] ;
561 -> 562 ;
563 [label="e <= 127179.2031\ngini = 0.2956\nsamples = 61\nvalue = [11, 50]"] ;
562 -> 563 ;
564 [label="g <= -15.1667\ngini = 0.2585\nsamples = 59\nvalue = [9, 50]"] ;
563 -> 564 ;
565 [label="c <= 7.0\ngini = 0.5\nsamples = 4\nvalue = [2, 2]"] ;
564 -> 565 ;
566 [label="gini = 0.0\nsamples = 2\nvalue = [0, 2]"] ;
565 -> 566 ;
567 [label="gini = 0.0\nsamples = 2\nvalue = [2, 0]"] ;
565 -> 567 ;
568 [label="e <= 58235.3203\ngini = 0.2221\nsamples = 55\nvalue = [7, 48]"] ;
564 -> 568 ;
569 [label="gini = 0.0\nsamples = 13\nvalue = [0, 13]"] ;
568 -> 569 ;
570 [label="e <= 60679.7461\ngini = 0.2778\nsamples = 42\nvalue = [7, 35]"] ;
568 -> 570 ;
571 [label="gini = 0.0\nsamples = 1\nvalue = [1, 0]"] ;
570 -> 571 ;
572 [label="c <= 36.5\ngini = 0.2499\nsamples = 41\nvalue = [6, 35]"] ;
570 -> 572 ;
573 [label="f <= 649455.5\ngini = 0.2076\nsamples = 34\nvalue = [4, 30]"] ;
572 -> 573 ;
574 [label="f <= 493952.3438\ngini = 0.355\nsamples = 13\nvalue = [3, 10]"] ;
573 -> 574 ;
575 [label="c <= 4.5\ngini = 0.1653\nsamples = 11\nvalue = [1, 10]"] ;
574 -> 575 ;
576 [label="gini = 0.0\nsamples = 7\nvalue = [0, 7]"] ;
575 -> 576 ;
577 [label="e <= 90299.0938\ngini = 0.375\nsamples = 4\nvalue = [1, 3]"] ;
575 -> 577 ;
578 [label="gini = 0.0\nsamples = 3\nvalue = [0, 3]"] ;
577 -> 578 ;
579 [label="gini = 0.0\nsamples = 1\nvalue = [1, 0]"] ;
577 -> 579 ;
580 [label="gini = 0.0\nsamples = 2\nvalue = [2, 0]"] ;
574 -> 580 ;
581 [label="e <= 68898.8516\ngini = 0.0907\nsamples = 21\nvalue = [1, 20]"] ;
573 -> 581 ;
582 [label="e <= 67662.5547\ngini = 0.375\nsamples = 4\nvalue = [1, 3]"] ;
581 -> 582 ;
583 [label="gini = 0.0\nsamples = 3\nvalue = [0, 3]"] ;
582 -> 583 ;
584 [label="gini = 0.0\nsamples = 1\nvalue = [1, 0]"] ;
582 -> 584 ;
585 [label="gini = 0.0\nsamples = 17\nvalue = [0, 17]"] ;
581 -> 585 ;
586 [label="c <= 42.5\ngini = 0.4082\nsamples = 7\nvalue = [2, 5]"] ;
572 -> 586 ;
587 [label="gini = 0.0\nsamples = 2\nvalue = [2, 0]"] ;
586 -> 587 ;
588 [label="gini = 0.0\nsamples = 5\nvalue = [0, 5]"] ;
586 -> 588 ;
589 [label="gini = 0.0\nsamples = 2\nvalue = [2, 0]"] ;
563 -> 589 ;
590 [label="e <= 200905.0312\ngini = 0.054\nsamples = 36\nvalue = [1, 35]"] ;
562 -> 590 ;
591 [label="e <= 196947.5625\ngini = 0.1528\nsamples = 12\nvalue = [1, 11]"] ;
590 -> 591 ;
592 [label="gini = 0.0\nsamples = 11\nvalue = [0, 11]"] ;
591 -> 592 ;
593 [label="gini = 0.0\nsamples = 1\nvalue = [1, 0]"] ;
591 -> 593 ;
594 [label="gini = 0.0\nsamples = 24\nvalue = [0, 24]"] ;
590 -> 594 ;
595 [label="gini = 0.0\nsamples = 1\nvalue = [1, 0]"] ;
561 -> 595 ;
596 [label="e <= 356.0\ngini = 0.1675\nsamples = 2796\nvalue = [2538, 258]"] ;
560 -> 596 ;
597 [label="g <= -0.8333\ngini = 0.4717\nsamples = 63\nvalue = [24, 39]"] ;
596 -> 597 ;
598 [label="g <= -20.1667\ngini = 0.2604\nsamples = 13\nvalue = [11, 2]"] ;
597 -> 598 ;
599 [label="gini = 0.0\nsamples = 1\nvalue = [0, 1]"] ;
598 -> 599 ;
600 [label="a <= 1967.02\ngini = 0.1528\nsamples = 12\nvalue = [11, 1]"] ;
598 -> 600 ;
601 [label="gini = 0.0\nsamples = 10\nvalue = [10, 0]"] ;
600 -> 601 ;
602 [label="b <= 105.4215\ngini = 0.5\nsamples = 2\nvalue = [1, 1]"] ;
600 -> 602 ;
603 [label="gini = 0.0\nsamples = 1\nvalue = [0, 1]"] ;
602 -> 603 ;
604 [label="gini = 0.0\nsamples = 1\nvalue = [1, 0]"] ;
602 -> 604 ;
605 [label="a <= 1287.765\ngini = 0.3848\nsamples = 50\nvalue = [13, 37]"] ;
597 -> 605 ;
606 [label="f <= 238495.8281\ngini = 0.48\nsamples = 10\nvalue = [6, 4]"] ;
605 -> 606 ;
607 [label="b <= 102.103\ngini = 0.4444\nsamples = 9\nvalue = [6, 3]"] ;
606 -> 607 ;
608 [label="gini = 0.0\nsamples = 2\nvalue = [2, 0]"] ;
607 -> 608 ;
609 [label="a <= 1275.1\ngini = 0.4898\nsamples = 7\nvalue = [4, 3]"] ;
607 -> 609 ;
610 [label="gini = 0.5\nsamples = 4\nvalue = [2, 2]"] ;
609 -> 610 ;
611 [label="gini = 0.4444\nsamples = 3\nvalue = [2, 1]"] ;
609 -> 611 ;
612 [label="gini = 0.0\nsamples = 1\nvalue = [0, 1]"] ;
606 -> 612 ;
613 [label="a <= 1516.985\ngini = 0.2887\nsamples = 40\nvalue = [7, 33]"] ;
605 -> 613 ;
614 [label="b <= 103.3056\ngini = 0.1327\nsamples = 28\nvalue = [2, 26]"] ;
613 -> 614 ;
615 [label="b <= 102.8889\ngini = 0.2604\nsamples = 13\nvalue = [2, 11]"] ;
614 -> 615 ;
616 [label="a <= 1323.23\ngini = 0.1528\nsamples = 12\nvalue = [1, 11]"] ;
615 -> 616 ;
617 [label="b <= 102.0737\ngini = 0.375\nsamples = 4\nvalue = [1, 3]"] ;
616 -> 617 ;
618 [label="gini = 0.0\nsamples = 2\nvalue = [0, 2]"] ;
617 -> 618 ;
619 [label="gini = 0.5\nsamples = 2\nvalue = [1, 1]"] ;
617 -> 619 ;
620 [label="gini = 0.0\nsamples = 8\nvalue = [0, 8]"] ;
616 -> 620 ;
621 [label="gini = 0.0\nsamples = 1\nvalue = [1, 0]"] ;
615 -> 621 ;
622 [label="gini = 0.0\nsamples = 15\nvalue = [0, 15]"] ;
614 -> 622 ;
623 [label="a <= 1587.735\ngini = 0.4861\nsamples = 12\nvalue = [5, 7]"] ;
613 -> 623 ;
624 [label="gini = 0.0\nsamples = 2\nvalue = [2, 0]"] ;
623 -> 624 ;
625 [label="b <= 103.7664\ngini = 0.42\nsamples = 10\nvalue = [3, 7]"] ;
623 -> 625 ;
626 [label="b <= 103.1216\ngini = 0.4898\nsamples = 7\nvalue = [3, 4]"] ;
625 -> 626 ;
627 [label="b <= 102.1421\ngini = 0.4444\nsamples = 6\nvalue = [2, 4]"] ;
626 -> 627 ;
628 [label="b <= 101.7119\ngini = 0.5\nsamples = 4\nvalue = [2, 2]"] ;
627 -> 628 ;
629 [label="gini = 0.5\nsamples = 2\nvalue = [1, 1]"] ;
628 -> 629 ;
630 [label="gini = 0.5\nsamples = 2\nvalue = [1, 1]"] ;
628 -> 630 ;
631 [label="gini = 0.0\nsamples = 2\nvalue = [0, 2]"] ;
627 -> 631 ;
632 [label="gini = 0.0\nsamples = 1\nvalue = [1, 0]"] ;
626 -> 632 ;
633 [label="gini = 0.0\nsamples = 3\nvalue = [0, 3]"] ;
625 -> 633 ;
634 [label="g <= -24.8333\ngini = 0.1474\nsamples = 2733\nvalue = [2514, 219]"] ;
596 -> 634 ;
635 [label="g <= -32.6667\ngini = 0.4991\nsamples = 23\nvalue = [11, 12]"] ;
634 -> 635 ;
636 [label="gini = 0.0\nsamples = 3\nvalue = [3, 0]"] ;
635 -> 636 ;
637 [label="a <= 1302.74\ngini = 0.48\nsamples = 20\nvalue = [8, 12]"] ;
635 -> 637 ;
638 [label="b <= 101.6463\ngini = 0.4734\nsamples = 13\nvalue = [8, 5]"] ;
637 -> 638 ;
639 [label="gini = 0.0\nsamples = 2\nvalue = [0, 2]"] ;
638 -> 639 ;
640 [label="f <= 3001422.5\ngini = 0.3967\nsamples = 11\nvalue = [8, 3]"] ;
638 -> 640 ;
641 [label="a <= 1287.765\ngini = 0.4898\nsamples = 7\nvalue = [4, 3]"] ;
640 -> 641 ;
642 [label="gini = 0.0\nsamples = 2\nvalue = [2, 0]"] ;
641 -> 642 ;
643 [label="e <= 71040.9375\ngini = 0.48\nsamples = 5\nvalue = [2, 3]"] ;
641 -> 643 ;
644 [label="gini = 0.0\nsamples = 2\nvalue = [0, 2]"] ;
643 -> 644 ;
645 [label="e <= 154063.9375\ngini = 0.4444\nsamples = 3\nvalue = [2, 1]"] ;
643 -> 645 ;
646 [label="gini = 0.0\nsamples = 2\nvalue = [2, 0]"] ;
645 -> 646 ;
647 [label="gini = 0.0\nsamples = 1\nvalue = [0, 1]"] ;
645 -> 647 ;
648 [label="gini = 0.0\nsamples = 4\nvalue = [4, 0]"] ;
640 -> 648 ;
649 [label="gini = 0.0\nsamples = 7\nvalue = [0, 7]"] ;
637 -> 649 ;
650 [label="g <= -0.1667\ngini = 0.1411\nsamples = 2710\nvalue = [2503, 207]"] ;
634 -> 650 ;
651 [label="b <= 105.1455\ngini = 0.1215\nsamples = 2401\nvalue = [2245, 156]"] ;
650 -> 651 ;
652 [label="a <= 1392.985\ngini = 0.0953\nsamples = 1854\nvalue = [1761, 93]"] ;
651 -> 652 ;
653 [label="f <= 65880.25\ngini = 0.1499\nsamples = 429\nvalue = [394, 35]"] ;
652 -> 653 ;
654 [label="gini = 0.0\nsamples = 2\nvalue = [0, 2]"] ;
653 -> 654 ;
655 [label="e <= 2595491.5\ngini = 0.1426\nsamples = 427\nvalue = [394, 33]"] ;
653 -> 655 ;
656 [label="c <= 1097.5\ngini = 0.1389\nsamples = 426\nvalue = [394, 32]"] ;
655 -> 656 ;
657 [label="f <= 985474.75\ngini = 0.1352\nsamples = 425\nvalue = [394, 31]"] ;
656 -> 657 ;
658 [label="f <= 983949.125\ngini = 0.2001\nsamples = 133\nvalue = [118, 15]"] ;
657 -> 658 ;
659 [label="e <= 57729.2969\ngini = 0.1896\nsamples = 132\nvalue = [118, 14]"] ;
658 -> 659 ;
660 [label="f <= 97700.3594\ngini = 0.0392\nsamples = 50\nvalue = [49, 1]"] ;
659 -> 660 ;
661 [label="b <= 103.3407\ngini = 0.4444\nsamples = 3\nvalue = [2, 1]"] ;
660 -> 661 ;
662 [label="gini = 0.0\nsamples = 2\nvalue = [2, 0]"] ;
661 -> 662 ;
663 [label="gini = 0.0\nsamples = 1\nvalue = [0, 1]"] ;
661 -> 663 ;
664 [label="gini = 0.0\nsamples = 47\nvalue = [47, 0]"] ;
660 -> 664 ;
665 [label="e <= 72780.0\ngini = 0.2668\nsamples = 82\nvalue = [69, 13]"] ;
659 -> 665 ;
666 [label="b <= 102.3376\ngini = 0.4734\nsamples = 13\nvalue = [8, 5]"] ;
665 -> 666 ;
667 [label="gini = 0.0\nsamples = 3\nvalue = [0, 3]"] ;
666 -> 667 ;
668 [label="e <= 58166.5859\ngini = 0.32\nsamples = 10\nvalue = [8, 2]"] ;
666 -> 668 ;
669 [label="gini = 0.0\nsamples = 1\nvalue = [0, 1]"] ;
668 -> 669 ;
670 [label="e <= 71084.25\ngini = 0.1975\nsamples = 9\nvalue = [8, 1]"] ;
668 -> 670 ;
671 [label="gini = 0.0\nsamples = 8\nvalue = [8, 0]"] ;
670 -> 671 ;
672 [label="gini = 0.0\nsamples = 1\nvalue = [0, 1]"] ;
670 -> 672 ;
673 [label="c <= 13.0\ngini = 0.205\nsamples = 69\nvalue = [61, 8]"] ;
665 -> 673 ;
674 [label="c <= 4.5\ngini = 0.1847\nsamples = 68\nvalue = [61, 7]"] ;
673 -> 674 ;
675 [label="e <= 110647.9219\ngini = 0.2887\nsamples = 40\nvalue = [33, 7]"] ;
674 -> 675 ;
676 [label="g <= -2.3333\ngini = 0.4898\nsamples = 7\nvalue = [4, 3]"] ;
675 -> 676 ;
677 [label="gini = 0.0\nsamples = 3\nvalue = [3, 0]"] ;
676 -> 677 ;
678 [label="e <= 82229.25\ngini = 0.375\nsamples = 4\nvalue = [1, 3]"] ;
676 -> 678 ;
679 [label="gini = 0.0\nsamples = 1\nvalue = [1, 0]"] ;
678 -> 679 ;
680 [label="gini = 0.0\nsamples = 3\nvalue = [0, 3]"] ;
678 -> 680 ;
681 [label="f <= 914076.6875\ngini = 0.213\nsamples = 33\nvalue = [29, 4]"] ;
675 -> 681 ;
682 [label="b <= 103.0787\ngini = 0.1327\nsamples = 28\nvalue = [26, 2]"] ;
681 -> 682 ;
683 [label="gini = 0.0\nsamples = 18\nvalue = [18, 0]"] ;
682 -> 683 ;
684 [label="f <= 300030.1562\ngini = 0.32\nsamples = 10\nvalue = [8, 2]"] ;
682 -> 684 ;
685 [label="gini = 0.0\nsamples = 1\nvalue = [0, 1]"] ;
684 -> 685 ;
686 [label="b <= 103.6712\ngini = 0.1975\nsamples = 9\nvalue = [8, 1]"] ;
684 -> 686 ;
687 [label="g <= -7.5\ngini = 0.5\nsamples = 2\nvalue = [1, 1]"] ;
686 -> 687 ;
688 [label="gini = 0.0\nsamples = 1\nvalue = [1, 0]"] ;
687 -> 688 ;
689 [label="gini = 0.0\nsamples = 1\nvalue = [0, 1]"] ;
687 -> 689 ;
690 [label="gini = 0.0\nsamples = 7\nvalue = [7, 0]"] ;
686 -> 690 ;
691 [label="e <= 261218.75\ngini = 0.48\nsamples = 5\nvalue = [3, 2]"] ;
681 -> 691 ;
692 [label="gini = 0.0\nsamples = 2\nvalue = [0, 2]"] ;
691 -> 692 ;
693 [label="gini = 0.0\nsamples = 3\nvalue = [3, 0]"] ;
691 -> 693 ;
694 [label="gini = 0.0\nsamples = 28\nvalue = [28, 0]"] ;
674 -> 694 ;
695 [label="gini = 0.0\nsamples = 1\nvalue = [0, 1]"] ;
673 -> 695 ;
696 [label="gini = 0.0\nsamples = 1\nvalue = [0, 1]"] ;
658 -> 696 ;
697 [label="c <= 10.5\ngini = 0.1036\nsamples = 292\nvalue = [276, 16]"] ;
657 -> 697 ;
698 [label="e <= 69074.1719\ngini = 0.0354\nsamples = 111\nvalue = [109, 2]"] ;
697 -> 698 ;
699 [label="b <= 101.4167\ngini = 0.4444\nsamples = 3\nvalue = [2, 1]"] ;
698 -> 699 ;
700 [label="gini = 0.0\nsamples = 1\nvalue = [0, 1]"] ;
699 -> 700 ;
701 [label="gini = 0.0\nsamples = 2\nvalue = [2, 0]"] ;
699 -> 701 ;
702 [label="a <= 1381.7649\ngini = 0.0183\nsamples = 108\nvalue = [107, 1]"] ;
698 -> 702 ;
703 [label="gini = 0.0\nsamples = 104\nvalue = [104, 0]"] ;
702 -> 703 ;
704 [label="f <= 1476363.5\ngini = 0.375\nsamples = 4\nvalue = [3, 1]"] ;
702 -> 704 ;
705 [label="gini = 0.0\nsamples = 1\nvalue = [0, 1]"] ;
704 -> 705 ;
706 [label="gini = 0.0\nsamples = 3\nvalue = [3, 0]"] ;
704 -> 706 ;
707 [label="e <= 640624.5\ngini = 0.1427\nsamples = 181\nvalue = [167, 14]"] ;
697 -> 707 ;
708 [label="c <= 12.5\ngini = 0.1347\nsamples = 179\nvalue = [166, 13]"] ;
707 -> 708 ;
709 [label="g <= -2.3333\ngini = 0.2907\nsamples = 17\nvalue = [14, 3]"] ;
708 -> 709 ;
710 [label="b <= 104.4097\ngini = 0.1327\nsamples = 14\nvalue = [13, 1]"] ;
709 -> 710 ;
711 [label="gini = 0.0\nsamples = 11\nvalue = [11, 0]"] ;
710 -> 711 ;
712 [label="f <= 2165900.25\ngini = 0.4444\nsamples = 3\nvalue = [2, 1]"] ;
710 -> 712 ;
713 [label="gini = 0.0\nsamples = 2\nvalue = [2, 0]"] ;
712 -> 713 ;
714 [label="gini = 0.0\nsamples = 1\nvalue = [0, 1]"] ;
712 -> 714 ;
715 [label="f <= 3408366.75\ngini = 0.4444\nsamples = 3\nvalue = [1, 2]"] ;
709 -> 715 ;
716 [label="gini = 0.0\nsamples = 2\nvalue = [0, 2]"] ;
715 -> 716 ;
717 [label="gini = 0.0\nsamples = 1\nvalue = [1, 0]"] ;
715 -> 717 ;
718 [label="g <= -19.1667\ngini = 0.1158\nsamples = 162\nvalue = [152, 10]"] ;
708 -> 718 ;
719 [label="a <= 1295.635\ngini = 0.4444\nsamples = 3\nvalue = [2, 1]"] ;
718 -> 719 ;
720 [label="gini = 0.0\nsamples = 2\nvalue = [2, 0]"] ;
719 -> 720 ;
721 [label="gini = 0.0\nsamples = 1\nvalue = [0, 1]"] ;
719 -> 721 ;
722 [label="c <= 14.5\ngini = 0.1068\nsamples = 159\nvalue = [150, 9]"] ;
718 -> 722 ;
723 [label="gini = 0.0\nsamples = 24\nvalue = [24, 0]"] ;
722 -> 723 ;
724 [label="c <= 24.5\ngini = 0.1244\nsamples = 135\nvalue = [126, 9]"] ;
722 -> 724 ;
725 [label="f <= 5474449.0\ngini = 0.1913\nsamples = 56\nvalue = [50, 6]"] ;
724 -> 725 ;
726 [label="g <= -8.1667\ngini = 0.1372\nsamples = 54\nvalue = [50, 4]"] ;
725 -> 726 ;
727 [label="gini = 0.0\nsamples = 1\nvalue = [0, 1]"] ;
726 -> 727 ;
728 [label="g <= -6.1667\ngini = 0.1068\nsamples = 53\nvalue = [50, 3]"] ;
726 -> 728 ;
729 [label="b <= 104.4097\ngini = 0.32\nsamples = 5\nvalue = [4, 1]"] ;
728 -> 729 ;
730 [label="gini = 0.0\nsamples = 3\nvalue = [3, 0]"] ;
729 -> 730 ;
731 [label="g <= -7.1667\ngini = 0.5\nsamples = 2\nvalue = [1, 1]"] ;
729 -> 731 ;
732 [label="gini = 0.0\nsamples = 1\nvalue = [1, 0]"] ;
731 -> 732 ;
733 [label="gini = 0.0\nsamples = 1\nvalue = [0, 1]"] ;
731 -> 733 ;
734 [label="b <= 102.6451\ngini = 0.0799\nsamples = 48\nvalue = [46, 2]"] ;
728 -> 734 ;
735 [label="f <= 1548093.0\ngini = 0.2188\nsamples = 16\nvalue = [14, 2]"] ;
734 -> 735 ;
736 [label="f <= 1388557.75\ngini = 0.4082\nsamples = 7\nvalue = [5, 2]"] ;
735 -> 736 ;
737 [label="a <= 1327.3\ngini = 0.2778\nsamples = 6\nvalue = [5, 1]"] ;
736 -> 737 ;
738 [label="gini = 0.0\nsamples = 4\nvalue = [4, 0]"] ;
737 -> 738 ;
739 [label="g <= -2.6667\ngini = 0.5\nsamples = 2\nvalue = [1, 1]"] ;
737 -> 739 ;
740 [label="gini = 0.0\nsamples = 1\nvalue = [0, 1]"] ;
739 -> 740 ;
741 [label="gini = 0.0\nsamples = 1\nvalue = [1, 0]"] ;
739 -> 741 ;
742 [label="gini = 0.0\nsamples = 1\nvalue = [0, 1]"] ;
736 -> 742 ;
743 [label="gini = 0.0\nsamples = 9\nvalue = [9, 0]"] ;
735 -> 743 ;
744 [label="gini = 0.0\nsamples = 32\nvalue = [32, 0]"] ;
734 -> 744 ;
745 [label="gini = 0.0\nsamples = 2\nvalue = [0, 2]"] ;
725 -> 745 ;
746 [label="e <= 95693.5156\ngini = 0.0731\nsamples = 79\nvalue = [76, 3]"] ;
724 -> 746 ;
747 [label="e <= 95592.5\ngini = 0.1567\nsamples = 35\nvalue = [32, 3]"] ;
746 -> 747 ;
748 [label="c <= 46.0\ngini = 0.1107\nsamples = 34\nvalue = [32, 2]"] ;
747 -> 748 ;
749 [label="gini = 0.0\nsamples = 20\nvalue = [20, 0]"] ;
748 -> 749 ;
750 [label="b <= 104.4097\ngini = 0.2449\nsamples = 14\nvalue = [12, 2]"] ;
748 -> 750 ;
751 [label="c <= 50.0\ngini = 0.142\nsamples = 13\nvalue = [12, 1]"] ;
750 -> 751 ;
752 [label="g <= -4.0\ngini = 0.5\nsamples = 2\nvalue = [1, 1]"] ;
751 -> 752 ;
753 [label="gini = 0.0\nsamples = 1\nvalue = [0, 1]"] ;
752 -> 753 ;
754 [label="gini = 0.0\nsamples = 1\nvalue = [1, 0]"] ;
752 -> 754 ;
755 [label="gini = 0.0\nsamples = 11\nvalue = [11, 0]"] ;
751 -> 755 ;
756 [label="gini = 0.0\nsamples = 1\nvalue = [0, 1]"] ;
750 -> 756 ;
757 [label="gini = 0.0\nsamples = 1\nvalue = [0, 1]"] ;
747 -> 757 ;
758 [label="gini = 0.0\nsamples = 44\nvalue = [44, 0]"] ;
746 -> 758 ;
759 [label="b <= 102.6961\ngini = 0.5\nsamples = 2\nvalue = [1, 1]"] ;
707 -> 759 ;
760 [label="gini = 0.0\nsamples = 1\nvalue = [0, 1]"] ;
759 -> 760 ;
761 [label="gini = 0.0\nsamples = 1\nvalue = [1, 0]"] ;
759 -> 761 ;
762 [label="gini = 0.0\nsamples = 1\nvalue = [0, 1]"] ;
656 -> 762 ;
763 [label="gini = 0.0\nsamples = 1\nvalue = [0, 1]"] ;
655 -> 763 ;
764 [label="e <= 45665.0312\ngini = 0.0781\nsamples = 1425\nvalue = [1367, 58]"] ;
652 -> 764 ;
765 [label="e <= 14926.8008\ngini = 0.0196\nsamples = 202\nvalue = [200, 2]"] ;
764 -> 765 ;
766 [label="e <= 14879.7002\ngini = 0.0849\nsamples = 45\nvalue = [43, 2]"] ;
765 -> 766 ;
767 [label="g <= -1.5\ngini = 0.0444\nsamples = 44\nvalue = [43, 1]"] ;
766 -> 767 ;
768 [label="gini = 0.0\nsamples = 38\nvalue = [38, 0]"] ;
767 -> 768 ;
769 [label="f <= 66929.2031\ngini = 0.2778\nsamples = 6\nvalue = [5, 1]"] ;
767 -> 769 ;
770 [label="gini = 0.0\nsamples = 1\nvalue = [0, 1]"] ;
769 -> 770 ;
771 [label="gini = 0.0\nsamples = 5\nvalue = [5, 0]"] ;
769 -> 771 ;
772 [label="gini = 0.0\nsamples = 1\nvalue = [0, 1]"] ;
766 -> 772 ;
773 [label="gini = 0.0\nsamples = 157\nvalue = [157, 0]"] ;
765 -> 773 ;
774 [label="e <= 45794.7422\ngini = 0.0874\nsamples = 1223\nvalue = [1167, 56]"] ;
764 -> 774 ;
775 [label="gini = 0.0\nsamples = 1\nvalue = [0, 1]"] ;
774 -> 775 ;
776 [label="f <= 308545.0\ngini = 0.086\nsamples = 1222\nvalue = [1167, 55]"] ;
774 -> 776 ;
777 [label="gini = 0.0\nsamples = 81\nvalue = [81, 0]"] ;
776 -> 777 ;
778 [label="f <= 312342.5\ngini = 0.0918\nsamples = 1141\nvalue = [1086, 55]"] ;
776 -> 778 ;
779 [label="gini = 0.0\nsamples = 1\nvalue = [0, 1]"] ;
778 -> 779 ;
780 [label="e <= 73039.0\ngini = 0.0902\nsamples = 1140\nvalue = [1086, 54]"] ;
778 -> 780 ;
781 [label="e <= 72682.3281\ngini = 0.1517\nsamples = 133\nvalue = [122, 11]"] ;
780 -> 781 ;
782 [label="c <= 5.5\ngini = 0.14\nsamples = 132\nvalue = [122, 10]"] ;
781 -> 782 ;
783 [label="c <= 3.5\ngini = 0.2873\nsamples = 23\nvalue = [19, 4]"] ;
782 -> 783 ;
784 [label="gini = 0.0\nsamples = 13\nvalue = [13, 0]"] ;
783 -> 784 ;
785 [label="a <= 1865.895\ngini = 0.48\nsamples = 10\nvalue = [6, 4]"] ;
783 -> 785 ;
786 [label="f <= 913773.25\ngini = 0.4898\nsamples = 7\nvalue = [3, 4]"] ;
785 -> 786 ;
787 [label="gini = 0.0\nsamples = 3\nvalue = [0, 3]"] ;
786 -> 787 ;
788 [label="b <= 104.3045\ngini = 0.375\nsamples = 4\nvalue = [3, 1]"] ;
786 -> 788 ;
789 [label="gini = 0.0\nsamples = 3\nvalue = [3, 0]"] ;
788 -> 789 ;
790 [label="gini = 0.0\nsamples = 1\nvalue = [0, 1]"] ;
788 -> 790 ;
791 [label="gini = 0.0\nsamples = 3\nvalue = [3, 0]"] ;
785 -> 791 ;
792 [label="g <= -3.1667\ngini = 0.104\nsamples = 109\nvalue = [103, 6]"] ;
782 -> 792 ;
793 [label="f <= 1764540.5\ngini = 0.1676\nsamples = 65\nvalue = [59, 6]"] ;
792 -> 793 ;
794 [label="b <= 104.2955\ngini = 0.0815\nsamples = 47\nvalue = [45, 2]"] ;
793 -> 794 ;
795 [label="gini = 0.0\nsamples = 35\nvalue = [35, 0]"] ;
794 -> 795 ;
796 [label="c <= 7.5\ngini = 0.2778\nsamples = 12\nvalue = [10, 2]"] ;
794 -> 796 ;
797 [label="gini = 0.0\nsamples = 1\nvalue = [0, 1]"] ;
796 -> 797 ;
798 [label="c <= 20.0\ngini = 0.1653\nsamples = 11\nvalue = [10, 1]"] ;
796 -> 798 ;
799 [label="gini = 0.0\nsamples = 9\nvalue = [9, 0]"] ;
798 -> 799 ;
800 [label="e <= 64610.3906\ngini = 0.5\nsamples = 2\nvalue = [1, 1]"] ;
798 -> 800 ;
801 [label="gini = 0.0\nsamples = 1\nvalue = [1, 0]"] ;
800 -> 801 ;
802 [label="gini = 0.0\nsamples = 1\nvalue = [0, 1]"] ;
800 -> 802 ;
803 [label="f <= 1819795.0\ngini = 0.3457\nsamples = 18\nvalue = [14, 4]"] ;
793 -> 803 ;
804 [label="gini = 0.0\nsamples = 1\nvalue = [0, 1]"] ;
803 -> 804 ;
805 [label="a <= 1522.65\ngini = 0.2907\nsamples = 17\nvalue = [14, 3]"] ;
803 -> 805 ;
806 [label="a <= 1432.215\ngini = 0.42\nsamples = 10\nvalue = [7, 3]"] ;
805 -> 806 ;
807 [label="gini = 0.0\nsamples = 5\nvalue = [5, 0]"] ;
806 -> 807 ;
808 [label="c <= 38.5\ngini = 0.48\nsamples = 5\nvalue = [2, 3]"] ;
806 -> 808 ;
809 [label="gini = 0.0\nsamples = 2\nvalue = [0, 2]"] ;
808 -> 809 ;
810 [label="e <= 58036.2266\ngini = 0.4444\nsamples = 3\nvalue = [2, 1]"] ;
808 -> 810 ;
811 [label="gini = 0.0\nsamples = 1\nvalue = [0, 1]"] ;
810 -> 811 ;
812 [label="gini = 0.0\nsamples = 2\nvalue = [2, 0]"] ;
810 -> 812 ;
813 [label="gini = 0.0\nsamples = 7\nvalue = [7, 0]"] ;
805 -> 813 ;
814 [label="gini = 0.0\nsamples = 44\nvalue = [44, 0]"] ;
792 -> 814 ;
815 [label="gini = 0.0\nsamples = 1\nvalue = [0, 1]"] ;
781 -> 815 ;
816 [label="g <= -1.1667\ngini = 0.0818\nsamples = 1007\nvalue = [964, 43]"] ;
780 -> 816 ;
817 [label="e <= 529299.375\ngini = 0.0743\nsamples = 906\nvalue = [871, 35]"] ;
816 -> 817 ;
818 [label="a <= 1794.2\ngini = 0.0678\nsamples = 826\nvalue = [797, 29]"] ;
817 -> 818 ;
819 [label="f <= 442227.625\ngini = 0.0814\nsamples = 612\nvalue = [586, 26]"] ;
818 -> 819 ;
820 [label="f <= 436076.1562\ngini = 0.2024\nsamples = 35\nvalue = [31, 4]"] ;
819 -> 820 ;
821 [label="b <= 102.828\ngini = 0.1172\nsamples = 32\nvalue = [30, 2]"] ;
820 -> 821 ;
822 [label="gini = 0.0\nsamples = 25\nvalue = [25, 0]"] ;
821 -> 822 ;
823 [label="e <= 105284.0\ngini = 0.4082\nsamples = 7\nvalue = [5, 2]"] ;
821 -> 823 ;
824 [label="gini = 0.0\nsamples = 1\nvalue = [0, 1]"] ;
823 -> 824 ;
825 [label="g <= -5.5\ngini = 0.2778\nsamples = 6\nvalue = [5, 1]"] ;
823 -> 825 ;
826 [label="a <= 1446.755\ngini = 0.5\nsamples = 2\nvalue = [1, 1]"] ;
825 -> 826 ;
827 [label="gini = 0.0\nsamples = 1\nvalue = [0, 1]"] ;
826 -> 827 ;
828 [label="gini = 0.0\nsamples = 1\nvalue = [1, 0]"] ;
826 -> 828 ;
829 [label="gini = 0.0\nsamples = 4\nvalue = [4, 0]"] ;
825 -> 829 ;
830 [label="g <= -4.0\ngini = 0.4444\nsamples = 3\nvalue = [1, 2]"] ;
820 -> 830 ;
831 [label="gini = 0.0\nsamples = 1\nvalue = [1, 0]"] ;
830 -> 831 ;
832 [label="gini = 0.0\nsamples = 2\nvalue = [0, 2]"] ;
830 -> 832 ;
833 [label="g <= -1.8333\ngini = 0.0733\nsamples = 577\nvalue = [555, 22]"] ;
819 -> 833 ;
834 [label="b <= 101.7262\ngini = 0.0657\nsamples = 529\nvalue = [511, 18]"] ;
833 -> 834 ;
835 [label="e <= 456313.3125\ngini = 0.028\nsamples = 211\nvalue = [208, 3]"] ;
834 -> 835 ;
836 [label="c <= 1.5\ngini = 0.0191\nsamples = 207\nvalue = [205, 2]"] ;
835 -> 836 ;
837 [label="g <= -3.5\ngini = 0.1653\nsamples = 11\nvalue = [10, 1]"] ;
836 -> 837 ;
838 [label="gini = 0.0\nsamples = 9\nvalue = [9, 0]"] ;
837 -> 838 ;
839 [label="a <= 1556.125\ngini = 0.5\nsamples = 2\nvalue = [1, 1]"] ;
837 -> 839 ;
840 [label="gini = 0.0\nsamples = 1\nvalue = [0, 1]"] ;
839 -> 840 ;
841 [label="gini = 0.0\nsamples = 1\nvalue = [1, 0]"] ;
839 -> 841 ;
842 [label="e <= 313536.1875\ngini = 0.0102\nsamples = 196\nvalue = [195, 1]"] ;
836 -> 842 ;
843 [label="gini = 0.0\nsamples = 169\nvalue = [169, 0]"] ;
842 -> 843 ;
844 [label="e <= 314842.3125\ngini = 0.0713\nsamples = 27\nvalue = [26, 1]"] ;
842 -> 844 ;
845 [label="gini = 0.0\nsamples = 1\nvalue = [0, 1]"] ;
844 -> 845 ;
846 [label="gini = 0.0\nsamples = 26\nvalue = [26, 0]"] ;
844 -> 846 ;
847 [label="c <= 4.0\ngini = 0.375\nsamples = 4\nvalue = [3, 1]"] ;
835 -> 847 ;
848 [label="gini = 0.0\nsamples = 1\nvalue = [0, 1]"] ;
847 -> 848 ;
849 [label="gini = 0.0\nsamples = 3\nvalue = [3, 0]"] ;
847 -> 849 ;
850 [label="f <= 10234662.0\ngini = 0.0899\nsamples = 318\nvalue = [303, 15]"] ;
834 -> 850 ;
851 [label="e <= 238905.7031\ngini = 0.078\nsamples = 295\nvalue = [283, 12]"] ;
850 -> 851 ;
852 [label="e <= 237173.7812\ngini = 0.1014\nsamples = 224\nvalue = [212, 12]"] ;
851 -> 852 ;
853 [label="e <= 205661.0\ngini = 0.0938\nsamples = 223\nvalue = [212, 11]"] ;
852 -> 853 ;
854 [label="e <= 105467.6406\ngini = 0.0679\nsamples = 199\nvalue = [192, 7]"] ;
853 -> 854 ;
855 [label="e <= 104987.2812\ngini = 0.1284\nsamples = 87\nvalue = [81, 6]"] ;
854 -> 855 ;
856 [label="e <= 77870.1406\ngini = 0.1095\nsamples = 86\nvalue = [81, 5]"] ;
855 -> 856 ;
857 [label="e <= 77417.0156\ngini = 0.2449\nsamples = 14\nvalue = [12, 2]"] ;
856 -> 857 ;
858 [label="gini = 0.0\nsamples = 12\nvalue = [12, 0]"] ;
857 -> 858 ;
859 [label="gini = 0.0\nsamples = 2\nvalue = [0, 2]"] ;
857 -> 859 ;
860 [label="e <= 98123.0312\ngini = 0.0799\nsamples = 72\nvalue = [69, 3]"] ;
856 -> 860 ;
861 [label="f <= 3000305.25\ngini = 0.0351\nsamples = 56\nvalue = [55, 1]"] ;
860 -> 861 ;
862 [label="gini = 0.0\nsamples = 49\nvalue = [49, 0]"] ;
861 -> 862 ;
863 [label="f <= 3208103.5\ngini = 0.2449\nsamples = 7\nvalue = [6, 1]"] ;
861 -> 863 ;
864 [label="gini = 0.0\nsamples = 1\nvalue = [0, 1]"] ;
863 -> 864 ;
865 [label="gini = 0.0\nsamples = 6\nvalue = [6, 0]"] ;
863 -> 865 ;
866 [label="g <= -2.5\ngini = 0.2188\nsamples = 16\nvalue = [14, 2]"] ;
860 -> 866 ;
867 [label="e <= 98878.6406\ngini = 0.1244\nsamples = 15\nvalue = [14, 1]"] ;
866 -> 867 ;
868 [label="gini = 0.0\nsamples = 1\nvalue = [0, 1]"] ;
867 -> 868 ;
869 [label="gini = 0.0\nsamples = 14\nvalue = [14, 0]"] ;
867 -> 869 ;
870 [label="gini = 0.0\nsamples = 1\nvalue = [0, 1]"] ;
866 -> 870 ;
871 [label="gini = 0.0\nsamples = 1\nvalue = [0, 1]"] ;
855 -> 871 ;
872 [label="b <= 105.1292\ngini = 0.0177\nsamples = 112\nvalue = [111, 1]"] ;
854 -> 872 ;
873 [label="gini = 0.0\nsamples = 104\nvalue = [104, 0]"] ;
872 -> 873 ;
874 [label="e <= 125466.7969\ngini = 0.2188\nsamples = 8\nvalue = [7, 1]"] ;
872 -> 874 ;
875 [label="e <= 117312.6094\ngini = 0.5\nsamples = 2\nvalue = [1, 1]"] ;
874 -> 875 ;
876 [label="gini = 0.0\nsamples = 1\nvalue = [1, 0]"] ;
875 -> 876 ;
877 [label="gini = 0.0\nsamples = 1\nvalue = [0, 1]"] ;
875 -> 877 ;
878 [label="gini = 0.0\nsamples = 6\nvalue = [6, 0]"] ;
874 -> 878 ;
879 [label="e <= 206149.5938\ngini = 0.2778\nsamples = 24\nvalue = [20, 4]"] ;
853 -> 879 ;
880 [label="gini = 0.0\nsamples = 1\nvalue = [0, 1]"] ;
879 -> 880 ;
881 [label="a <= 1506.495\ngini = 0.2268\nsamples = 23\nvalue = [20, 3]"] ;
879 -> 881 ;
882 [label="f <= 2235137.5\ngini = 0.4444\nsamples = 9\nvalue = [6, 3]"] ;
881 -> 882 ;
883 [label="g <= -8.0\ngini = 0.375\nsamples = 4\nvalue = [1, 3]"] ;
882 -> 883 ;
884 [label="gini = 0.0\nsamples = 1\nvalue = [1, 0]"] ;
883 -> 884 ;
885 [label="gini = 0.0\nsamples = 3\nvalue = [0, 3]"] ;
883 -> 885 ;
886 [label="gini = 0.0\nsamples = 5\nvalue = [5, 0]"] ;
882 -> 886 ;
887 [label="gini = 0.0\nsamples = 14\nvalue = [14, 0]"] ;
881 -> 887 ;
888 [label="gini = 0.0\nsamples = 1\nvalue = [0, 1]"] ;
852 -> 888 ;
889 [label="gini = 0.0\nsamples = 71\nvalue = [71, 0]"] ;
851 -> 889 ;
890 [label="e <= 167863.3438\ngini = 0.2268\nsamples = 23\nvalue = [20, 3]"] ;
850 -> 890 ;
891 [label="b <= 103.3894\ngini = 0.4444\nsamples = 3\nvalue = [1, 2]"] ;
890 -> 891 ;
892 [label="gini = 0.0\nsamples = 2\nvalue = [0, 2]"] ;
891 -> 892 ;
893 [label="gini = 0.0\nsamples = 1\nvalue = [1, 0]"] ;
891 -> 893 ;
894 [label="g <= -6.6667\ngini = 0.095\nsamples = 20\nvalue = [19, 1]"] ;
890 -> 894 ;
895 [label="a <= 1681.41\ngini = 0.5\nsamples = 2\nvalue = [1, 1]"] ;
894 -> 895 ;
896 [label="gini = 0.0\nsamples = 1\nvalue = [0, 1]"] ;
895 -> 896 ;
897 [label="gini = 0.0\nsamples = 1\nvalue = [1, 0]"] ;
895 -> 897 ;
898 [label="gini = 0.0\nsamples = 18\nvalue = [18, 0]"] ;
894 -> 898 ;
899 [label="e <= 256540.9375\ngini = 0.1528\nsamples = 48\nvalue = [44, 4]"] ;
833 -> 899 ;
900 [label="a <= 1657.26\ngini = 0.05\nsamples = 39\nvalue = [38, 1]"] ;
899 -> 900 ;
901 [label="gini = 0.0\nsamples = 34\nvalue = [34, 0]"] ;
900 -> 901 ;
902 [label="e <= 99882.5781\ngini = 0.32\nsamples = 5\nvalue = [4, 1]"] ;
900 -> 902 ;
903 [label="gini = 0.0\nsamples = 1\nvalue = [0, 1]"] ;
902 -> 903 ;
904 [label="gini = 0.0\nsamples = 4\nvalue = [4, 0]"] ;
902 -> 904 ;
905 [label="b <= 102.0152\ngini = 0.4444\nsamples = 9\nvalue = [6, 3]"] ;
899 -> 905 ;
906 [label="gini = 0.0\nsamples = 3\nvalue = [0, 3]"] ;
905 -> 906 ;
907 [label="gini = 0.0\nsamples = 6\nvalue = [6, 0]"] ;
905 -> 907 ;
908 [label="f <= 2968972.0\ngini = 0.0276\nsamples = 214\nvalue = [211, 3]"] ;
818 -> 908 ;
909 [label="gini = 0.0\nsamples = 143\nvalue = [143, 0]"] ;
908 -> 909 ;
910 [label="f <= 3022634.0\ngini = 0.0809\nsamples = 71\nvalue = [68, 3]"] ;
908 -> 910 ;
911 [label="gini = 0.0\nsamples = 1\nvalue = [0, 1]"] ;
910 -> 911 ;
912 [label="f <= 3182065.0\ngini = 0.0555\nsamples = 70\nvalue = [68, 2]"] ;
910 -> 912 ;
913 [label="g <= -7.1667\ngini = 0.2778\nsamples = 6\nvalue = [5, 1]"] ;
912 -> 913 ;
914 [label="gini = 0.0\nsamples = 1\nvalue = [0, 1]"] ;
913 -> 914 ;
915 [label="gini = 0.0\nsamples = 5\nvalue = [5, 0]"] ;
913 -> 915 ;
916 [label="e <= 111710.0156\ngini = 0.0308\nsamples = 64\nvalue = [63, 1]"] ;
912 -> 916 ;
917 [label="b <= 104.3718\ngini = 0.1975\nsamples = 9\nvalue = [8, 1]"] ;
916 -> 917 ;
918 [label="gini = 0.0\nsamples = 8\nvalue = [8, 0]"] ;
917 -> 918 ;
919 [label="gini = 0.0\nsamples = 1\nvalue = [0, 1]"] ;
917 -> 919 ;
920 [label="gini = 0.0\nsamples = 55\nvalue = [55, 0]"] ;
916 -> 920 ;
921 [label="e <= 535117.875\ngini = 0.1388\nsamples = 80\nvalue = [74, 6]"] ;
817 -> 921 ;
922 [label="gini = 0.0\nsamples = 1\nvalue = [0, 1]"] ;
921 -> 922 ;
923 [label="f <= 1008208.1875\ngini = 0.1186\nsamples = 79\nvalue = [74, 5]"] ;
921 -> 923 ;
924 [label="g <= -8.1667\ngini = 0.4082\nsamples = 7\nvalue = [5, 2]"] ;
923 -> 924 ;
925 [label="gini = 0.0\nsamples = 1\nvalue = [0, 1]"] ;
924 -> 925 ;
926 [label="b <= 104.6059\ngini = 0.2778\nsamples = 6\nvalue = [5, 1]"] ;
924 -> 926 ;
927 [label="f <= 753583.3125\ngini = 0.4444\nsamples = 3\nvalue = [2, 1]"] ;
926 -> 927 ;
928 [label="gini = 0.0\nsamples = 1\nvalue = [0, 1]"] ;
927 -> 928 ;
929 [label="gini = 0.0\nsamples = 2\nvalue = [2, 0]"] ;
927 -> 929 ;
930 [label="gini = 0.0\nsamples = 3\nvalue = [3, 0]"] ;
926 -> 930 ;
931 [label="b <= 100.9998\ngini = 0.0799\nsamples = 72\nvalue = [69, 3]"] ;
923 -> 931 ;
932 [label="f <= 5465775.0\ngini = 0.4444\nsamples = 3\nvalue = [2, 1]"] ;
931 -> 932 ;
933 [label="gini = 0.0\nsamples = 1\nvalue = [0, 1]"] ;
932 -> 933 ;
934 [label="gini = 0.0\nsamples = 2\nvalue = [2, 0]"] ;
932 -> 934 ;
935 [label="f <= 4905319.0\ngini = 0.0563\nsamples = 69\nvalue = [67, 2]"] ;
931 -> 935 ;
936 [label="gini = 0.0\nsamples = 44\nvalue = [44, 0]"] ;
935 -> 936 ;
937 [label="f <= 5115014.5\ngini = 0.1472\nsamples = 25\nvalue = [23, 2]"] ;
935 -> 937 ;
938 [label="gini = 0.0\nsamples = 1\nvalue = [0, 1]"] ;
937 -> 938 ;
939 [label="e <= 1718351.25\ngini = 0.0799\nsamples = 24\nvalue = [23, 1]"] ;
937 -> 939 ;
940 [label="gini = 0.0\nsamples = 20\nvalue = [20, 0]"] ;
939 -> 940 ;
941 [label="f <= 6495154.0\ngini = 0.375\nsamples = 4\nvalue = [3, 1]"] ;
939 -> 941 ;
942 [label="gini = 0.0\nsamples = 1\nvalue = [0, 1]"] ;
941 -> 942 ;
943 [label="gini = 0.0\nsamples = 3\nvalue = [3, 0]"] ;
941 -> 943 ;
944 [label="b <= 101.6159\ngini = 0.1459\nsamples = 101\nvalue = [93, 8]"] ;
816 -> 944 ;
945 [label="f <= 17249496.0\ngini = 0.32\nsamples = 20\nvalue = [16, 4]"] ;
944 -> 945 ;
946 [label="a <= 1462.1499\ngini = 0.2659\nsamples = 19\nvalue = [16, 3]"] ;
945 -> 946 ;
947 [label="gini = 0.0\nsamples = 1\nvalue = [0, 1]"] ;
946 -> 947 ;
948 [label="f <= 2422666.5\ngini = 0.1975\nsamples = 18\nvalue = [16, 2]"] ;
946 -> 948 ;
949 [label="gini = 0.0\nsamples = 12\nvalue = [12, 0]"] ;
948 -> 949 ;
950 [label="a <= 1614.155\ngini = 0.4444\nsamples = 6\nvalue = [4, 2]"] ;
948 -> 950 ;
951 [label="gini = 0.0\nsamples = 1\nvalue = [0, 1]"] ;
950 -> 951 ;
952 [label="g <= -0.5\ngini = 0.32\nsamples = 5\nvalue = [4, 1]"] ;
950 -> 952 ;
953 [label="gini = 0.0\nsamples = 3\nvalue = [3, 0]"] ;
952 -> 953 ;
954 [label="e <= 158285.5312\ngini = 0.5\nsamples = 2\nvalue = [1, 1]"] ;
952 -> 954 ;
955 [label="gini = 0.0\nsamples = 1\nvalue = [0, 1]"] ;
954 -> 955 ;
956 [label="gini = 0.0\nsamples = 1\nvalue = [1, 0]"] ;
954 -> 956 ;
957 [label="gini = 0.0\nsamples = 1\nvalue = [0, 1]"] ;
945 -> 957 ;
958 [label="c <= 18.5\ngini = 0.0939\nsamples = 81\nvalue = [77, 4]"] ;
944 -> 958 ;
959 [label="c <= 17.0\ngini = 0.1499\nsamples = 49\nvalue = [45, 4]"] ;
958 -> 959 ;
960 [label="f <= 8689170.0\ngini = 0.1195\nsamples = 47\nvalue = [44, 3]"] ;
959 -> 960 ;
961 [label="f <= 1253428.125\ngini = 0.0868\nsamples = 44\nvalue = [42, 2]"] ;
960 -> 961 ;
962 [label="c <= 9.5\ngini = 0.2076\nsamples = 17\nvalue = [15, 2]"] ;
961 -> 962 ;
963 [label="e <= 212362.75\ngini = 0.1172\nsamples = 16\nvalue = [15, 1]"] ;
962 -> 963 ;
964 [label="gini = 0.0\nsamples = 14\nvalue = [14, 0]"] ;
963 -> 964 ;
965 [label="b <= 101.9074\ngini = 0.5\nsamples = 2\nvalue = [1, 1]"] ;
963 -> 965 ;
966 [label="gini = 0.0\nsamples = 1\nvalue = [0, 1]"] ;
965 -> 966 ;
967 [label="gini = 0.0\nsamples = 1\nvalue = [1, 0]"] ;
965 -> 967 ;
968 [label="gini = 0.0\nsamples = 1\nvalue = [0, 1]"] ;
962 -> 968 ;
969 [label="gini = 0.0\nsamples = 27\nvalue = [27, 0]"] ;
961 -> 969 ;
970 [label="a <= 1438.0649\ngini = 0.4444\nsamples = 3\nvalue = [2, 1]"] ;
960 -> 970 ;
971 [label="gini = 0.0\nsamples = 1\nvalue = [0, 1]"] ;
970 -> 971 ;
972 [label="gini = 0.0\nsamples = 2\nvalue = [2, 0]"] ;
970 -> 972 ;
973 [label="e <= 239589.5312\ngini = 0.5\nsamples = 2\nvalue = [1, 1]"] ;
959 -> 973 ;
974 [label="gini = 0.0\nsamples = 1\nvalue = [0, 1]"] ;
973 -> 974 ;
975 [label="gini = 0.0\nsamples = 1\nvalue = [1, 0]"] ;
973 -> 975 ;
976 [label="gini = 0.0\nsamples = 32\nvalue = [32, 0]"] ;
958 -> 976 ;
977 [label="c <= 2.5\ngini = 0.2038\nsamples = 547\nvalue = [484, 63]"] ;
651 -> 977 ;
978 [label="f <= 177677.8281\ngini = 0.4043\nsamples = 64\nvalue = [46, 18]"] ;
977 -> 978 ;
979 [label="b <= 105.5349\ngini = 0.4688\nsamples = 8\nvalue = [3, 5]"] ;
978 -> 979 ;
980 [label="f <= 12483.334\ngini = 0.2778\nsamples = 6\nvalue = [1, 5]"] ;
979 -> 980 ;
981 [label="gini = 0.0\nsamples = 1\nvalue = [1, 0]"] ;
980 -> 981 ;
982 [label="gini = 0.0\nsamples = 5\nvalue = [0, 5]"] ;
980 -> 982 ;
983 [label="gini = 0.0\nsamples = 2\nvalue = [2, 0]"] ;
979 -> 983 ;
984 [label="f <= 805383.3125\ngini = 0.3565\nsamples = 56\nvalue = [43, 13]"] ;
978 -> 984 ;
985 [label="f <= 526187.375\ngini = 0.2392\nsamples = 36\nvalue = [31, 5]"] ;
984 -> 985 ;
986 [label="g <= -8.0\ngini = 0.3299\nsamples = 24\nvalue = [19, 5]"] ;
985 -> 986 ;
987 [label="gini = 0.0\nsamples = 1\nvalue = [0, 1]"] ;
986 -> 987 ;
988 [label="f <= 512657.6875\ngini = 0.2873\nsamples = 23\nvalue = [19, 4]"] ;
986 -> 988 ;
989 [label="g <= -2.8333\ngini = 0.2355\nsamples = 22\nvalue = [19, 3]"] ;
988 -> 989 ;
990 [label="c <= 1.5\ngini = 0.1049\nsamples = 18\nvalue = [17, 1]"] ;
989 -> 990 ;
991 [label="e <= 144400.0\ngini = 0.2449\nsamples = 7\nvalue = [6, 1]"] ;
990 -> 991 ;
992 [label="a <= 1723.14\ngini = 0.5\nsamples = 2\nvalue = [1, 1]"] ;
991 -> 992 ;
993 [label="gini = 0.0\nsamples = 1\nvalue = [1, 0]"] ;
992 -> 993 ;
994 [label="gini = 0.0\nsamples = 1\nvalue = [0, 1]"] ;
992 -> 994 ;
995 [label="gini = 0.0\nsamples = 5\nvalue = [5, 0]"] ;
991 -> 995 ;
996 [label="gini = 0.0\nsamples = 11\nvalue = [11, 0]"] ;
990 -> 996 ;
997 [label="c <= 1.5\ngini = 0.5\nsamples = 4\nvalue = [2, 2]"] ;
989 -> 997 ;
998 [label="a <= 1974.3601\ngini = 0.4444\nsamples = 3\nvalue = [2, 1]"] ;
997 -> 998 ;
999 [label="e <= 125400.0\ngini = 0.5\nsamples = 2\nvalue = [1, 1]"] ;
998 -> 999 ;
1000 [label="gini = 0.0\nsamples = 1\nvalue = [1, 0]"] ;
999 -> 1000 ;
1001 [label="gini = 0.0\nsamples = 1\nvalue = [0, 1]"] ;
999 -> 1001 ;
1002 [label="gini = 0.0\nsamples = 1\nvalue = [1, 0]"] ;
998 -> 1002 ;
1003 [label="gini = 0.0\nsamples = 1\nvalue = [0, 1]"] ;
997 -> 1003 ;
1004 [label="gini = 0.0\nsamples = 1\nvalue = [0, 1]"] ;
988 -> 1004 ;
1005 [label="gini = 0.0\nsamples = 12\nvalue = [12, 0]"] ;
985 -> 1005 ;
1006 [label="f <= 1775049.375\ngini = 0.48\nsamples = 20\nvalue = [12, 8]"] ;
984 -> 1006 ;
1007 [label="g <= -8.1667\ngini = 0.3457\nsamples = 9\nvalue = [2, 7]"] ;
1006 -> 1007 ;
1008 [label="gini = 0.0\nsamples = 1\nvalue = [1, 0]"] ;
1007 -> 1008 ;
1009 [label="f <= 938446.875\ngini = 0.2188\nsamples = 8\nvalue = [1, 7]"] ;
1007 -> 1009 ;
1010 [label="e <= 237150.0\ngini = 0.5\nsamples = 2\nvalue = [1, 1]"] ;
1009 -> 1010 ;
1011 [label="gini = 0.0\nsamples = 1\nvalue = [1, 0]"] ;
1010 -> 1011 ;
1012 [label="gini = 0.0\nsamples = 1\nvalue = [0, 1]"] ;
1010 -> 1012 ;
1013 [label="gini = 0.0\nsamples = 6\nvalue = [0, 6]"] ;
1009 -> 1013 ;
1014 [label="g <= -5.5\ngini = 0.1653\nsamples = 11\nvalue = [10, 1]"] ;
1006 -> 1014 ;
1015 [label="e <= 605500.0\ngini = 0.4444\nsamples = 3\nvalue = [2, 1]"] ;
1014 -> 1015 ;
1016 [label="gini = 0.0\nsamples = 1\nvalue = [0, 1]"] ;
1015 -> 1016 ;
1017 [label="gini = 0.0\nsamples = 2\nvalue = [2, 0]"] ;
1015 -> 1017 ;
1018 [label="gini = 0.0\nsamples = 8\nvalue = [8, 0]"] ;
1014 -> 1018 ;
1019 [label="e <= 94078.75\ngini = 0.169\nsamples = 483\nvalue = [438, 45]"] ;
977 -> 1019 ;
1020 [label="f <= 1423809.0\ngini = 0.0965\nsamples = 177\nvalue = [168, 9]"] ;
1019 -> 1020 ;
1021 [label="f <= 1403832.5\ngini = 0.142\nsamples = 117\nvalue = [108, 9]"] ;
1020 -> 1021 ;
1022 [label="c <= 21.5\ngini = 0.1284\nsamples = 116\nvalue = [108, 8]"] ;
1021 -> 1022 ;
1023 [label="a <= 1538.0649\ngini = 0.0775\nsamples = 99\nvalue = [95, 4]"] ;
1022 -> 1023 ;
1024 [label="gini = 0.0\nsamples = 54\nvalue = [54, 0]"] ;
1023 -> 1024 ;
1025 [label="e <= 49851.4766\ngini = 0.162\nsamples = 45\nvalue = [41, 4]"] ;
1023 -> 1025 ;
1026 [label="gini = 0.0\nsamples = 21\nvalue = [21, 0]"] ;
1025 -> 1026 ;
1027 [label="e <= 52650.6484\ngini = 0.2778\nsamples = 24\nvalue = [20, 4]"] ;
1025 -> 1027 ;
1028 [label="gini = 0.0\nsamples = 1\nvalue = [0, 1]"] ;
1027 -> 1028 ;
1029 [label="e <= 71298.8438\ngini = 0.2268\nsamples = 23\nvalue = [20, 3]"] ;
1027 -> 1029 ;
1030 [label="c <= 13.0\ngini = 0.3967\nsamples = 11\nvalue = [8, 3]"] ;
1029 -> 1030 ;
1031 [label="b <= 106.1655\ngini = 0.1975\nsamples = 9\nvalue = [8, 1]"] ;
1030 -> 1031 ;
1032 [label="gini = 0.0\nsamples = 6\nvalue = [6, 0]"] ;
1031 -> 1032 ;
1033 [label="f <= 568910.6875\ngini = 0.4444\nsamples = 3\nvalue = [2, 1]"] ;
1031 -> 1033 ;
1034 [label="gini = 0.0\nsamples = 1\nvalue = [0, 1]"] ;
1033 -> 1034 ;
1035 [label="gini = 0.0\nsamples = 2\nvalue = [2, 0]"] ;
1033 -> 1035 ;
1036 [label="gini = 0.0\nsamples = 2\nvalue = [0, 2]"] ;
1030 -> 1036 ;
1037 [label="gini = 0.0\nsamples = 12\nvalue = [12, 0]"] ;
1029 -> 1037 ;
1038 [label="b <= 105.6943\ngini = 0.3599\nsamples = 17\nvalue = [13, 4]"] ;
1022 -> 1038 ;
1039 [label="f <= 324638.375\ngini = 0.142\nsamples = 13\nvalue = [12, 1]"] ;
1038 -> 1039 ;
1040 [label="gini = 0.0\nsamples = 1\nvalue = [0, 1]"] ;
1039 -> 1040 ;
1041 [label="gini = 0.0\nsamples = 12\nvalue = [12, 0]"] ;
1039 -> 1041 ;
1042 [label="g <= -5.3333\ngini = 0.375\nsamples = 4\nvalue = [1, 3]"] ;
1038 -> 1042 ;
1043 [label="f <= 1254538.25\ngini = 0.5\nsamples = 2\nvalue = [1, 1]"] ;
1042 -> 1043 ;
1044 [label="gini = 0.0\nsamples = 1\nvalue = [1, 0]"] ;
1043 -> 1044 ;
1045 [label="gini = 0.0\nsamples = 1\nvalue = [0, 1]"] ;
1043 -> 1045 ;
1046 [label="gini = 0.0\nsamples = 2\nvalue = [0, 2]"] ;
1042 -> 1046 ;
1047 [label="gini = 0.0\nsamples = 1\nvalue = [0, 1]"] ;
1021 -> 1047 ;
1048 [label="gini = 0.0\nsamples = 60\nvalue = [60, 0]"] ;
1020 -> 1048 ;
1049 [label="e <= 95102.4531\ngini = 0.2076\nsamples = 306\nvalue = [270, 36]"] ;
1019 -> 1049 ;
1050 [label="g <= -8.1667\ngini = 0.375\nsamples = 4\nvalue = [1, 3]"] ;
1049 -> 1050 ;
1051 [label="gini = 0.0\nsamples = 1\nvalue = [1, 0]"] ;
1050 -> 1051 ;
1052 [label="gini = 0.0\nsamples = 3\nvalue = [0, 3]"] ;
1050 -> 1052 ;
1053 [label="f <= 54755020.0\ngini = 0.1947\nsamples = 302\nvalue = [269, 33]"] ;
1049 -> 1053 ;
1054 [label="b <= 105.2619\ngini = 0.19\nsamples = 301\nvalue = [269, 32]"] ;
1053 -> 1054 ;
1055 [label="e <= 98633.2969\ngini = 0.28\nsamples = 101\nvalue = [84, 17]"] ;
1054 -> 1055 ;
1056 [label="f <= 1403262.375\ngini = 0.4444\nsamples = 3\nvalue = [1, 2]"] ;
1055 -> 1056 ;
1057 [label="gini = 0.0\nsamples = 2\nvalue = [0, 2]"] ;
1056 -> 1057 ;
1058 [label="gini = 0.0\nsamples = 1\nvalue = [1, 0]"] ;
1056 -> 1058 ;
1059 [label="e <= 644207.0\ngini = 0.2593\nsamples = 98\nvalue = [83, 15]"] ;
1055 -> 1059 ;
1060 [label="c <= 211.5\ngini = 0.2268\nsamples = 92\nvalue = [80, 12]"] ;
1059 -> 1060 ;
1061 [label="e <= 290133.8438\ngini = 0.2125\nsamples = 91\nvalue = [80, 11]"] ;
1060 -> 1061 ;
1062 [label="e <= 284715.0625\ngini = 0.2531\nsamples = 74\nvalue = [63, 11]"] ;
1061 -> 1062 ;
1063 [label="g <= -6.1667\ngini = 0.2188\nsamples = 72\nvalue = [63, 9]"] ;
1062 -> 1063 ;
1064 [label="gini = 0.0\nsamples = 15\nvalue = [15, 0]"] ;
1063 -> 1064 ;
1065 [label="g <= -3.1667\ngini = 0.2659\nsamples = 57\nvalue = [48, 9]"] ;
1063 -> 1065 ;
1066 [label="b <= 105.1535\ngini = 0.3841\nsamples = 27\nvalue = [20, 7]"] ;
1065 -> 1066 ;
1067 [label="gini = 0.0\nsamples = 7\nvalue = [7, 0]"] ;
1066 -> 1067 ;
1068 [label="g <= -3.5\ngini = 0.455\nsamples = 20\nvalue = [13, 7]"] ;
1066 -> 1068 ;
1069 [label="e <= 104138.6094\ngini = 0.4012\nsamples = 18\nvalue = [13, 5]"] ;
1068 -> 1069 ;
1070 [label="gini = 0.0\nsamples = 1\nvalue = [0, 1]"] ;
1069 -> 1070 ;
1071 [label="e <= 241507.9219\ngini = 0.3599\nsamples = 17\nvalue = [13, 4]"] ;
1069 -> 1071 ;
1072 [label="c <= 24.0\ngini = 0.2449\nsamples = 14\nvalue = [12, 2]"] ;
1071 -> 1072 ;
1073 [label="gini = 0.0\nsamples = 11\nvalue = [11, 0]"] ;
1072 -> 1073 ;
1074 [label="f <= 11378881.0\ngini = 0.4444\nsamples = 3\nvalue = [1, 2]"] ;
1072 -> 1074 ;
1075 [label="gini = 0.0\nsamples = 2\nvalue = [0, 2]"] ;
1074 -> 1075 ;
1076 [label="gini = 0.0\nsamples = 1\nvalue = [1, 0]"] ;
1074 -> 1076 ;
1077 [label="f <= 1636420.25\ngini = 0.4444\nsamples = 3\nvalue = [1, 2]"] ;
1071 -> 1077 ;
1078 [label="gini = 0.0\nsamples = 2\nvalue = [0, 2]"] ;
1077 -> 1078 ;
1079 [label="gini = 0.0\nsamples = 1\nvalue = [1, 0]"] ;
1077 -> 1079 ;
1080 [label="gini = 0.0\nsamples = 2\nvalue = [0, 2]"] ;
1068 -> 1080 ;
1081 [label="e <= 214321.4375\ngini = 0.1244\nsamples = 30\nvalue = [28, 2]"] ;
1065 -> 1081 ;
1082 [label="gini = 0.0\nsamples = 21\nvalue = [21, 0]"] ;
1081 -> 1082 ;
1083 [label="e <= 228251.5625\ngini = 0.3457\nsamples = 9\nvalue = [7, 2]"] ;
1081 -> 1083 ;
1084 [label="gini = 0.0\nsamples = 2\nvalue = [0, 2]"] ;
1083 -> 1084 ;
1085 [label="gini = 0.0\nsamples = 7\nvalue = [7, 0]"] ;
1083 -> 1085 ;
1086 [label="gini = 0.0\nsamples = 2\nvalue = [0, 2]"] ;
1062 -> 1086 ;
1087 [label="gini = 0.0\nsamples = 17\nvalue = [17, 0]"] ;
1061 -> 1087 ;
1088 [label="gini = 0.0\nsamples = 1\nvalue = [0, 1]"] ;
1060 -> 1088 ;
1089 [label="b <= 105.1792\ngini = 0.5\nsamples = 6\nvalue = [3, 3]"] ;
1059 -> 1089 ;
1090 [label="gini = 0.0\nsamples = 3\nvalue = [3, 0]"] ;
1089 -> 1090 ;
1091 [label="gini = 0.0\nsamples = 3\nvalue = [0, 3]"] ;
1089 -> 1091 ;
1092 [label="f <= 517574.3438\ngini = 0.1388\nsamples = 200\nvalue = [185, 15]"] ;
1054 -> 1092 ;
1093 [label="c <= 4.5\ngini = 0.4444\nsamples = 9\nvalue = [6, 3]"] ;
1092 -> 1093 ;
1094 [label="f <= 398404.9688\ngini = 0.375\nsamples = 4\nvalue = [1, 3]"] ;
1093 -> 1094 ;
1095 [label="gini = 0.0\nsamples = 1\nvalue = [1, 0]"] ;
1094 -> 1095 ;
1096 [label="gini = 0.0\nsamples = 3\nvalue = [0, 3]"] ;
1094 -> 1096 ;
1097 [label="gini = 0.0\nsamples = 5\nvalue = [5, 0]"] ;
1093 -> 1097 ;
1098 [label="b <= 105.491\ngini = 0.1178\nsamples = 191\nvalue = [179, 12]"] ;
1092 -> 1098 ;
1099 [label="gini = 0.0\nsamples = 42\nvalue = [42, 0]"] ;
1098 -> 1099 ;
1100 [label="g <= -4.8333\ngini = 0.1481\nsamples = 149\nvalue = [137, 12]"] ;
1098 -> 1100 ;
1101 [label="e <= 754221.3125\ngini = 0.0435\nsamples = 45\nvalue = [44, 1]"] ;
1100 -> 1101 ;
1102 [label="gini = 0.0\nsamples = 41\nvalue = [41, 0]"] ;
1101 -> 1102 ;
1103 [label="a <= 2042.8051\ngini = 0.375\nsamples = 4\nvalue = [3, 1]"] ;
1101 -> 1103 ;
1104 [label="gini = 0.0\nsamples = 3\nvalue = [3, 0]"] ;
1103 -> 1104 ;
1105 [label="gini = 0.0\nsamples = 1\nvalue = [0, 1]"] ;
1103 -> 1105 ;
1106 [label="c <= 38.5\ngini = 0.1892\nsamples = 104\nvalue = [93, 11]"] ;
1100 -> 1106 ;
1107 [label="f <= 2140018.0\ngini = 0.1572\nsamples = 93\nvalue = [85, 8]"] ;
1106 -> 1107 ;
1108 [label="a <= 1503.9451\ngini = 0.2535\nsamples = 47\nvalue = [40, 7]"] ;
1107 -> 1108 ;
1109 [label="e <= 188701.4375\ngini = 0.4959\nsamples = 11\nvalue = [6, 5]"] ;
1108 -> 1109 ;
1110 [label="gini = 0.0\nsamples = 5\nvalue = [5, 0]"] ;
1109 -> 1110 ;
1111 [label="f <= 724986.625\ngini = 0.2778\nsamples = 6\nvalue = [1, 5]"] ;
1109 -> 1111 ;
1112 [label="gini = 0.0\nsamples = 1\nvalue = [1, 0]"] ;
1111 -> 1112 ;
1113 [label="gini = 0.0\nsamples = 5\nvalue = [0, 5]"] ;
1111 -> 1113 ;
1114 [label="e <= 120270.0\ngini = 0.1049\nsamples = 36\nvalue = [34, 2]"] ;
1108 -> 1114 ;
1115 [label="b <= 105.6535\ngini = 0.4444\nsamples = 6\nvalue = [4, 2]"] ;
1114 -> 1115 ;
1116 [label="gini = 0.0\nsamples = 4\nvalue = [4, 0]"] ;
1115 -> 1116 ;
1117 [label="gini = 0.0\nsamples = 2\nvalue = [0, 2]"] ;
1115 -> 1117 ;
1118 [label="gini = 0.0\nsamples = 30\nvalue = [30, 0]"] ;
1114 -> 1118 ;
1119 [label="b <= 105.6095\ngini = 0.0425\nsamples = 46\nvalue = [45, 1]"] ;
1107 -> 1119 ;
1120 [label="g <= -2.0\ngini = 0.2778\nsamples = 6\nvalue = [5, 1]"] ;
1119 -> 1120 ;
1121 [label="gini = 0.0\nsamples = 5\nvalue = [5, 0]"] ;
1120 -> 1121 ;
1122 [label="gini = 0.0\nsamples = 1\nvalue = [0, 1]"] ;
1120 -> 1122 ;
1123 [label="gini = 0.0\nsamples = 40\nvalue = [40, 0]"] ;
1119 -> 1123 ;
1124 [label="c <= 45.0\ngini = 0.3967\nsamples = 11\nvalue = [8, 3]"] ;
1106 -> 1124 ;
1125 [label="gini = 0.0\nsamples = 2\nvalue = [0, 2]"] ;
1124 -> 1125 ;
1126 [label="g <= -4.5\ngini = 0.1975\nsamples = 9\nvalue = [8, 1]"] ;
1124 -> 1126 ;
1127 [label="gini = 0.0\nsamples = 1\nvalue = [0, 1]"] ;
1126 -> 1127 ;
1128 [label="gini = 0.0\nsamples = 8\nvalue = [8, 0]"] ;
1126 -> 1128 ;
1129 [label="gini = 0.0\nsamples = 1\nvalue = [0, 1]"] ;
1053 -> 1129 ;
1130 [label="a <= 1307.215\ngini = 0.2756\nsamples = 309\nvalue = [258, 51]"] ;
650 -> 1130 ;
1131 [label="b <= 102.3294\ngini = 0.4831\nsamples = 49\nvalue = [29, 20]"] ;
1130 -> 1131 ;
1132 [label="e <= 266600.5\ngini = 0.4297\nsamples = 16\nvalue = [5, 11]"] ;
1131 -> 1132 ;
1133 [label="c <= 65.5\ngini = 0.2604\nsamples = 13\nvalue = [2, 11]"] ;
1132 -> 1133 ;
1134 [label="f <= 32517.166\ngini = 0.1528\nsamples = 12\nvalue = [1, 11]"] ;
1133 -> 1134 ;
1135 [label="b <= 101.6888\ngini = 0.5\nsamples = 2\nvalue = [1, 1]"] ;
1134 -> 1135 ;
1136 [label="gini = 0.0\nsamples = 1\nvalue = [1, 0]"] ;
1135 -> 1136 ;
1137 [label="gini = 0.0\nsamples = 1\nvalue = [0, 1]"] ;
1135 -> 1137 ;
1138 [label="gini = 0.0\nsamples = 10\nvalue = [0, 10]"] ;
1134 -> 1138 ;
1139 [label="gini = 0.0\nsamples = 1\nvalue = [1, 0]"] ;
1133 -> 1139 ;
1140 [label="gini = 0.0\nsamples = 3\nvalue = [3, 0]"] ;
1132 -> 1140 ;
1141 [label="e <= 255784.9531\ngini = 0.3967\nsamples = 33\nvalue = [24, 9]"] ;
1131 -> 1141 ;
1142 [label="c <= 2.5\ngini = 0.2604\nsamples = 26\nvalue = [22, 4]"] ;
1141 -> 1142 ;
1143 [label="gini = 0.0\nsamples = 1\nvalue = [0, 1]"] ;
1142 -> 1143 ;
1144 [label="e <= 66945.7266\ngini = 0.2112\nsamples = 25\nvalue = [22, 3]"] ;
1142 -> 1144 ;
1145 [label="f <= 450728.9062\ngini = 0.4444\nsamples = 6\nvalue = [4, 2]"] ;
1144 -> 1145 ;
1146 [label="gini = 0.0\nsamples = 3\nvalue = [3, 0]"] ;
1145 -> 1146 ;
1147 [label="f <= 2205271.25\ngini = 0.4444\nsamples = 3\nvalue = [1, 2]"] ;
1145 -> 1147 ;
1148 [label="gini = 0.0\nsamples = 2\nvalue = [0, 2]"] ;
1147 -> 1148 ;
1149 [label="gini = 0.0\nsamples = 1\nvalue = [1, 0]"] ;
1147 -> 1149 ;
1150 [label="b <= 103.0787\ngini = 0.0997\nsamples = 19\nvalue = [18, 1]"] ;
1144 -> 1150 ;
1151 [label="gini = 0.0\nsamples = 16\nvalue = [16, 0]"] ;
1150 -> 1151 ;
1152 [label="c <= 17.5\ngini = 0.4444\nsamples = 3\nvalue = [2, 1]"] ;
1150 -> 1152 ;
1153 [label="gini = 0.0\nsamples = 2\nvalue = [2, 0]"] ;
1152 -> 1153 ;
1154 [label="gini = 0.0\nsamples = 1\nvalue = [0, 1]"] ;
1152 -> 1154 ;
1155 [label="b <= 103.0787\ngini = 0.4082\nsamples = 7\nvalue = [2, 5]"] ;
1141 -> 1155 ;
1156 [label="gini = 0.0\nsamples = 5\nvalue = [0, 5]"] ;
1155 -> 1156 ;
1157 [label="gini = 0.0\nsamples = 2\nvalue = [2, 0]"] ;
1155 -> 1157 ;
1158 [label="e <= 1863594.625\ngini = 0.21\nsamples = 260\nvalue = [229, 31]"] ;
1130 -> 1158 ;
1159 [label="f <= 2133543.25\ngini = 0.1955\nsamples = 255\nvalue = [227, 28]"] ;
1158 -> 1159 ;
1160 [label="f <= 2086204.0\ngini = 0.2778\nsamples = 150\nvalue = [125, 25]"] ;
1159 -> 1160 ;
1161 [label="a <= 1987.8301\ngini = 0.2625\nsamples = 148\nvalue = [125, 23]"] ;
1160 -> 1161 ;
1162 [label="e <= 133619.7812\ngini = 0.2326\nsamples = 134\nvalue = [116, 18]"] ;
1161 -> 1162 ;
1163 [label="b <= 100.9998\ngini = 0.1023\nsamples = 74\nvalue = [70, 4]"] ;
1162 -> 1163 ;
1164 [label="e <= 53776.7969\ngini = 0.4444\nsamples = 3\nvalue = [2, 1]"] ;
1163 -> 1164 ;
1165 [label="gini = 0.0\nsamples = 1\nvalue = [0, 1]"] ;
1164 -> 1165 ;
1166 [label="gini = 0.0\nsamples = 2\nvalue = [2, 0]"] ;
1164 -> 1166 ;
1167 [label="a <= 1927.12\ngini = 0.0809\nsamples = 71\nvalue = [68, 3]"] ;
1163 -> 1167 ;
1168 [label="c <= 3.5\ngini = 0.0579\nsamples = 67\nvalue = [65, 2]"] ;
1167 -> 1168 ;
1169 [label="f <= 372263.5\ngini = 0.2076\nsamples = 17\nvalue = [15, 2]"] ;
1168 -> 1169 ;
1170 [label="gini = 0.0\nsamples = 12\nvalue = [12, 0]"] ;
1169 -> 1170 ;
1171 [label="e <= 33961.1641\ngini = 0.48\nsamples = 5\nvalue = [3, 2]"] ;
1169 -> 1171 ;
1172 [label="gini = 0.0\nsamples = 1\nvalue = [0, 1]"] ;
1171 -> 1172 ;
1173 [label="a <= 1639.5601\ngini = 0.375\nsamples = 4\nvalue = [3, 1]"] ;
1171 -> 1173 ;
1174 [label="gini = 0.0\nsamples = 3\nvalue = [3, 0]"] ;
1173 -> 1174 ;
1175 [label="gini = 0.0\nsamples = 1\nvalue = [0, 1]"] ;
1173 -> 1175 ;
1176 [label="gini = 0.0\nsamples = 50\nvalue = [50, 0]"] ;
1168 -> 1176 ;
1177 [label="c <= 4.5\ngini = 0.375\nsamples = 4\nvalue = [3, 1]"] ;
1167 -> 1177 ;
1178 [label="gini = 0.0\nsamples = 3\nvalue = [3, 0]"] ;
1177 -> 1178 ;
1179 [label="gini = 0.0\nsamples = 1\nvalue = [0, 1]"] ;
1177 -> 1179 ;
1180 [label="a <= 1438.0649\ngini = 0.3578\nsamples = 60\nvalue = [46, 14]"] ;
1162 -> 1180 ;
1181 [label="e <= 244370.0625\ngini = 0.48\nsamples = 15\nvalue = [6, 9]"] ;
1180 -> 1181 ;
1182 [label="e <= 190388.75\ngini = 0.48\nsamples = 10\nvalue = [6, 4]"] ;
1181 -> 1182 ;
1183 [label="a <= 1403.725\ngini = 0.4444\nsamples = 6\nvalue = [2, 4]"] ;
1182 -> 1183 ;
1184 [label="gini = 0.0\nsamples = 3\nvalue = [0, 3]"] ;
1183 -> 1184 ;
1185 [label="a <= 1419.5801\ngini = 0.4444\nsamples = 3\nvalue = [2, 1]"] ;
1183 -> 1185 ;
1186 [label="gini = 0.0\nsamples = 2\nvalue = [2, 0]"] ;
1185 -> 1186 ;
1187 [label="gini = 0.0\nsamples = 1\nvalue = [0, 1]"] ;
1185 -> 1187 ;
1188 [label="gini = 0.0\nsamples = 4\nvalue = [4, 0]"] ;
1182 -> 1188 ;
1189 [label="gini = 0.0\nsamples = 5\nvalue = [0, 5]"] ;
1181 -> 1189 ;
1190 [label="e <= 212421.6562\ngini = 0.1975\nsamples = 45\nvalue = [40, 5]"] ;
1180 -> 1190 ;
1191 [label="b <= 101.6064\ngini = 0.4444\nsamples = 15\nvalue = [10, 5]"] ;
1190 -> 1191 ;
1192 [label="gini = 0.0\nsamples = 2\nvalue = [0, 2]"] ;
1191 -> 1192 ;
1193 [label="b <= 104.8882\ngini = 0.355\nsamples = 13\nvalue = [10, 3]"] ;
1191 -> 1193 ;
1194 [label="gini = 0.0\nsamples = 7\nvalue = [7, 0]"] ;
1193 -> 1194 ;
1195 [label="f <= 604181.0625\ngini = 0.5\nsamples = 6\nvalue = [3, 3]"] ;
1193 -> 1195 ;
1196 [label="gini = 0.0\nsamples = 2\nvalue = [2, 0]"] ;
1195 -> 1196 ;
1197 [label="f <= 1974259.25\ngini = 0.375\nsamples = 4\nvalue = [1, 3]"] ;
1195 -> 1197 ;
1198 [label="gini = 0.0\nsamples = 3\nvalue = [0, 3]"] ;
1197 -> 1198 ;
1199 [label="gini = 0.0\nsamples = 1\nvalue = [1, 0]"] ;
1197 -> 1199 ;
1200 [label="gini = 0.0\nsamples = 30\nvalue = [30, 0]"] ;
1190 -> 1200 ;
1201 [label="e <= 92509.4531\ngini = 0.4592\nsamples = 14\nvalue = [9, 5]"] ;
1161 -> 1201 ;
1202 [label="c <= 24.0\ngini = 0.4444\nsamples = 6\nvalue = [2, 4]"] ;
1201 -> 1202 ;
1203 [label="e <= 69441.3594\ngini = 0.32\nsamples = 5\nvalue = [1, 4]"] ;
1202 -> 1203 ;
1204 [label="gini = 0.0\nsamples = 3\nvalue = [0, 3]"] ;
1203 -> 1204 ;
1205 [label="c <= 9.5\ngini = 0.5\nsamples = 2\nvalue = [1, 1]"] ;
1203 -> 1205 ;
1206 [label="gini = 0.0\nsamples = 1\nvalue = [1, 0]"] ;
1205 -> 1206 ;
1207 [label="gini = 0.0\nsamples = 1\nvalue = [0, 1]"] ;
1205 -> 1207 ;
1208 [label="gini = 0.0\nsamples = 1\nvalue = [1, 0]"] ;
1202 -> 1208 ;
1209 [label="f <= 559439.1875\ngini = 0.2188\nsamples = 8\nvalue = [7, 1]"] ;
1201 -> 1209 ;
1210 [label="gini = 0.0\nsamples = 1\nvalue = [0, 1]"] ;
1209 -> 1210 ;
1211 [label="gini = 0.0\nsamples = 7\nvalue = [7, 0]"] ;
1209 -> 1211 ;
1212 [label="gini = 0.0\nsamples = 2\nvalue = [0, 2]"] ;
1160 -> 1212 ;
1213 [label="b <= 100.9998\ngini = 0.0555\nsamples = 105\nvalue = [102, 3]"] ;
1159 -> 1213 ;
1214 [label="e <= 374417.1875\ngini = 0.5\nsamples = 2\nvalue = [1, 1]"] ;
1213 -> 1214 ;
1215 [label="gini = 0.0\nsamples = 1\nvalue = [1, 0]"] ;
1214 -> 1215 ;
1216 [label="gini = 0.0\nsamples = 1\nvalue = [0, 1]"] ;
1214 -> 1216 ;
1217 [label="f <= 4080673.5\ngini = 0.0381\nsamples = 103\nvalue = [101, 2]"] ;
1213 -> 1217 ;
1218 [label="f <= 4061254.5\ngini = 0.0868\nsamples = 44\nvalue = [42, 2]"] ;
1217 -> 1218 ;
1219 [label="b <= 102.5119\ngini = 0.0454\nsamples = 43\nvalue = [42, 1]"] ;
1218 -> 1219 ;
1220 [label="b <= 102.4734\ngini = 0.18\nsamples = 10\nvalue = [9, 1]"] ;
1219 -> 1220 ;
1221 [label="gini = 0.0\nsamples = 8\nvalue = [8, 0]"] ;
1220 -> 1221 ;
1222 [label="f <= 3099097.0\ngini = 0.5\nsamples = 2\nvalue = [1, 1]"] ;
1220 -> 1222 ;
1223 [label="gini = 0.0\nsamples = 1\nvalue = [0, 1]"] ;
1222 -> 1223 ;
1224 [label="gini = 0.0\nsamples = 1\nvalue = [1, 0]"] ;
1222 -> 1224 ;
1225 [label="gini = 0.0\nsamples = 33\nvalue = [33, 0]"] ;
1219 -> 1225 ;
1226 [label="gini = 0.0\nsamples = 1\nvalue = [0, 1]"] ;
1218 -> 1226 ;
1227 [label="gini = 0.0\nsamples = 59\nvalue = [59, 0]"] ;
1217 -> 1227 ;
