digraph Tree {
node [shape=box] ;
0 [label="DaysLateLast <= 8.4167\ngini = 0.3538\nsamples = 10746\nvalue = [8278, 2468]"] ;
1 [label="DaysLateLast <= -0.1667\ngini = 0.2051\nsamples = 8146\nvalue = [7201, 945]"] ;
0 -> 1 [labeldistance=2.5, labelangle=45, headlabel="True"] ;
2 [label="IP <= 105.1535\ngini = 0.1056\nsamples = 5165\nvalue = [4876, 289]"] ;
1 -> 2 ;
3 [label="DaysLateLast <= -14.5\ngini = 0.093\nsamples = 4645\nvalue = [4418, 227]"] ;
2 -> 3 ;
4 [label="DaysLateLast <= -20.6667\ngini = 0.4898\nsamples = 7\nvalue = [4, 3]"] ;
3 -> 4 ;
5 [label="gini = 0.0\nsamples = 4\nvalue = [4, 0]"] ;
4 -> 5 ;
6 [label="gini = 0.0\nsamples = 3\nvalue = [0, 3]"] ;
4 -> 6 ;
7 [label="DaysLateLast <= -1.5833\ngini = 0.0919\nsamples = 4638\nvalue = [4414, 224]"] ;
3 -> 7 ;
8 [label="TotalSaleLastThree <= 610930.0\ngini = 0.0801\nsamples = 3877\nvalue = [3715, 162]"] ;
7 -> 8 ;
9 [label="TotalSaleAvgLast <= 260.5\ngini = 0.0755\nsamples = 3689\nvalue = [3544, 145]"] ;
8 -> 9 ;
10 [label="IP <= 95.4315\ngini = 0.0743\nsamples = 3675\nvalue = [3533, 142]"] ;
9 -> 10 ;
11 [label="TotalSaleAvgLast <= 19.5\ngini = 0.046\nsamples = 892\nvalue = [871, 21]"] ;
10 -> 11 ;
12 [label="IP <= 88.5134\ngini = 0.03\nsamples = 788\nvalue = [776, 12]"] ;
11 -> 12 ;
13 [label="DaysLateLastThree <= 827777.625\ngini = 0.0887\nsamples = 129\nvalue = [123, 6]"] ;
12 -> 13 ;
14 [label="DaysLateLastThree <= 818416.3125\ngini = 0.1356\nsamples = 82\nvalue = [76, 6]"] ;
13 -> 14 ;
15 [label="TotalSaleLastThree <= 247648.9688\ngini = 0.1158\nsamples = 81\nvalue = [76, 5]"] ;
14 -> 15 ;
16 [label="DaysLateLast <= -2.6667\ngini = 0.0788\nsamples = 73\nvalue = [70, 3]"] ;
15 -> 16 ;
17 [label="TotalSaleAvgLast <= 10.5\ngini = 0.0563\nsamples = 69\nvalue = [67, 2]"] ;
16 -> 17 ;
18 [label="Close <= 919.23\ngini = 0.0317\nsamples = 62\nvalue = [61, 1]"] ;
17 -> 18 ;
19 [label="DaysLateLastThree <= 203948.0\ngini = 0.0997\nsamples = 19\nvalue = [18, 1]"] ;
18 -> 19 ;
20 [label="TotalSaleLastThree <= 41642.5\ngini = 0.2778\nsamples = 6\nvalue = [5, 1]"] ;
19 -> 20 ;
21 [label="gini = 0.0\nsamples = 5\nvalue = [5, 0]"] ;
20 -> 21 ;
22 [label="gini = 0.0\nsamples = 1\nvalue = [0, 1]"] ;
20 -> 22 ;
23 [label="gini = 0.0\nsamples = 13\nvalue = [13, 0]"] ;
19 -> 23 ;
24 [label="gini = 0.0\nsamples = 43\nvalue = [43, 0]"] ;
18 -> 24 ;
25 [label="TotalSaleLastThree <= 95011.7891\ngini = 0.2449\nsamples = 7\nvalue = [6, 1]"] ;
17 -> 25 ;
26 [label="gini = 0.0\nsamples = 6\nvalue = [6, 0]"] ;
25 -> 26 ;
27 [label="gini = 0.0\nsamples = 1\nvalue = [0, 1]"] ;
25 -> 27 ;
28 [label="TotalSaleAvgLast <= 1.5\ngini = 0.375\nsamples = 4\nvalue = [3, 1]"] ;
16 -> 28 ;
29 [label="gini = 0.0\nsamples = 1\nvalue = [0, 1]"] ;
28 -> 29 ;
30 [label="gini = 0.0\nsamples = 3\nvalue = [3, 0]"] ;
28 -> 30 ;
31 [label="TotalSaleLastThree <= 279129.6562\ngini = 0.375\nsamples = 8\nvalue = [6, 2]"] ;
15 -> 31 ;
32 [label="gini = 0.0\nsamples = 2\nvalue = [0, 2]"] ;
31 -> 32 ;
33 [label="gini = 0.0\nsamples = 6\nvalue = [6, 0]"] ;
31 -> 33 ;
34 [label="gini = 0.0\nsamples = 1\nvalue = [0, 1]"] ;
14 -> 34 ;
35 [label="gini = 0.0\nsamples = 47\nvalue = [47, 0]"] ;
13 -> 35 ;
36 [label="TotalSaleAvgLast <= 1.5\ngini = 0.018\nsamples = 659\nvalue = [653, 6]"] ;
12 -> 36 ;
37 [label="TotalSaleLastThree <= 110325.0\ngini = 0.0618\nsamples = 94\nvalue = [91, 3]"] ;
36 -> 37 ;
38 [label="gini = 0.0\nsamples = 50\nvalue = [50, 0]"] ;
37 -> 38 ;
39 [label="TotalSaleLastThree <= 116200.0\ngini = 0.1271\nsamples = 44\nvalue = [41, 3]"] ;
37 -> 39 ;
40 [label="gini = 0.0\nsamples = 1\nvalue = [0, 1]"] ;
39 -> 40 ;
41 [label="Close <= 1073.245\ngini = 0.0887\nsamples = 43\nvalue = [41, 2]"] ;
39 -> 41 ;
42 [label="gini = 0.0\nsamples = 23\nvalue = [23, 0]"] ;
41 -> 42 ;
43 [label="DaysLateLast <= -7.8333\ngini = 0.18\nsamples = 20\nvalue = [18, 2]"] ;
41 -> 43 ;
44 [label="TotalSaleLastThree <= 260000.0\ngini = 0.4444\nsamples = 3\nvalue = [2, 1]"] ;
43 -> 44 ;
45 [label="gini = 0.0\nsamples = 2\nvalue = [2, 0]"] ;
44 -> 45 ;
46 [label="gini = 0.0\nsamples = 1\nvalue = [0, 1]"] ;
44 -> 46 ;
47 [label="TotalSaleLastThree <= 161510.0\ngini = 0.1107\nsamples = 17\nvalue = [16, 1]"] ;
43 -> 47 ;
48 [label="TotalSaleLastThree <= 147147.0\ngini = 0.375\nsamples = 4\nvalue = [3, 1]"] ;
47 -> 48 ;
49 [label="gini = 0.0\nsamples = 3\nvalue = [3, 0]"] ;
48 -> 49 ;
50 [label="gini = 0.0\nsamples = 1\nvalue = [0, 1]"] ;
48 -> 50 ;
51 [label="gini = 0.0\nsamples = 13\nvalue = [13, 0]"] ;
47 -> 51 ;
52 [label="DaysLateLast <= -9.4167\ngini = 0.0106\nsamples = 565\nvalue = [562, 3]"] ;
36 -> 52 ;
53 [label="DaysLateLast <= -9.5833\ngini = 0.142\nsamples = 13\nvalue = [12, 1]"] ;
52 -> 53 ;
54 [label="gini = 0.0\nsamples = 12\nvalue = [12, 0]"] ;
53 -> 54 ;
55 [label="gini = 0.0\nsamples = 1\nvalue = [0, 1]"] ;
53 -> 55 ;
56 [label="IP <= 89.0027\ngini = 0.0072\nsamples = 552\nvalue = [550, 2]"] ;
52 -> 56 ;
57 [label="DaysLateLast <= -2.8333\ngini = 0.0588\nsamples = 33\nvalue = [32, 1]"] ;
56 -> 57 ;
58 [label="gini = 0.0\nsamples = 28\nvalue = [28, 0]"] ;
57 -> 58 ;
59 [label="DaysLateLastThree <= 1111751.0\ngini = 0.32\nsamples = 5\nvalue = [4, 1]"] ;
57 -> 59 ;
60 [label="DaysLateLastThree <= 491273.25\ngini = 0.5\nsamples = 2\nvalue = [1, 1]"] ;
59 -> 60 ;
61 [label="gini = 0.0\nsamples = 1\nvalue = [1, 0]"] ;
60 -> 61 ;
62 [label="gini = 0.0\nsamples = 1\nvalue = [0, 1]"] ;
60 -> 62 ;
63 [label="gini = 0.0\nsamples = 3\nvalue = [3, 0]"] ;
59 -> 63 ;
64 [label="TotalSaleLastThree <= 30449.75\ngini = 0.0038\nsamples = 519\nvalue = [518, 1]"] ;
56 -> 64 ;
65 [label="TotalSaleLastThree <= 30172.1641\ngini = 0.0357\nsamples = 55\nvalue = [54, 1]"] ;
64 -> 65 ;
66 [label="gini = 0.0\nsamples = 54\nvalue = [54, 0]"] ;
65 -> 66 ;
67 [label="gini = 0.0\nsamples = 1\nvalue = [0, 1]"] ;
65 -> 67 ;
68 [label="gini = 0.0\nsamples = 464\nvalue = [464, 0]"] ;
64 -> 68 ;
69 [label="TotalSaleLastThree <= 277236.5625\ngini = 0.1581\nsamples = 104\nvalue = [95, 9]"] ;
11 -> 69 ;
70 [label="TotalSaleAvgLast <= 24.5\ngini = 0.1139\nsamples = 99\nvalue = [93, 6]"] ;
69 -> 70 ;
71 [label="TotalSaleLastThree <= 232425.1562\ngini = 0.2934\nsamples = 28\nvalue = [23, 5]"] ;
70 -> 71 ;
72 [label="DaysLateLast <= -4.5\ngini = 0.2112\nsamples = 25\nvalue = [22, 3]"] ;
71 -> 72 ;
73 [label="gini = 0.0\nsamples = 12\nvalue = [12, 0]"] ;
72 -> 73 ;
74 [label="TotalSaleLastThree <= 27600.6914\ngini = 0.355\nsamples = 13\nvalue = [10, 3]"] ;
72 -> 74 ;
75 [label="gini = 0.0\nsamples = 1\nvalue = [0, 1]"] ;
74 -> 75 ;
76 [label="IP <= 92.7059\ngini = 0.2778\nsamples = 12\nvalue = [10, 2]"] ;
74 -> 76 ;
77 [label="gini = 0.0\nsamples = 7\nvalue = [7, 0]"] ;
76 -> 77 ;
78 [label="DaysLateLastThree <= 1922796.5\ngini = 0.48\nsamples = 5\nvalue = [3, 2]"] ;
76 -> 78 ;
79 [label="TotalSaleLastThree <= 72754.8984\ngini = 0.375\nsamples = 4\nvalue = [3, 1]"] ;
78 -> 79 ;
80 [label="gini = 0.0\nsamples = 1\nvalue = [0, 1]"] ;
79 -> 80 ;
81 [label="gini = 0.0\nsamples = 3\nvalue = [3, 0]"] ;
79 -> 81 ;
82 [label="gini = 0.0\nsamples = 1\nvalue = [0, 1]"] ;
78 -> 82 ;
83 [label="Close <= 1055.015\ngini = 0.4444\nsamples = 3\nvalue = [1, 2]"] ;
71 -> 83 ;
84 [label="gini = 0.0\nsamples = 1\nvalue = [1, 0]"] ;
83 -> 84 ;
85 [label="gini = 0.0\nsamples = 2\nvalue = [0, 2]"] ;
83 -> 85 ;
86 [label="Close <= 811.875\ngini = 0.0278\nsamples = 71\nvalue = [70, 1]"] ;
70 -> 86 ;
87 [label="TotalSaleAvgLast <= 47.0\ngini = 0.2778\nsamples = 6\nvalue = [5, 1]"] ;
86 -> 87 ;
88 [label="gini = 0.0\nsamples = 5\nvalue = [5, 0]"] ;
87 -> 88 ;
89 [label="gini = 0.0\nsamples = 1\nvalue = [0, 1]"] ;
87 -> 89 ;
90 [label="gini = 0.0\nsamples = 65\nvalue = [65, 0]"] ;
86 -> 90 ;
91 [label="Close <= 1052.29\ngini = 0.48\nsamples = 5\nvalue = [2, 3]"] ;
69 -> 91 ;
92 [label="TotalSaleLastThree <= 279704.8438\ngini = 0.4444\nsamples = 3\nvalue = [2, 1]"] ;
91 -> 92 ;
93 [label="gini = 0.0\nsamples = 1\nvalue = [0, 1]"] ;
92 -> 93 ;
94 [label="gini = 0.0\nsamples = 2\nvalue = [2, 0]"] ;
92 -> 94 ;
95 [label="gini = 0.0\nsamples = 2\nvalue = [0, 2]"] ;
91 -> 95 ;
96 [label="IP <= 95.6227\ngini = 0.0832\nsamples = 2783\nvalue = [2662, 121]"] ;
10 -> 96 ;
97 [label="DaysLateLast <= -3.5\ngini = 0.2449\nsamples = 42\nvalue = [36, 6]"] ;
96 -> 97 ;
98 [label="TotalSaleLastThree <= 405737.5\ngini = 0.0713\nsamples = 27\nvalue = [26, 1]"] ;
97 -> 98 ;
99 [label="gini = 0.0\nsamples = 25\nvalue = [25, 0]"] ;
98 -> 99 ;
100 [label="DaysLateLastThree <= 8139500.0\ngini = 0.5\nsamples = 2\nvalue = [1, 1]"] ;
98 -> 100 ;
101 [label="gini = 0.0\nsamples = 1\nvalue = [0, 1]"] ;
100 -> 101 ;
102 [label="gini = 0.0\nsamples = 1\nvalue = [1, 0]"] ;
100 -> 102 ;
103 [label="TotalSaleAvgLast <= 15.0\ngini = 0.4444\nsamples = 15\nvalue = [10, 5]"] ;
97 -> 103 ;
104 [label="TotalSaleAvgLast <= 1.5\ngini = 0.2975\nsamples = 11\nvalue = [9, 2]"] ;
103 -> 104 ;
105 [label="gini = 0.0\nsamples = 1\nvalue = [0, 1]"] ;
104 -> 105 ;
106 [label="DaysLateLast <= -3.0\ngini = 0.18\nsamples = 10\nvalue = [9, 1]"] ;
104 -> 106 ;
107 [label="DaysLateLastThree <= 714572.5\ngini = 0.5\nsamples = 2\nvalue = [1, 1]"] ;
106 -> 107 ;
108 [label="gini = 0.0\nsamples = 1\nvalue = [1, 0]"] ;
107 -> 108 ;
109 [label="gini = 0.0\nsamples = 1\nvalue = [0, 1]"] ;
107 -> 109 ;
110 [label="gini = 0.0\nsamples = 8\nvalue = [8, 0]"] ;
106 -> 110 ;
111 [label="TotalSaleAvgLast <= 26.0\ngini = 0.375\nsamples = 4\nvalue = [1, 3]"] ;
103 -> 111 ;
112 [label="gini = 0.0\nsamples = 3\nvalue = [0, 3]"] ;
111 -> 112 ;
113 [label="gini = 0.0\nsamples = 1\nvalue = [1, 0]"] ;
111 -> 113 ;
114 [label="DaysLateLastThree <= 3161283.25\ngini = 0.0804\nsamples = 2741\nvalue = [2626, 115]"] ;
96 -> 114 ;
115 [label="DaysLateLastThree <= 3150483.5\ngini = 0.09\nsamples = 2097\nvalue = [1998, 99]"] ;
114 -> 115 ;
116 [label="TotalSaleAvgLast <= 96.0\ngini = 0.0891\nsamples = 2096\nvalue = [1998, 98]"] ;
115 -> 116 ;
117 [label="DaysLateLastThree <= 2846572.75\ngini = 0.0876\nsamples = 2090\nvalue = [1994, 96]"] ;
116 -> 117 ;
118 [label="TotalSaleLastThree <= 379000.0\ngini = 0.0822\nsamples = 2002\nvalue = [1916, 86]"] ;
117 -> 118 ;
119 [label="Close <= 1657.26\ngini = 0.0761\nsamples = 1918\nvalue = [1842, 76]"] ;
118 -> 119 ;
120 [label="DaysLateLastThree <= 84187.6875\ngini = 0.0863\nsamples = 1572\nvalue = [1501, 71]"] ;
119 -> 120 ;
121 [label="IP <= 102.7115\ngini = 0.2221\nsamples = 55\nvalue = [48, 7]"] ;
120 -> 121 ;
122 [label="DaysLateLast <= -3.5\ngini = 0.1195\nsamples = 47\nvalue = [44, 3]"] ;
121 -> 122 ;
123 [label="Close <= 1417.33\ngini = 0.054\nsamples = 36\nvalue = [35, 1]"] ;
122 -> 123 ;
124 [label="gini = 0.0\nsamples = 33\nvalue = [33, 0]"] ;
123 -> 124 ;
125 [label="TotalSaleAvgLast <= 2.5\ngini = 0.4444\nsamples = 3\nvalue = [2, 1]"] ;
123 -> 125 ;
126 [label="gini = 0.0\nsamples = 2\nvalue = [2, 0]"] ;
125 -> 126 ;
127 [label="gini = 0.0\nsamples = 1\nvalue = [0, 1]"] ;
125 -> 127 ;
128 [label="Close <= 1305.0249\ngini = 0.2975\nsamples = 11\nvalue = [9, 2]"] ;
122 -> 128 ;
129 [label="DaysLateLastThree <= 39226.5859\ngini = 0.48\nsamples = 5\nvalue = [3, 2]"] ;
128 -> 129 ;
130 [label="gini = 0.0\nsamples = 2\nvalue = [2, 0]"] ;
129 -> 130 ;
131 [label="TotalSaleLastThree <= 24603.25\ngini = 0.4444\nsamples = 3\nvalue = [1, 2]"] ;
129 -> 131 ;
132 [label="gini = 0.0\nsamples = 2\nvalue = [0, 2]"] ;
131 -> 132 ;
133 [label="gini = 0.0\nsamples = 1\nvalue = [1, 0]"] ;
131 -> 133 ;
134 [label="gini = 0.0\nsamples = 6\nvalue = [6, 0]"] ;
128 -> 134 ;
135 [label="Close <= 1420.4299\ngini = 0.5\nsamples = 8\nvalue = [4, 4]"] ;
121 -> 135 ;
136 [label="gini = 0.0\nsamples = 4\nvalue = [0, 4]"] ;
135 -> 136 ;
137 [label="gini = 0.0\nsamples = 4\nvalue = [4, 0]"] ;
135 -> 137 ;
138 [label="DaysLateLastThree <= 264865.4062\ngini = 0.0808\nsamples = 1517\nvalue = [1453, 64]"] ;
120 -> 138 ;
139 [label="IP <= 104.261\ngini = 0.0101\nsamples = 197\nvalue = [196, 1]"] ;
138 -> 139 ;
140 [label="gini = 0.0\nsamples = 183\nvalue = [183, 0]"] ;
139 -> 140 ;
141 [label="DaysLateLastThree <= 191591.3438\ngini = 0.1327\nsamples = 14\nvalue = [13, 1]"] ;
139 -> 141 ;
142 [label="gini = 0.0\nsamples = 10\nvalue = [10, 0]"] ;
141 -> 142 ;
143 [label="TotalSaleAvgLast <= 5.5\ngini = 0.375\nsamples = 4\nvalue = [3, 1]"] ;
141 -> 143 ;
144 [label="gini = 0.0\nsamples = 1\nvalue = [0, 1]"] ;
143 -> 144 ;
145 [label="gini = 0.0\nsamples = 3\nvalue = [3, 0]"] ;
143 -> 145 ;
146 [label="DaysLateLastThree <= 265407.3438\ngini = 0.0909\nsamples = 1320\nvalue = [1257, 63]"] ;
138 -> 146 ;
147 [label="gini = 0.0\nsamples = 1\nvalue = [0, 1]"] ;
146 -> 147 ;
148 [label="TotalSaleLastThree <= 77503.1719\ngini = 0.0896\nsamples = 1319\nvalue = [1257, 62]"] ;
146 -> 148 ;
149 [label="TotalSaleLastThree <= 77173.25\ngini = 0.1284\nsamples = 406\nvalue = [378, 28]"] ;
148 -> 149 ;
150 [label="TotalSaleLastThree <= 51684.4531\ngini = 0.1244\nsamples = 405\nvalue = [378, 27]"] ;
149 -> 150 ;
151 [label="Close <= 1153.78\ngini = 0.0703\nsamples = 192\nvalue = [185, 7]"] ;
150 -> 151 ;
152 [label="TotalSaleAvgLast <= 34.5\ngini = 0.3047\nsamples = 16\nvalue = [13, 3]"] ;
151 -> 152 ;
153 [label="DaysLateLast <= -1.8333\ngini = 0.142\nsamples = 13\nvalue = [12, 1]"] ;
152 -> 153 ;
154 [label="gini = 0.0\nsamples = 12\nvalue = [12, 0]"] ;
153 -> 154 ;
155 [label="gini = 0.0\nsamples = 1\nvalue = [0, 1]"] ;
153 -> 155 ;
156 [label="Close <= 1018.72\ngini = 0.4444\nsamples = 3\nvalue = [1, 2]"] ;
152 -> 156 ;
157 [label="gini = 0.0\nsamples = 1\nvalue = [1, 0]"] ;
156 -> 157 ;
158 [label="gini = 0.0\nsamples = 2\nvalue = [0, 2]"] ;
156 -> 158 ;
159 [label="DaysLateLast <= -2.5\ngini = 0.0444\nsamples = 176\nvalue = [172, 4]"] ;
151 -> 159 ;
160 [label="TotalSaleAvgLast <= 1.5\ngini = 0.0136\nsamples = 146\nvalue = [145, 1]"] ;
159 -> 160 ;
161 [label="TotalSaleLastThree <= 38075.0\ngini = 0.1327\nsamples = 14\nvalue = [13, 1]"] ;
160 -> 161 ;
162 [label="gini = 0.0\nsamples = 11\nvalue = [11, 0]"] ;
161 -> 162 ;
163 [label="DaysLateLastThree <= 533209.5\ngini = 0.4444\nsamples = 3\nvalue = [2, 1]"] ;
161 -> 163 ;
164 [label="gini = 0.0\nsamples = 2\nvalue = [2, 0]"] ;
163 -> 164 ;
165 [label="gini = 0.0\nsamples = 1\nvalue = [0, 1]"] ;
163 -> 165 ;
166 [label="gini = 0.0\nsamples = 132\nvalue = [132, 0]"] ;
160 -> 166 ;
167 [label="DaysLateLastThree <= 271115.6875\ngini = 0.18\nsamples = 30\nvalue = [27, 3]"] ;
159 -> 167 ;
168 [label="DaysLateLastThree <= 269205.625\ngini = 0.5\nsamples = 2\nvalue = [1, 1]"] ;
167 -> 168 ;
169 [label="gini = 0.0\nsamples = 1\nvalue = [1, 0]"] ;
168 -> 169 ;
170 [label="gini = 0.0\nsamples = 1\nvalue = [0, 1]"] ;
168 -> 170 ;
171 [label="TotalSaleLastThree <= 45427.4766\ngini = 0.1327\nsamples = 28\nvalue = [26, 2]"] ;
167 -> 171 ;
172 [label="Close <= 1387.925\ngini = 0.0799\nsamples = 24\nvalue = [23, 1]"] ;
171 -> 172 ;
173 [label="TotalSaleAvgLast <= 9.5\ngini = 0.32\nsamples = 5\nvalue = [4, 1]"] ;
172 -> 173 ;
174 [label="gini = 0.0\nsamples = 1\nvalue = [0, 1]"] ;
173 -> 174 ;
175 [label="gini = 0.0\nsamples = 4\nvalue = [4, 0]"] ;
173 -> 175 ;
176 [label="gini = 0.0\nsamples = 19\nvalue = [19, 0]"] ;
172 -> 176 ;
177 [label="TotalSaleAvgLast <= 10.5\ngini = 0.375\nsamples = 4\nvalue = [3, 1]"] ;
171 -> 177 ;
178 [label="gini = 0.0\nsamples = 3\nvalue = [3, 0]"] ;
177 -> 178 ;
179 [label="gini = 0.0\nsamples = 1\nvalue = [0, 1]"] ;
177 -> 179 ;
180 [label="TotalSaleLastThree <= 51792.1484\ngini = 0.1702\nsamples = 213\nvalue = [193, 20]"] ;
150 -> 180 ;
181 [label="gini = 0.0\nsamples = 1\nvalue = [0, 1]"] ;
180 -> 181 ;
182 [label="Close <= 1631.855\ngini = 0.1632\nsamples = 212\nvalue = [193, 19]"] ;
180 -> 182 ;
183 [label="TotalSaleAvgLast <= 4.5\ngini = 0.1508\nsamples = 207\nvalue = [190, 17]"] ;
182 -> 183 ;
184 [label="TotalSaleLastThree <= 74927.0\ngini = 0.3018\nsamples = 27\nvalue = [22, 5]"] ;
183 -> 184 ;
185 [label="DaysLateLast <= -4.8333\ngini = 0.2112\nsamples = 25\nvalue = [22, 3]"] ;
184 -> 185 ;
186 [label="gini = 0.0\nsamples = 12\nvalue = [12, 0]"] ;
185 -> 186 ;
187 [label="DaysLateLastThree <= 385483.6875\ngini = 0.355\nsamples = 13\nvalue = [10, 3]"] ;
185 -> 187 ;
188 [label="gini = 0.0\nsamples = 5\nvalue = [5, 0]"] ;
187 -> 188 ;
189 [label="DaysLateLast <= -4.1667\ngini = 0.4688\nsamples = 8\nvalue = [5, 3]"] ;
187 -> 189 ;
190 [label="gini = 0.0\nsamples = 2\nvalue = [0, 2]"] ;
189 -> 190 ;
191 [label="DaysLateLast <= -1.8333\ngini = 0.2778\nsamples = 6\nvalue = [5, 1]"] ;
189 -> 191 ;
192 [label="gini = 0.0\nsamples = 5\nvalue = [5, 0]"] ;
191 -> 192 ;
193 [label="gini = 0.0\nsamples = 1\nvalue = [0, 1]"] ;
191 -> 193 ;
194 [label="gini = 0.0\nsamples = 2\nvalue = [0, 2]"] ;
184 -> 194 ;
195 [label="DaysLateLast <= -9.1667\ngini = 0.1244\nsamples = 180\nvalue = [168, 12]"] ;
183 -> 195 ;
196 [label="gini = 0.0\nsamples = 1\nvalue = [0, 1]"] ;
195 -> 196 ;
197 [label="TotalSaleLastThree <= 67179.75\ngini = 0.1154\nsamples = 179\nvalue = [168, 11]"] ;
195 -> 197 ;
198 [label="TotalSaleLastThree <= 66835.5\ngini = 0.1866\nsamples = 96\nvalue = [86, 10]"] ;
197 -> 198 ;
199 [label="IP <= 95.6682\ngini = 0.1557\nsamples = 94\nvalue = [86, 8]"] ;
198 -> 199 ;
200 [label="TotalSaleAvgLast <= 19.5\ngini = 0.5\nsamples = 2\nvalue = [1, 1]"] ;
199 -> 200 ;
201 [label="gini = 0.0\nsamples = 1\nvalue = [1, 0]"] ;
200 -> 201 ;
202 [label="gini = 0.0\nsamples = 1\nvalue = [0, 1]"] ;
200 -> 202 ;
203 [label="Close <= 1289.2\ngini = 0.1406\nsamples = 92\nvalue = [85, 7]"] ;
199 -> 203 ;
204 [label="gini = 0.0\nsamples = 30\nvalue = [30, 0]"] ;
203 -> 204 ;
205 [label="Close <= 1325.635\ngini = 0.2003\nsamples = 62\nvalue = [55, 7]"] ;
203 -> 205 ;
206 [label="DaysLateLast <= -3.6667\ngini = 0.4898\nsamples = 7\nvalue = [4, 3]"] ;
205 -> 206 ;
207 [label="TotalSaleLastThree <= 60576.1914\ngini = 0.48\nsamples = 5\nvalue = [2, 3]"] ;
206 -> 207 ;
208 [label="gini = 0.0\nsamples = 3\nvalue = [0, 3]"] ;
207 -> 208 ;
209 [label="gini = 0.0\nsamples = 2\nvalue = [2, 0]"] ;
207 -> 209 ;
210 [label="gini = 0.0\nsamples = 2\nvalue = [2, 0]"] ;
206 -> 210 ;
211 [label="TotalSaleLastThree <= 65098.1562\ngini = 0.1349\nsamples = 55\nvalue = [51, 4]"] ;
205 -> 211 ;
212 [label="TotalSaleLastThree <= 53356.2773\ngini = 0.0768\nsamples = 50\nvalue = [48, 2]"] ;
211 -> 212 ;
213 [label="DaysLateLast <= -4.0\ngini = 0.5\nsamples = 2\nvalue = [1, 1]"] ;
212 -> 213 ;
214 [label="gini = 0.0\nsamples = 1\nvalue = [1, 0]"] ;
213 -> 214 ;
215 [label="gini = 0.0\nsamples = 1\nvalue = [0, 1]"] ;
213 -> 215 ;
216 [label="TotalSaleLastThree <= 64081.0781\ngini = 0.0408\nsamples = 48\nvalue = [47, 1]"] ;
212 -> 216 ;
217 [label="gini = 0.0\nsamples = 42\nvalue = [42, 0]"] ;
216 -> 217 ;
218 [label="IP <= 101.6501\ngini = 0.2778\nsamples = 6\nvalue = [5, 1]"] ;
216 -> 218 ;
219 [label="gini = 0.0\nsamples = 1\nvalue = [0, 1]"] ;
218 -> 219 ;
220 [label="gini = 0.0\nsamples = 5\nvalue = [5, 0]"] ;
218 -> 220 ;
221 [label="DaysLateLastThree <= 1087431.375\ngini = 0.48\nsamples = 5\nvalue = [3, 2]"] ;
211 -> 221 ;
222 [label="gini = 0.0\nsamples = 3\nvalue = [3, 0]"] ;
221 -> 222 ;
223 [label="gini = 0.0\nsamples = 2\nvalue = [0, 2]"] ;
221 -> 223 ;
224 [label="gini = 0.0\nsamples = 2\nvalue = [0, 2]"] ;
198 -> 224 ;
225 [label="Close <= 1255.45\ngini = 0.0238\nsamples = 83\nvalue = [82, 1]"] ;
197 -> 225 ;
226 [label="IP <= 98.1026\ngini = 0.1172\nsamples = 16\nvalue = [15, 1]"] ;
225 -> 226 ;
227 [label="gini = 0.0\nsamples = 15\nvalue = [15, 0]"] ;
226 -> 227 ;
228 [label="gini = 0.0\nsamples = 1\nvalue = [0, 1]"] ;
226 -> 228 ;
229 [label="gini = 0.0\nsamples = 67\nvalue = [67, 0]"] ;
225 -> 229 ;
230 [label="TotalSaleLastThree <= 62929.9062\ngini = 0.48\nsamples = 5\nvalue = [3, 2]"] ;
182 -> 230 ;
231 [label="gini = 0.0\nsamples = 2\nvalue = [2, 0]"] ;
230 -> 231 ;
232 [label="TotalSaleLastThree <= 72458.0625\ngini = 0.4444\nsamples = 3\nvalue = [1, 2]"] ;
230 -> 232 ;
233 [label="gini = 0.0\nsamples = 2\nvalue = [0, 2]"] ;
232 -> 233 ;
234 [label="gini = 0.0\nsamples = 1\nvalue = [1, 0]"] ;
232 -> 234 ;
235 [label="gini = 0.0\nsamples = 1\nvalue = [0, 1]"] ;
149 -> 235 ;
236 [label="DaysLateLastThree <= 270961.6562\ngini = 0.0717\nsamples = 913\nvalue = [879, 34]"] ;
148 -> 236 ;
237 [label="TotalSaleLastThree <= 132520.25\ngini = 0.4444\nsamples = 3\nvalue = [2, 1]"] ;
236 -> 237 ;
238 [label="gini = 0.0\nsamples = 1\nvalue = [0, 1]"] ;
237 -> 238 ;
239 [label="gini = 0.0\nsamples = 2\nvalue = [2, 0]"] ;
237 -> 239 ;
240 [label="TotalSaleLastThree <= 91760.7656\ngini = 0.0699\nsamples = 910\nvalue = [877, 33]"] ;
236 -> 240 ;
241 [label="gini = 0.0\nsamples = 160\nvalue = [160, 0]"] ;
240 -> 241 ;
242 [label="TotalSaleLastThree <= 91844.1016\ngini = 0.0841\nsamples = 750\nvalue = [717, 33]"] ;
240 -> 242 ;
243 [label="gini = 0.0\nsamples = 1\nvalue = [0, 1]"] ;
242 -> 243 ;
244 [label="IP <= 97.7545\ngini = 0.0818\nsamples = 749\nvalue = [717, 32]"] ;
242 -> 244 ;
245 [label="DaysLateLastThree <= 711819.625\ngini = 0.0427\nsamples = 229\nvalue = [224, 5]"] ;
244 -> 245 ;
246 [label="DaysLateLastThree <= 702854.375\ngini = 0.0997\nsamples = 57\nvalue = [54, 3]"] ;
245 -> 246 ;
247 [label="DaysLateLast <= -9.1667\ngini = 0.0689\nsamples = 56\nvalue = [54, 2]"] ;
246 -> 247 ;
248 [label="IP <= 96.7317\ngini = 0.5\nsamples = 2\nvalue = [1, 1]"] ;
247 -> 248 ;
249 [label="gini = 0.0\nsamples = 1\nvalue = [1, 0]"] ;
248 -> 249 ;
250 [label="gini = 0.0\nsamples = 1\nvalue = [0, 1]"] ;
248 -> 250 ;
251 [label="Close <= 1336.21\ngini = 0.0364\nsamples = 54\nvalue = [53, 1]"] ;
247 -> 251 ;
252 [label="gini = 0.0\nsamples = 47\nvalue = [47, 0]"] ;
251 -> 252 ;
253 [label="DaysLateLastThree <= 563729.125\ngini = 0.2449\nsamples = 7\nvalue = [6, 1]"] ;
251 -> 253 ;
254 [label="gini = 0.0\nsamples = 5\nvalue = [5, 0]"] ;
253 -> 254 ;
255 [label="TotalSaleAvgLast <= 3.0\ngini = 0.5\nsamples = 2\nvalue = [1, 1]"] ;
253 -> 255 ;
256 [label="gini = 0.0\nsamples = 1\nvalue = [1, 0]"] ;
255 -> 256 ;
257 [label="gini = 0.0\nsamples = 1\nvalue = [0, 1]"] ;
255 -> 257 ;
258 [label="gini = 0.0\nsamples = 1\nvalue = [0, 1]"] ;
246 -> 258 ;
259 [label="DaysLateLast <= -3.1667\ngini = 0.023\nsamples = 172\nvalue = [170, 2]"] ;
245 -> 259 ;
260 [label="gini = 0.0\nsamples = 116\nvalue = [116, 0]"] ;
259 -> 260 ;
261 [label="Close <= 1354.405\ngini = 0.0689\nsamples = 56\nvalue = [54, 2]"] ;
259 -> 261 ;
262 [label="TotalSaleLastThree <= 276296.0\ngini = 0.0384\nsamples = 51\nvalue = [50, 1]"] ;
261 -> 262 ;
263 [label="gini = 0.0\nsamples = 45\nvalue = [45, 0]"] ;
262 -> 263 ;
264 [label="TotalSaleLastThree <= 278322.6875\ngini = 0.2778\nsamples = 6\nvalue = [5, 1]"] ;
262 -> 264 ;
265 [label="gini = 0.0\nsamples = 1\nvalue = [0, 1]"] ;
264 -> 265 ;
266 [label="gini = 0.0\nsamples = 5\nvalue = [5, 0]"] ;
264 -> 266 ;
267 [label="DaysLateLast <= -2.1667\ngini = 0.32\nsamples = 5\nvalue = [4, 1]"] ;
261 -> 267 ;
268 [label="gini = 0.0\nsamples = 4\nvalue = [4, 0]"] ;
267 -> 268 ;
269 [label="gini = 0.0\nsamples = 1\nvalue = [0, 1]"] ;
267 -> 269 ;
270 [label="Close <= 1232.925\ngini = 0.0985\nsamples = 520\nvalue = [493, 27]"] ;
244 -> 270 ;
271 [label="DaysLateLastThree <= 2672413.5\ngini = 0.2524\nsamples = 27\nvalue = [23, 4]"] ;
270 -> 271 ;
272 [label="DaysLateLast <= -5.6667\ngini = 0.2041\nsamples = 26\nvalue = [23, 3]"] ;
271 -> 272 ;
273 [label="DaysLateLast <= -6.5\ngini = 0.4082\nsamples = 7\nvalue = [5, 2]"] ;
272 -> 273 ;
274 [label="gini = 0.0\nsamples = 5\nvalue = [5, 0]"] ;
273 -> 274 ;
275 [label="gini = 0.0\nsamples = 2\nvalue = [0, 2]"] ;
273 -> 275 ;
276 [label="DaysLateLastThree <= 1708088.0\ngini = 0.0997\nsamples = 19\nvalue = [18, 1]"] ;
272 -> 276 ;
277 [label="gini = 0.0\nsamples = 12\nvalue = [12, 0]"] ;
276 -> 277 ;
278 [label="DaysLateLastThree <= 1787098.0\ngini = 0.2449\nsamples = 7\nvalue = [6, 1]"] ;
276 -> 278 ;
279 [label="gini = 0.0\nsamples = 1\nvalue = [0, 1]"] ;
278 -> 279 ;
280 [label="gini = 0.0\nsamples = 6\nvalue = [6, 0]"] ;
278 -> 280 ;
281 [label="gini = 0.0\nsamples = 1\nvalue = [0, 1]"] ;
271 -> 281 ;
282 [label="TotalSaleAvgLast <= 4.5\ngini = 0.089\nsamples = 493\nvalue = [470, 23]"] ;
270 -> 282 ;
283 [label="TotalSaleLastThree <= 108858.0\ngini = 0.1547\nsamples = 142\nvalue = [130, 12]"] ;
282 -> 283 ;
284 [label="DaysLateLast <= -5.0\ngini = 0.3967\nsamples = 11\nvalue = [8, 3]"] ;
283 -> 284 ;
285 [label="gini = 0.0\nsamples = 5\nvalue = [5, 0]"] ;
284 -> 285 ;
286 [label="DaysLateLastThree <= 1163481.0\ngini = 0.5\nsamples = 6\nvalue = [3, 3]"] ;
284 -> 286 ;
287 [label="gini = 0.0\nsamples = 3\nvalue = [0, 3]"] ;
286 -> 287 ;
288 [label="gini = 0.0\nsamples = 3\nvalue = [3, 0]"] ;
286 -> 288 ;
289 [label="Close <= 1631.855\ngini = 0.128\nsamples = 131\nvalue = [122, 9]"] ;
283 -> 289 ;
290 [label="DaysLateLast <= -4.8333\ngini = 0.118\nsamples = 127\nvalue = [119, 8]"] ;
289 -> 290 ;
291 [label="DaysLateLast <= -6.1667\ngini = 0.1913\nsamples = 56\nvalue = [50, 6]"] ;
290 -> 291 ;
292 [label="Close <= 1295.165\ngini = 0.0526\nsamples = 37\nvalue = [36, 1]"] ;
291 -> 292 ;
293 [label="Close <= 1275.1\ngini = 0.2449\nsamples = 7\nvalue = [6, 1]"] ;
292 -> 293 ;
294 [label="gini = 0.0\nsamples = 6\nvalue = [6, 0]"] ;
293 -> 294 ;
295 [label="gini = 0.0\nsamples = 1\nvalue = [0, 1]"] ;
293 -> 295 ;
296 [label="gini = 0.0\nsamples = 30\nvalue = [30, 0]"] ;
292 -> 296 ;
297 [label="IP <= 102.9764\ngini = 0.3878\nsamples = 19\nvalue = [14, 5]"] ;
291 -> 297 ;
298 [label="IP <= 99.8994\ngini = 0.2449\nsamples = 14\nvalue = [12, 2]"] ;
297 -> 298 ;
299 [label="TotalSaleLastThree <= 338858.75\ngini = 0.4444\nsamples = 3\nvalue = [1, 2]"] ;
298 -> 299 ;
300 [label="gini = 0.0\nsamples = 2\nvalue = [0, 2]"] ;
299 -> 300 ;
301 [label="gini = 0.0\nsamples = 1\nvalue = [1, 0]"] ;
299 -> 301 ;
302 [label="gini = 0.0\nsamples = 11\nvalue = [11, 0]"] ;
298 -> 302 ;
303 [label="TotalSaleLastThree <= 166830.0\ngini = 0.48\nsamples = 5\nvalue = [2, 3]"] ;
297 -> 303 ;
304 [label="gini = 0.0\nsamples = 2\nvalue = [2, 0]"] ;
303 -> 304 ;
305 [label="gini = 0.0\nsamples = 3\nvalue = [0, 3]"] ;
303 -> 305 ;
306 [label="Close <= 1268.79\ngini = 0.0548\nsamples = 71\nvalue = [69, 2]"] ;
290 -> 306 ;
307 [label="TotalSaleLastThree <= 135006.875\ngini = 0.2778\nsamples = 6\nvalue = [5, 1]"] ;
306 -> 307 ;
308 [label="gini = 0.0\nsamples = 1\nvalue = [0, 1]"] ;
307 -> 308 ;
309 [label="gini = 0.0\nsamples = 5\nvalue = [5, 0]"] ;
307 -> 309 ;
310 [label="TotalSaleAvgLast <= 1.5\ngini = 0.0303\nsamples = 65\nvalue = [64, 1]"] ;
306 -> 310 ;
311 [label="IP <= 101.5303\ngini = 0.18\nsamples = 10\nvalue = [9, 1]"] ;
310 -> 311 ;
312 [label="gini = 0.0\nsamples = 1\nvalue = [0, 1]"] ;
311 -> 312 ;
313 [label="gini = 0.0\nsamples = 9\nvalue = [9, 0]"] ;
311 -> 313 ;
314 [label="gini = 0.0\nsamples = 55\nvalue = [55, 0]"] ;
310 -> 314 ;
315 [label="TotalSaleAvgLast <= 2.5\ngini = 0.375\nsamples = 4\nvalue = [3, 1]"] ;
289 -> 315 ;
316 [label="gini = 0.0\nsamples = 1\nvalue = [0, 1]"] ;
315 -> 316 ;
317 [label="gini = 0.0\nsamples = 3\nvalue = [3, 0]"] ;
315 -> 317 ;
318 [label="DaysLateLastThree <= 1878329.25\ngini = 0.0607\nsamples = 351\nvalue = [340, 11]"] ;
282 -> 318 ;
319 [label="IP <= 105.0758\ngini = 0.0312\nsamples = 252\nvalue = [248, 4]"] ;
318 -> 319 ;
320 [label="DaysLateLast <= -5.1667\ngini = 0.0169\nsamples = 234\nvalue = [232, 2]"] ;
319 -> 320 ;
321 [label="DaysLateLast <= -5.5\ngini = 0.0476\nsamples = 82\nvalue = [80, 2]"] ;
320 -> 321 ;
322 [label="gini = 0.0\nsamples = 70\nvalue = [70, 0]"] ;
321 -> 322 ;
323 [label="DaysLateLastThree <= 1329612.125\ngini = 0.2778\nsamples = 12\nvalue = [10, 2]"] ;
321 -> 323 ;
324 [label="Close <= 1515.6851\ngini = 0.48\nsamples = 5\nvalue = [3, 2]"] ;
323 -> 324 ;
325 [label="Close <= 1336.245\ngini = 0.4444\nsamples = 3\nvalue = [1, 2]"] ;
324 -> 325 ;
326 [label="gini = 0.0\nsamples = 1\nvalue = [1, 0]"] ;
325 -> 326 ;
327 [label="gini = 0.0\nsamples = 2\nvalue = [0, 2]"] ;
325 -> 327 ;
328 [label="gini = 0.0\nsamples = 2\nvalue = [2, 0]"] ;
324 -> 328 ;
329 [label="gini = 0.0\nsamples = 7\nvalue = [7, 0]"] ;
323 -> 329 ;
330 [label="gini = 0.0\nsamples = 152\nvalue = [152, 0]"] ;
320 -> 330 ;
331 [label="DaysLateLast <= -5.6667\ngini = 0.1975\nsamples = 18\nvalue = [16, 2]"] ;
319 -> 331 ;
332 [label="Close <= 1468.8201\ngini = 0.48\nsamples = 5\nvalue = [3, 2]"] ;
331 -> 332 ;
333 [label="gini = 0.0\nsamples = 2\nvalue = [2, 0]"] ;
332 -> 333 ;
334 [label="TotalSaleLastThree <= 283131.1875\ngini = 0.4444\nsamples = 3\nvalue = [1, 2]"] ;
332 -> 334 ;
335 [label="gini = 0.0\nsamples = 2\nvalue = [0, 2]"] ;
334 -> 335 ;
336 [label="gini = 0.0\nsamples = 1\nvalue = [1, 0]"] ;
334 -> 336 ;
337 [label="gini = 0.0\nsamples = 13\nvalue = [13, 0]"] ;
331 -> 337 ;
338 [label="DaysLateLastThree <= 1899795.75\ngini = 0.1314\nsamples = 99\nvalue = [92, 7]"] ;
318 -> 338 ;
339 [label="gini = 0.0\nsamples = 1\nvalue = [0, 1]"] ;
338 -> 339 ;
340 [label="Close <= 1601.925\ngini = 0.115\nsamples = 98\nvalue = [92, 6]"] ;
338 -> 340 ;
341 [label="DaysLateLastThree <= 2076909.25\ngini = 0.0659\nsamples = 88\nvalue = [85, 3]"] ;
340 -> 341 ;
342 [label="DaysLateLastThree <= 2075777.5\ngini = 0.1975\nsamples = 18\nvalue = [16, 2]"] ;
341 -> 342 ;
343 [label="DaysLateLastThree <= 2032529.25\ngini = 0.1107\nsamples = 17\nvalue = [16, 1]"] ;
342 -> 343 ;
344 [label="gini = 0.0\nsamples = 14\nvalue = [14, 0]"] ;
343 -> 344 ;
345 [label="Close <= 1463.42\ngini = 0.4444\nsamples = 3\nvalue = [2, 1]"] ;
343 -> 345 ;
346 [label="gini = 0.0\nsamples = 1\nvalue = [0, 1]"] ;
345 -> 346 ;
347 [label="gini = 0.0\nsamples = 2\nvalue = [2, 0]"] ;
345 -> 347 ;
348 [label="gini = 0.0\nsamples = 1\nvalue = [0, 1]"] ;
342 -> 348 ;
349 [label="TotalSaleLastThree <= 312183.5\ngini = 0.0282\nsamples = 70\nvalue = [69, 1]"] ;
341 -> 349 ;
350 [label="gini = 0.0\nsamples = 63\nvalue = [63, 0]"] ;
349 -> 350 ;
351 [label="TotalSaleLastThree <= 315790.5\ngini = 0.2449\nsamples = 7\nvalue = [6, 1]"] ;
349 -> 351 ;
352 [label="gini = 0.0\nsamples = 1\nvalue = [0, 1]"] ;
351 -> 352 ;
353 [label="gini = 0.0\nsamples = 6\nvalue = [6, 0]"] ;
351 -> 353 ;
354 [label="TotalSaleAvgLast <= 13.0\ngini = 0.42\nsamples = 10\nvalue = [7, 3]"] ;
340 -> 354 ;
355 [label="TotalSaleLastThree <= 197100.4219\ngini = 0.375\nsamples = 4\nvalue = [1, 3]"] ;
354 -> 355 ;
356 [label="TotalSaleLastThree <= 129238.75\ngini = 0.5\nsamples = 2\nvalue = [1, 1]"] ;
355 -> 356 ;
357 [label="gini = 0.0\nsamples = 1\nvalue = [0, 1]"] ;
356 -> 357 ;
358 [label="gini = 0.0\nsamples = 1\nvalue = [1, 0]"] ;
356 -> 358 ;
359 [label="gini = 0.0\nsamples = 2\nvalue = [0, 2]"] ;
355 -> 359 ;
360 [label="gini = 0.0\nsamples = 6\nvalue = [6, 0]"] ;
354 -> 360 ;
361 [label="DaysLateLastThree <= 739468.5625\ngini = 0.0285\nsamples = 346\nvalue = [341, 5]"] ;
119 -> 361 ;
362 [label="gini = 0.0\nsamples = 160\nvalue = [160, 0]"] ;
361 -> 362 ;
363 [label="DaysLateLastThree <= 741036.25\ngini = 0.0523\nsamples = 186\nvalue = [181, 5]"] ;
361 -> 363 ;
364 [label="gini = 0.0\nsamples = 1\nvalue = [0, 1]"] ;
363 -> 364 ;
365 [label="TotalSaleLastThree <= 112305.5\ngini = 0.0423\nsamples = 185\nvalue = [181, 4]"] ;
363 -> 365 ;
366 [label="TotalSaleLastThree <= 110608.0938\ngini = 0.0928\nsamples = 82\nvalue = [78, 4]"] ;
365 -> 366 ;
367 [label="TotalSaleAvgLast <= 10.5\ngini = 0.0713\nsamples = 81\nvalue = [78, 3]"] ;
366 -> 367 ;
368 [label="Close <= 1683.64\ngini = 0.1748\nsamples = 31\nvalue = [28, 3]"] ;
367 -> 368 ;
369 [label="TotalSaleAvgLast <= 4.5\ngini = 0.5\nsamples = 2\nvalue = [1, 1]"] ;
368 -> 369 ;
370 [label="gini = 0.0\nsamples = 1\nvalue = [1, 0]"] ;
369 -> 370 ;
371 [label="gini = 0.0\nsamples = 1\nvalue = [0, 1]"] ;
369 -> 371 ;
372 [label="TotalSaleAvgLast <= 9.5\ngini = 0.1284\nsamples = 29\nvalue = [27, 2]"] ;
368 -> 372 ;
373 [label="Close <= 1878.145\ngini = 0.0768\nsamples = 25\nvalue = [24, 1]"] ;
372 -> 373 ;
374 [label="gini = 0.0\nsamples = 19\nvalue = [19, 0]"] ;
373 -> 374 ;
375 [label="TotalSaleLastThree <= 84165.4219\ngini = 0.2778\nsamples = 6\nvalue = [5, 1]"] ;
373 -> 375 ;
376 [label="gini = 0.0\nsamples = 5\nvalue = [5, 0]"] ;
375 -> 376 ;
377 [label="gini = 0.0\nsamples = 1\nvalue = [0, 1]"] ;
375 -> 377 ;
378 [label="TotalSaleLastThree <= 88728.75\ngini = 0.375\nsamples = 4\nvalue = [3, 1]"] ;
372 -> 378 ;
379 [label="gini = 0.0\nsamples = 1\nvalue = [0, 1]"] ;
378 -> 379 ;
380 [label="gini = 0.0\nsamples = 3\nvalue = [3, 0]"] ;
378 -> 380 ;
381 [label="gini = 0.0\nsamples = 50\nvalue = [50, 0]"] ;
367 -> 381 ;
382 [label="gini = 0.0\nsamples = 1\nvalue = [0, 1]"] ;
366 -> 382 ;
383 [label="gini = 0.0\nsamples = 103\nvalue = [103, 0]"] ;
365 -> 383 ;
384 [label="TotalSaleLastThree <= 406475.0\ngini = 0.2098\nsamples = 84\nvalue = [74, 10]"] ;
118 -> 384 ;
385 [label="TotalSaleAvgLast <= 2.5\ngini = 0.4082\nsamples = 21\nvalue = [15, 6]"] ;
384 -> 385 ;
386 [label="DaysLateLast <= -9.1667\ngini = 0.2604\nsamples = 13\nvalue = [11, 2]"] ;
385 -> 386 ;
387 [label="gini = 0.0\nsamples = 1\nvalue = [0, 1]"] ;
386 -> 387 ;
388 [label="TotalSaleLastThree <= 404542.0\ngini = 0.1528\nsamples = 12\nvalue = [11, 1]"] ;
386 -> 388 ;
389 [label="gini = 0.0\nsamples = 11\nvalue = [11, 0]"] ;
388 -> 389 ;
390 [label="gini = 0.0\nsamples = 1\nvalue = [0, 1]"] ;
388 -> 390 ;
391 [label="TotalSaleLastThree <= 389144.0\ngini = 0.5\nsamples = 8\nvalue = [4, 4]"] ;
385 -> 391 ;
392 [label="gini = 0.0\nsamples = 3\nvalue = [3, 0]"] ;
391 -> 392 ;
393 [label="DaysLateLast <= -7.8333\ngini = 0.32\nsamples = 5\nvalue = [1, 4]"] ;
391 -> 393 ;
394 [label="IP <= 98.8758\ngini = 0.5\nsamples = 2\nvalue = [1, 1]"] ;
393 -> 394 ;
395 [label="gini = 0.0\nsamples = 1\nvalue = [0, 1]"] ;
394 -> 395 ;
396 [label="gini = 0.0\nsamples = 1\nvalue = [1, 0]"] ;
394 -> 396 ;
397 [label="gini = 0.0\nsamples = 3\nvalue = [0, 3]"] ;
393 -> 397 ;
398 [label="IP <= 105.1455\ngini = 0.1189\nsamples = 63\nvalue = [59, 4]"] ;
384 -> 398 ;
399 [label="Close <= 1013.83\ngini = 0.0935\nsamples = 61\nvalue = [58, 3]"] ;
398 -> 399 ;
400 [label="TotalSaleAvgLast <= 6.0\ngini = 0.5\nsamples = 2\nvalue = [1, 1]"] ;
399 -> 400 ;
401 [label="gini = 0.0\nsamples = 1\nvalue = [1, 0]"] ;
400 -> 401 ;
402 [label="gini = 0.0\nsamples = 1\nvalue = [0, 1]"] ;
400 -> 402 ;
403 [label="IP <= 102.5139\ngini = 0.0655\nsamples = 59\nvalue = [57, 2]"] ;
399 -> 403 ;
404 [label="gini = 0.0\nsamples = 36\nvalue = [36, 0]"] ;
403 -> 404 ;
405 [label="Close <= 1300.415\ngini = 0.1588\nsamples = 23\nvalue = [21, 2]"] ;
403 -> 405 ;
406 [label="gini = 0.0\nsamples = 1\nvalue = [0, 1]"] ;
405 -> 406 ;
407 [label="Close <= 1419.5801\ngini = 0.0868\nsamples = 22\nvalue = [21, 1]"] ;
405 -> 407 ;
408 [label="Close <= 1412.5601\ngini = 0.2778\nsamples = 6\nvalue = [5, 1]"] ;
407 -> 408 ;
409 [label="gini = 0.0\nsamples = 5\nvalue = [5, 0]"] ;
408 -> 409 ;
410 [label="gini = 0.0\nsamples = 1\nvalue = [0, 1]"] ;
408 -> 410 ;
411 [label="gini = 0.0\nsamples = 16\nvalue = [16, 0]"] ;
407 -> 411 ;
412 [label="TotalSaleLastThree <= 499235.0\ngini = 0.5\nsamples = 2\nvalue = [1, 1]"] ;
398 -> 412 ;
413 [label="gini = 0.0\nsamples = 1\nvalue = [1, 0]"] ;
412 -> 413 ;
414 [label="gini = 0.0\nsamples = 1\nvalue = [0, 1]"] ;
412 -> 414 ;
415 [label="DaysLateLastThree <= 2850897.0\ngini = 0.2014\nsamples = 88\nvalue = [78, 10]"] ;
117 -> 415 ;
416 [label="Close <= 1559.6499\ngini = 0.4444\nsamples = 3\nvalue = [1, 2]"] ;
415 -> 416 ;
417 [label="gini = 0.0\nsamples = 2\nvalue = [0, 2]"] ;
416 -> 417 ;
418 [label="gini = 0.0\nsamples = 1\nvalue = [1, 0]"] ;
416 -> 418 ;
419 [label="IP <= 101.7262\ngini = 0.1705\nsamples = 85\nvalue = [77, 8]"] ;
415 -> 419 ;
420 [label="TotalSaleAvgLast <= 6.5\ngini = 0.0444\nsamples = 44\nvalue = [43, 1]"] ;
419 -> 420 ;
421 [label="TotalSaleLastThree <= 138354.75\ngini = 0.2188\nsamples = 8\nvalue = [7, 1]"] ;
420 -> 421 ;
422 [label="gini = 0.0\nsamples = 1\nvalue = [0, 1]"] ;
421 -> 422 ;
423 [label="gini = 0.0\nsamples = 7\nvalue = [7, 0]"] ;
421 -> 423 ;
424 [label="gini = 0.0\nsamples = 36\nvalue = [36, 0]"] ;
420 -> 424 ;
425 [label="DaysLateLastThree <= 2905531.5\ngini = 0.2832\nsamples = 41\nvalue = [34, 7]"] ;
419 -> 425 ;
426 [label="TotalSaleLastThree <= 95752.0312\ngini = 0.4938\nsamples = 9\nvalue = [5, 4]"] ;
425 -> 426 ;
427 [label="gini = 0.0\nsamples = 5\nvalue = [5, 0]"] ;
426 -> 427 ;
428 [label="gini = 0.0\nsamples = 4\nvalue = [0, 4]"] ;
426 -> 428 ;
429 [label="TotalSaleLastThree <= 73432.1875\ngini = 0.1699\nsamples = 32\nvalue = [29, 3]"] ;
425 -> 429 ;
430 [label="gini = 0.0\nsamples = 1\nvalue = [0, 1]"] ;
429 -> 430 ;
431 [label="TotalSaleLastThree <= 90043.0547\ngini = 0.1207\nsamples = 31\nvalue = [29, 2]"] ;
429 -> 431 ;
432 [label="TotalSaleAvgLast <= 31.0\ngini = 0.4444\nsamples = 3\nvalue = [2, 1]"] ;
431 -> 432 ;
433 [label="gini = 0.0\nsamples = 1\nvalue = [0, 1]"] ;
432 -> 433 ;
434 [label="gini = 0.0\nsamples = 2\nvalue = [2, 0]"] ;
432 -> 434 ;
435 [label="Close <= 1897.955\ngini = 0.0689\nsamples = 28\nvalue = [27, 1]"] ;
431 -> 435 ;
436 [label="gini = 0.0\nsamples = 24\nvalue = [24, 0]"] ;
435 -> 436 ;
437 [label="TotalSaleAvgLast <= 10.0\ngini = 0.375\nsamples = 4\nvalue = [3, 1]"] ;
435 -> 437 ;
438 [label="gini = 0.0\nsamples = 1\nvalue = [0, 1]"] ;
437 -> 438 ;
439 [label="gini = 0.0\nsamples = 3\nvalue = [3, 0]"] ;
437 -> 439 ;
440 [label="Close <= 1332.9199\ngini = 0.4444\nsamples = 6\nvalue = [4, 2]"] ;
116 -> 440 ;
441 [label="TotalSaleAvgLast <= 118.0\ngini = 0.4444\nsamples = 3\nvalue = [1, 2]"] ;
440 -> 441 ;
442 [label="gini = 0.0\nsamples = 2\nvalue = [0, 2]"] ;
441 -> 442 ;
443 [label="gini = 0.0\nsamples = 1\nvalue = [1, 0]"] ;
441 -> 443 ;
444 [label="gini = 0.0\nsamples = 3\nvalue = [3, 0]"] ;
440 -> 444 ;
445 [label="gini = 0.0\nsamples = 1\nvalue = [0, 1]"] ;
115 -> 445 ;
446 [label="TotalSaleLastThree <= 306231.5938\ngini = 0.0485\nsamples = 644\nvalue = [628, 16]"] ;
114 -> 446 ;
447 [label="TotalSaleLastThree <= 305691.375\ngini = 0.0658\nsamples = 470\nvalue = [454, 16]"] ;
446 -> 447 ;
448 [label="IP <= 105.1455\ngini = 0.0619\nsamples = 469\nvalue = [454, 15]"] ;
447 -> 448 ;
449 [label="DaysLateLastThree <= 5536384.5\ngini = 0.0584\nsamples = 465\nvalue = [451, 14]"] ;
448 -> 449 ;
450 [label="IP <= 99.7484\ngini = 0.0304\nsamples = 259\nvalue = [255, 4]"] ;
449 -> 450 ;
451 [label="DaysLateLastThree <= 3332131.5\ngini = 0.0799\nsamples = 72\nvalue = [69, 3]"] ;
450 -> 451 ;
452 [label="TotalSaleAvgLast <= 17.5\ngini = 0.4444\nsamples = 3\nvalue = [2, 1]"] ;
451 -> 452 ;
453 [label="gini = 0.0\nsamples = 1\nvalue = [0, 1]"] ;
452 -> 453 ;
454 [label="gini = 0.0\nsamples = 2\nvalue = [2, 0]"] ;
452 -> 454 ;
455 [label="TotalSaleLastThree <= 94380.4609\ngini = 0.0563\nsamples = 69\nvalue = [67, 2]"] ;
451 -> 455 ;
456 [label="TotalSaleLastThree <= 86561.1641\ngini = 0.4444\nsamples = 3\nvalue = [2, 1]"] ;
455 -> 456 ;
457 [label="gini = 0.0\nsamples = 2\nvalue = [2, 0]"] ;
456 -> 457 ;
458 [label="gini = 0.0\nsamples = 1\nvalue = [0, 1]"] ;
456 -> 458 ;
459 [label="IP <= 96.2197\ngini = 0.0298\nsamples = 66\nvalue = [65, 1]"] ;
455 -> 459 ;
460 [label="TotalSaleLastThree <= 171455.5469\ngini = 0.1327\nsamples = 14\nvalue = [13, 1]"] ;
459 -> 460 ;
461 [label="IP <= 95.9453\ngini = 0.4444\nsamples = 3\nvalue = [2, 1]"] ;
460 -> 461 ;
462 [label="gini = 0.0\nsamples = 2\nvalue = [2, 0]"] ;
461 -> 462 ;
463 [label="gini = 0.0\nsamples = 1\nvalue = [0, 1]"] ;
461 -> 463 ;
464 [label="gini = 0.0\nsamples = 11\nvalue = [11, 0]"] ;
460 -> 464 ;
465 [label="gini = 0.0\nsamples = 52\nvalue = [52, 0]"] ;
459 -> 465 ;
466 [label="IP <= 105.0758\ngini = 0.0106\nsamples = 187\nvalue = [186, 1]"] ;
450 -> 466 ;
467 [label="gini = 0.0\nsamples = 171\nvalue = [171, 0]"] ;
466 -> 467 ;
468 [label="IP <= 105.1062\ngini = 0.1172\nsamples = 16\nvalue = [15, 1]"] ;
466 -> 468 ;
469 [label="TotalSaleAvgLast <= 18.0\ngini = 0.375\nsamples = 4\nvalue = [3, 1]"] ;
468 -> 469 ;
470 [label="gini = 0.0\nsamples = 1\nvalue = [0, 1]"] ;
469 -> 470 ;
471 [label="gini = 0.0\nsamples = 3\nvalue = [3, 0]"] ;
469 -> 471 ;
472 [label="gini = 0.0\nsamples = 12\nvalue = [12, 0]"] ;
468 -> 472 ;
473 [label="DaysLateLastThree <= 5548139.0\ngini = 0.0924\nsamples = 206\nvalue = [196, 10]"] ;
449 -> 473 ;
474 [label="gini = 0.0\nsamples = 1\nvalue = [0, 1]"] ;
473 -> 474 ;
475 [label="Close <= 1601.925\ngini = 0.084\nsamples = 205\nvalue = [196, 9]"] ;
473 -> 475 ;
476 [label="TotalSaleLastThree <= 258736.75\ngini = 0.0479\nsamples = 163\nvalue = [159, 4]"] ;
475 -> 476 ;
477 [label="TotalSaleAvgLast <= 187.0\ngini = 0.0148\nsamples = 134\nvalue = [133, 1]"] ;
476 -> 477 ;
478 [label="gini = 0.0\nsamples = 114\nvalue = [114, 0]"] ;
477 -> 478 ;
479 [label="TotalSaleAvgLast <= 189.0\ngini = 0.095\nsamples = 20\nvalue = [19, 1]"] ;
477 -> 479 ;
480 [label="gini = 0.0\nsamples = 1\nvalue = [0, 1]"] ;
479 -> 480 ;
481 [label="gini = 0.0\nsamples = 19\nvalue = [19, 0]"] ;
479 -> 481 ;
482 [label="TotalSaleLastThree <= 260709.6875\ngini = 0.1855\nsamples = 29\nvalue = [26, 3]"] ;
476 -> 482 ;
483 [label="gini = 0.0\nsamples = 1\nvalue = [0, 1]"] ;
482 -> 483 ;
484 [label="DaysLateLastThree <= 6066282.0\ngini = 0.1327\nsamples = 28\nvalue = [26, 2]"] ;
482 -> 484 ;
485 [label="DaysLateLast <= -5.5\ngini = 0.5\nsamples = 2\nvalue = [1, 1]"] ;
484 -> 485 ;
486 [label="gini = 0.0\nsamples = 1\nvalue = [0, 1]"] ;
485 -> 486 ;
487 [label="gini = 0.0\nsamples = 1\nvalue = [1, 0]"] ;
485 -> 487 ;
488 [label="Close <= 1255.47\ngini = 0.074\nsamples = 26\nvalue = [25, 1]"] ;
484 -> 488 ;
489 [label="DaysLateLast <= -6.6667\ngini = 0.2449\nsamples = 7\nvalue = [6, 1]"] ;
488 -> 489 ;
490 [label="gini = 0.0\nsamples = 1\nvalue = [0, 1]"] ;
489 -> 490 ;
491 [label="gini = 0.0\nsamples = 6\nvalue = [6, 0]"] ;
489 -> 491 ;
492 [label="gini = 0.0\nsamples = 19\nvalue = [19, 0]"] ;
488 -> 492 ;
493 [label="IP <= 102.8623\ngini = 0.2098\nsamples = 42\nvalue = [37, 5]"] ;
475 -> 493 ;
494 [label="TotalSaleLastThree <= 158551.4062\ngini = 0.3512\nsamples = 22\nvalue = [17, 5]"] ;
493 -> 494 ;
495 [label="DaysLateLastThree <= 6359385.0\ngini = 0.48\nsamples = 5\nvalue = [2, 3]"] ;
494 -> 495 ;
496 [label="gini = 0.0\nsamples = 1\nvalue = [1, 0]"] ;
495 -> 496 ;
497 [label="DaysLateLastThree <= 15372434.0\ngini = 0.375\nsamples = 4\nvalue = [1, 3]"] ;
495 -> 497 ;
498 [label="gini = 0.0\nsamples = 2\nvalue = [0, 2]"] ;
497 -> 498 ;
499 [label="DaysLateLast <= -7.8333\ngini = 0.5\nsamples = 2\nvalue = [1, 1]"] ;
497 -> 499 ;
500 [label="gini = 0.0\nsamples = 1\nvalue = [0, 1]"] ;
499 -> 500 ;
501 [label="gini = 0.0\nsamples = 1\nvalue = [1, 0]"] ;
499 -> 501 ;
502 [label="TotalSaleLastThree <= 298951.75\ngini = 0.2076\nsamples = 17\nvalue = [15, 2]"] ;
494 -> 502 ;
503 [label="DaysLateLast <= -1.8333\ngini = 0.1172\nsamples = 16\nvalue = [15, 1]"] ;
502 -> 503 ;
504 [label="gini = 0.0\nsamples = 15\nvalue = [15, 0]"] ;
503 -> 504 ;
505 [label="gini = 0.0\nsamples = 1\nvalue = [0, 1]"] ;
503 -> 505 ;
506 [label="gini = 0.0\nsamples = 1\nvalue = [0, 1]"] ;
502 -> 506 ;
507 [label="gini = 0.0\nsamples = 20\nvalue = [20, 0]"] ;
493 -> 507 ;
508 [label="TotalSaleAvgLast <= 29.5\ngini = 0.375\nsamples = 4\nvalue = [3, 1]"] ;
448 -> 508 ;
509 [label="gini = 0.0\nsamples = 3\nvalue = [3, 0]"] ;
508 -> 509 ;
510 [label="gini = 0.0\nsamples = 1\nvalue = [0, 1]"] ;
508 -> 510 ;
511 [label="gini = 0.0\nsamples = 1\nvalue = [0, 1]"] ;
447 -> 511 ;
512 [label="gini = 0.0\nsamples = 174\nvalue = [174, 0]"] ;
446 -> 512 ;
513 [label="DaysLateLastThree <= 62610072.0\ngini = 0.3367\nsamples = 14\nvalue = [11, 3]"] ;
9 -> 513 ;
514 [label="Close <= 1395.05\ngini = 0.48\nsamples = 5\nvalue = [2, 3]"] ;
513 -> 514 ;
515 [label="gini = 0.0\nsamples = 2\nvalue = [2, 0]"] ;
514 -> 515 ;
516 [label="gini = 0.0\nsamples = 3\nvalue = [0, 3]"] ;
514 -> 516 ;
517 [label="gini = 0.0\nsamples = 9\nvalue = [9, 0]"] ;
513 -> 517 ;
518 [label="DaysLateLastThree <= 1069445.625\ngini = 0.1645\nsamples = 188\nvalue = [171, 17]"] ;
8 -> 518 ;
519 [label="DaysLateLastThree <= 864849.8125\ngini = 0.4753\nsamples = 18\nvalue = [11, 7]"] ;
518 -> 519 ;
520 [label="DaysLateLastThree <= 612109.5625\ngini = 0.1975\nsamples = 9\nvalue = [8, 1]"] ;
519 -> 520 ;
521 [label="gini = 0.0\nsamples = 5\nvalue = [5, 0]"] ;
520 -> 521 ;
522 [label="Close <= 1150.425\ngini = 0.375\nsamples = 4\nvalue = [3, 1]"] ;
520 -> 522 ;
523 [label="gini = 0.0\nsamples = 1\nvalue = [0, 1]"] ;
522 -> 523 ;
524 [label="gini = 0.0\nsamples = 3\nvalue = [3, 0]"] ;
522 -> 524 ;
525 [label="IP <= 96.2183\ngini = 0.4444\nsamples = 9\nvalue = [3, 6]"] ;
519 -> 525 ;
526 [label="gini = 0.0\nsamples = 2\nvalue = [2, 0]"] ;
525 -> 526 ;
527 [label="TotalSaleAvgLast <= 3.5\ngini = 0.2449\nsamples = 7\nvalue = [1, 6]"] ;
525 -> 527 ;
528 [label="gini = 0.0\nsamples = 6\nvalue = [0, 6]"] ;
527 -> 528 ;
529 [label="gini = 0.0\nsamples = 1\nvalue = [1, 0]"] ;
527 -> 529 ;
530 [label="IP <= 94.1837\ngini = 0.1107\nsamples = 170\nvalue = [160, 10]"] ;
518 -> 530 ;
531 [label="IP <= 91.2199\ngini = 0.3878\nsamples = 19\nvalue = [14, 5]"] ;
530 -> 531 ;
532 [label="Close <= 1105.365\ngini = 0.1653\nsamples = 11\nvalue = [10, 1]"] ;
531 -> 532 ;
533 [label="gini = 0.0\nsamples = 8\nvalue = [8, 0]"] ;
532 -> 533 ;
534 [label="DaysLateLastThree <= 3243765.5\ngini = 0.4444\nsamples = 3\nvalue = [2, 1]"] ;
532 -> 534 ;
535 [label="gini = 0.0\nsamples = 1\nvalue = [0, 1]"] ;
534 -> 535 ;
536 [label="gini = 0.0\nsamples = 2\nvalue = [2, 0]"] ;
534 -> 536 ;
537 [label="DaysLateLast <= -3.6667\ngini = 0.5\nsamples = 8\nvalue = [4, 4]"] ;
531 -> 537 ;
538 [label="DaysLateLast <= -9.5\ngini = 0.32\nsamples = 5\nvalue = [4, 1]"] ;
537 -> 538 ;
539 [label="gini = 0.0\nsamples = 1\nvalue = [0, 1]"] ;
538 -> 539 ;
540 [label="gini = 0.0\nsamples = 4\nvalue = [4, 0]"] ;
538 -> 540 ;
541 [label="gini = 0.0\nsamples = 3\nvalue = [0, 3]"] ;
537 -> 541 ;
542 [label="TotalSaleLastThree <= 612541.5\ngini = 0.064\nsamples = 151\nvalue = [146, 5]"] ;
530 -> 542 ;
543 [label="gini = 0.0\nsamples = 1\nvalue = [0, 1]"] ;
542 -> 543 ;
544 [label="Close <= 1878.145\ngini = 0.0519\nsamples = 150\nvalue = [146, 4]"] ;
542 -> 544 ;
545 [label="TotalSaleLastThree <= 1405638.0\ngini = 0.0282\nsamples = 140\nvalue = [138, 2]"] ;
544 -> 545 ;
546 [label="gini = 0.0\nsamples = 109\nvalue = [109, 0]"] ;
545 -> 546 ;
547 [label="TotalSaleLastThree <= 1427423.0\ngini = 0.1207\nsamples = 31\nvalue = [29, 2]"] ;
545 -> 547 ;
548 [label="gini = 0.0\nsamples = 1\nvalue = [0, 1]"] ;
547 -> 548 ;
549 [label="DaysLateLastThree <= 2745581.0\ngini = 0.0644\nsamples = 30\nvalue = [29, 1]"] ;
547 -> 549 ;
550 [label="Close <= 1355.355\ngini = 0.2778\nsamples = 6\nvalue = [5, 1]"] ;
549 -> 550 ;
551 [label="gini = 0.0\nsamples = 1\nvalue = [0, 1]"] ;
550 -> 551 ;
552 [label="gini = 0.0\nsamples = 5\nvalue = [5, 0]"] ;
550 -> 552 ;
553 [label="gini = 0.0\nsamples = 24\nvalue = [24, 0]"] ;
549 -> 553 ;
554 [label="DaysLateLastThree <= 3138410.0\ngini = 0.32\nsamples = 10\nvalue = [8, 2]"] ;
544 -> 554 ;
555 [label="gini = 0.0\nsamples = 7\nvalue = [7, 0]"] ;
554 -> 555 ;
556 [label="DaysLateLastThree <= 13624582.0\ngini = 0.4444\nsamples = 3\nvalue = [1, 2]"] ;
554 -> 556 ;
557 [label="gini = 0.0\nsamples = 2\nvalue = [0, 2]"] ;
556 -> 557 ;
558 [label="gini = 0.0\nsamples = 1\nvalue = [1, 0]"] ;
556 -> 558 ;
559 [label="DaysLateLastThree <= -32310.166\ngini = 0.1497\nsamples = 761\nvalue = [699, 62]"] ;
7 -> 559 ;
560 [label="gini = 0.0\nsamples = 1\nvalue = [0, 1]"] ;
559 -> 560 ;
561 [label="TotalSaleAvgLast <= 1229.5\ngini = 0.1476\nsamples = 760\nvalue = [699, 61]"] ;
559 -> 561 ;
562 [label="IP <= 95.4315\ngini = 0.1456\nsamples = 759\nvalue = [699, 60]"] ;
561 -> 562 ;
563 [label="TotalSaleAvgLast <= 25.5\ngini = 0.0359\nsamples = 164\nvalue = [161, 3]"] ;
562 -> 563 ;
564 [label="Close <= 1178.0601\ngini = 0.0141\nsamples = 141\nvalue = [140, 1]"] ;
563 -> 564 ;
565 [label="gini = 0.0\nsamples = 132\nvalue = [132, 0]"] ;
564 -> 565 ;
566 [label="DaysLateLast <= -0.8333\ngini = 0.1975\nsamples = 9\nvalue = [8, 1]"] ;
564 -> 566 ;
567 [label="gini = 0.0\nsamples = 6\nvalue = [6, 0]"] ;
566 -> 567 ;
568 [label="TotalSaleLastThree <= 121754.2656\ngini = 0.4444\nsamples = 3\nvalue = [2, 1]"] ;
566 -> 568 ;
569 [label="gini = 0.0\nsamples = 2\nvalue = [2, 0]"] ;
568 -> 569 ;
570 [label="gini = 0.0\nsamples = 1\nvalue = [0, 1]"] ;
568 -> 570 ;
571 [label="TotalSaleAvgLast <= 26.5\ngini = 0.1588\nsamples = 23\nvalue = [21, 2]"] ;
563 -> 571 ;
572 [label="gini = 0.0\nsamples = 1\nvalue = [0, 1]"] ;
571 -> 572 ;
573 [label="TotalSaleLastThree <= 119605.75\ngini = 0.0868\nsamples = 22\nvalue = [21, 1]"] ;
571 -> 573 ;
574 [label="gini = 0.0\nsamples = 15\nvalue = [15, 0]"] ;
573 -> 574 ;
575 [label="TotalSaleLastThree <= 130909.9219\ngini = 0.2449\nsamples = 7\nvalue = [6, 1]"] ;
573 -> 575 ;
576 [label="gini = 0.0\nsamples = 1\nvalue = [0, 1]"] ;
575 -> 576 ;
577 [label="gini = 0.0\nsamples = 6\nvalue = [6, 0]"] ;
575 -> 577 ;
578 [label="IP <= 95.6227\ngini = 0.1732\nsamples = 595\nvalue = [538, 57]"] ;
562 -> 578 ;
579 [label="DaysLateLastThree <= 2566166.5\ngini = 0.4444\nsamples = 15\nvalue = [10, 5]"] ;
578 -> 579 ;
580 [label="TotalSaleLastThree <= 114563.3594\ngini = 0.355\nsamples = 13\nvalue = [10, 3]"] ;
579 -> 580 ;
581 [label="gini = 0.0\nsamples = 5\nvalue = [5, 0]"] ;
580 -> 581 ;
582 [label="DaysLateLastThree <= 1063700.375\ngini = 0.4688\nsamples = 8\nvalue = [5, 3]"] ;
580 -> 582 ;
583 [label="gini = 0.0\nsamples = 3\nvalue = [3, 0]"] ;
582 -> 583 ;
584 [label="TotalSaleAvgLast <= 7.0\ngini = 0.48\nsamples = 5\nvalue = [2, 3]"] ;
582 -> 584 ;
585 [label="gini = 0.0\nsamples = 2\nvalue = [0, 2]"] ;
584 -> 585 ;
586 [label="DaysLateLastThree <= 2029599.0\ngini = 0.4444\nsamples = 3\nvalue = [2, 1]"] ;
584 -> 586 ;
587 [label="gini = 0.0\nsamples = 2\nvalue = [2, 0]"] ;
586 -> 587 ;
588 [label="gini = 0.0\nsamples = 1\nvalue = [0, 1]"] ;
586 -> 588 ;
589 [label="gini = 0.0\nsamples = 2\nvalue = [0, 2]"] ;
579 -> 589 ;
590 [label="TotalSaleLastThree <= 236638.2969\ngini = 0.1632\nsamples = 580\nvalue = [528, 52]"] ;
578 -> 590 ;
591 [label="DaysLateLastThree <= 641062.125\ngini = 0.1373\nsamples = 445\nvalue = [412, 33]"] ;
590 -> 591 ;
592 [label="TotalSaleAvgLast <= 8.5\ngini = 0.061\nsamples = 127\nvalue = [123, 4]"] ;
591 -> 592 ;
593 [label="Close <= 1284.475\ngini = 0.02\nsamples = 99\nvalue = [98, 1]"] ;
592 -> 593 ;
594 [label="Close <= 1276.5149\ngini = 0.1049\nsamples = 18\nvalue = [17, 1]"] ;
593 -> 594 ;
595 [label="gini = 0.0\nsamples = 17\nvalue = [17, 0]"] ;
594 -> 595 ;
596 [label="gini = 0.0\nsamples = 1\nvalue = [0, 1]"] ;
594 -> 596 ;
597 [label="gini = 0.0\nsamples = 81\nvalue = [81, 0]"] ;
593 -> 597 ;
598 [label="DaysLateLastThree <= 57998.668\ngini = 0.1913\nsamples = 28\nvalue = [25, 3]"] ;
592 -> 598 ;
599 [label="gini = 0.0\nsamples = 1\nvalue = [0, 1]"] ;
598 -> 599 ;
600 [label="IP <= 105.0844\ngini = 0.1372\nsamples = 27\nvalue = [25, 2]"] ;
598 -> 600 ;
601 [label="DaysLateLastThree <= 110640.6406\ngini = 0.0768\nsamples = 25\nvalue = [24, 1]"] ;
600 -> 601 ;
602 [label="TotalSaleLastThree <= 15483.8848\ngini = 0.4444\nsamples = 3\nvalue = [2, 1]"] ;
601 -> 602 ;
603 [label="gini = 0.0\nsamples = 2\nvalue = [2, 0]"] ;
602 -> 603 ;
604 [label="gini = 0.0\nsamples = 1\nvalue = [0, 1]"] ;
602 -> 604 ;
605 [label="gini = 0.0\nsamples = 22\nvalue = [22, 0]"] ;
601 -> 605 ;
606 [label="TotalSaleAvgLast <= 11.0\ngini = 0.5\nsamples = 2\nvalue = [1, 1]"] ;
600 -> 606 ;
607 [label="gini = 0.0\nsamples = 1\nvalue = [1, 0]"] ;
606 -> 607 ;
608 [label="gini = 0.0\nsamples = 1\nvalue = [0, 1]"] ;
606 -> 608 ;
609 [label="DaysLateLastThree <= 646126.0\ngini = 0.1658\nsamples = 318\nvalue = [289, 29]"] ;
591 -> 609 ;
610 [label="gini = 0.0\nsamples = 1\nvalue = [0, 1]"] ;
609 -> 610 ;
611 [label="TotalSaleAvgLast <= 5.5\ngini = 0.1611\nsamples = 317\nvalue = [289, 28]"] ;
609 -> 611 ;
612 [label="TotalSaleLastThree <= 168680.0\ngini = 0.32\nsamples = 40\nvalue = [32, 8]"] ;
611 -> 612 ;
613 [label="TotalSaleAvgLast <= 3.5\ngini = 0.417\nsamples = 27\nvalue = [19, 8]"] ;
612 -> 613 ;
614 [label="IP <= 95.6682\ngini = 0.2449\nsamples = 14\nvalue = [12, 2]"] ;
613 -> 614 ;
615 [label="gini = 0.0\nsamples = 1\nvalue = [0, 1]"] ;
614 -> 615 ;
616 [label="IsCallLast <= 0.5\ngini = 0.142\nsamples = 13\nvalue = [12, 1]"] ;
614 -> 616 ;
617 [label="gini = 0.0\nsamples = 11\nvalue = [11, 0]"] ;
616 -> 617 ;
618 [label="DaysLateLastThree <= 896905.25\ngini = 0.5\nsamples = 2\nvalue = [1, 1]"] ;
616 -> 618 ;
619 [label="gini = 0.0\nsamples = 1\nvalue = [0, 1]"] ;
618 -> 619 ;
620 [label="gini = 0.0\nsamples = 1\nvalue = [1, 0]"] ;
618 -> 620 ;
621 [label="DaysLateLastThree <= 2479888.5\ngini = 0.497\nsamples = 13\nvalue = [7, 6]"] ;
613 -> 621 ;
622 [label="Close <= 1423.355\ngini = 0.4959\nsamples = 11\nvalue = [5, 6]"] ;
621 -> 622 ;
623 [label="Close <= 1273.4299\ngini = 0.4688\nsamples = 8\nvalue = [5, 3]"] ;
622 -> 623 ;
624 [label="Close <= 1213.755\ngini = 0.375\nsamples = 4\nvalue = [1, 3]"] ;
623 -> 624 ;
625 [label="gini = 0.0\nsamples = 1\nvalue = [1, 0]"] ;
624 -> 625 ;
626 [label="gini = 0.0\nsamples = 3\nvalue = [0, 3]"] ;
624 -> 626 ;
627 [label="gini = 0.0\nsamples = 4\nvalue = [4, 0]"] ;
623 -> 627 ;
628 [label="gini = 0.0\nsamples = 3\nvalue = [0, 3]"] ;
622 -> 628 ;
629 [label="gini = 0.0\nsamples = 2\nvalue = [2, 0]"] ;
621 -> 629 ;
630 [label="gini = 0.0\nsamples = 13\nvalue = [13, 0]"] ;
612 -> 630 ;
631 [label="Close <= 1618.51\ngini = 0.134\nsamples = 277\nvalue = [257, 20]"] ;
611 -> 631 ;
632 [label="Close <= 1307.075\ngini = 0.1006\nsamples = 226\nvalue = [214, 12]"] ;
631 -> 632 ;
633 [label="Close <= 1232.925\ngini = 0.1748\nsamples = 93\nvalue = [84, 9]"] ;
632 -> 633 ;
634 [label="gini = 0.0\nsamples = 38\nvalue = [38, 0]"] ;
633 -> 634 ;
635 [label="Close <= 1250.13\ngini = 0.2737\nsamples = 55\nvalue = [46, 9]"] ;
633 -> 635 ;
636 [label="TotalSaleAvgLast <= 17.5\ngini = 0.4898\nsamples = 7\nvalue = [4, 3]"] ;
635 -> 636 ;
637 [label="gini = 0.0\nsamples = 4\nvalue = [4, 0]"] ;
636 -> 637 ;
638 [label="gini = 0.0\nsamples = 3\nvalue = [0, 3]"] ;
636 -> 638 ;
639 [label="TotalSaleLastThree <= 87150.2656\ngini = 0.2188\nsamples = 48\nvalue = [42, 6]"] ;
635 -> 639 ;
640 [label="gini = 0.0\nsamples = 19\nvalue = [19, 0]"] ;
639 -> 640 ;
641 [label="TotalSaleLastThree <= 144195.5938\ngini = 0.3282\nsamples = 29\nvalue = [23, 6]"] ;
639 -> 641 ;
642 [label="DaysLateLastThree <= 1863793.75\ngini = 0.4444\nsamples = 18\nvalue = [12, 6]"] ;
641 -> 642 ;
643 [label="Close <= 1284.475\ngini = 0.5\nsamples = 10\nvalue = [5, 5]"] ;
642 -> 643 ;
644 [label="TotalSaleLastThree <= 90877.1094\ngini = 0.4688\nsamples = 8\nvalue = [5, 3]"] ;
643 -> 644 ;
645 [label="gini = 0.0\nsamples = 1\nvalue = [0, 1]"] ;
644 -> 645 ;
646 [label="DaysLateLastThree <= 1309075.25\ngini = 0.4082\nsamples = 7\nvalue = [5, 2]"] ;
644 -> 646 ;
647 [label="gini = 0.0\nsamples = 4\nvalue = [4, 0]"] ;
646 -> 647 ;
648 [label="TotalSaleLastThree <= 120549.7031\ngini = 0.4444\nsamples = 3\nvalue = [1, 2]"] ;
646 -> 648 ;
649 [label="gini = 0.0\nsamples = 2\nvalue = [0, 2]"] ;
648 -> 649 ;
650 [label="gini = 0.0\nsamples = 1\nvalue = [1, 0]"] ;
648 -> 650 ;
651 [label="gini = 0.0\nsamples = 2\nvalue = [0, 2]"] ;
643 -> 651 ;
652 [label="Close <= 1298.05\ngini = 0.2188\nsamples = 8\nvalue = [7, 1]"] ;
642 -> 652 ;
653 [label="gini = 0.0\nsamples = 7\nvalue = [7, 0]"] ;
652 -> 653 ;
654 [label="gini = 0.0\nsamples = 1\nvalue = [0, 1]"] ;
652 -> 654 ;
655 [label="gini = 0.0\nsamples = 11\nvalue = [11, 0]"] ;
641 -> 655 ;
656 [label="TotalSaleLastThree <= 190731.9688\ngini = 0.0441\nsamples = 133\nvalue = [130, 3]"] ;
632 -> 656 ;
657 [label="TotalSaleLastThree <= 61436.4453\ngini = 0.0175\nsamples = 113\nvalue = [112, 1]"] ;
656 -> 657 ;
658 [label="TotalSaleLastThree <= 60673.2578\ngini = 0.142\nsamples = 13\nvalue = [12, 1]"] ;
657 -> 658 ;
659 [label="gini = 0.0\nsamples = 12\nvalue = [12, 0]"] ;
658 -> 659 ;
660 [label="gini = 0.0\nsamples = 1\nvalue = [0, 1]"] ;
658 -> 660 ;
661 [label="gini = 0.0\nsamples = 100\nvalue = [100, 0]"] ;
657 -> 661 ;
662 [label="TotalSaleLastThree <= 192385.3438\ngini = 0.18\nsamples = 20\nvalue = [18, 2]"] ;
656 -> 662 ;
663 [label="gini = 0.0\nsamples = 1\nvalue = [0, 1]"] ;
662 -> 663 ;
664 [label="DaysLateLastThree <= 1839232.5\ngini = 0.0997\nsamples = 19\nvalue = [18, 1]"] ;
662 -> 664 ;
665 [label="DaysLateLastThree <= 1625852.875\ngini = 0.375\nsamples = 4\nvalue = [3, 1]"] ;
664 -> 665 ;
666 [label="gini = 0.0\nsamples = 3\nvalue = [3, 0]"] ;
665 -> 666 ;
667 [label="gini = 0.0\nsamples = 1\nvalue = [0, 1]"] ;
665 -> 667 ;
668 [label="gini = 0.0\nsamples = 15\nvalue = [15, 0]"] ;
664 -> 668 ;
669 [label="TotalSaleAvgLast <= 42.5\ngini = 0.2645\nsamples = 51\nvalue = [43, 8]"] ;
631 -> 669 ;
670 [label="DaysLateLastThree <= 2241871.5\ngini = 0.1761\nsamples = 41\nvalue = [37, 4]"] ;
669 -> 670 ;
671 [label="DaysLateLastThree <= 2038349.5\ngini = 0.3457\nsamples = 18\nvalue = [14, 4]"] ;
670 -> 671 ;
672 [label="Close <= 1683.64\ngini = 0.2907\nsamples = 17\nvalue = [14, 3]"] ;
671 -> 672 ;
673 [label="Close <= 1657.26\ngini = 0.48\nsamples = 5\nvalue = [3, 2]"] ;
672 -> 673 ;
674 [label="gini = 0.0\nsamples = 3\nvalue = [3, 0]"] ;
673 -> 674 ;
675 [label="gini = 0.0\nsamples = 2\nvalue = [0, 2]"] ;
673 -> 675 ;
676 [label="DaysLateLast <= -0.5\ngini = 0.1528\nsamples = 12\nvalue = [11, 1]"] ;
672 -> 676 ;
677 [label="gini = 0.0\nsamples = 8\nvalue = [8, 0]"] ;
676 -> 677 ;
678 [label="IP <= 103.5204\ngini = 0.375\nsamples = 4\nvalue = [3, 1]"] ;
676 -> 678 ;
679 [label="gini = 0.0\nsamples = 3\nvalue = [3, 0]"] ;
678 -> 679 ;
680 [label="gini = 0.0\nsamples = 1\nvalue = [0, 1]"] ;
678 -> 680 ;
681 [label="gini = 0.0\nsamples = 1\nvalue = [0, 1]"] ;
671 -> 681 ;
682 [label="gini = 0.0\nsamples = 23\nvalue = [23, 0]"] ;
670 -> 682 ;
683 [label="TotalSaleAvgLast <= 50.0\ngini = 0.48\nsamples = 10\nvalue = [6, 4]"] ;
669 -> 683 ;
684 [label="gini = 0.0\nsamples = 2\nvalue = [0, 2]"] ;
683 -> 684 ;
685 [label="TotalSaleLastThree <= 96561.25\ngini = 0.375\nsamples = 8\nvalue = [6, 2]"] ;
683 -> 685 ;
686 [label="gini = 0.0\nsamples = 5\nvalue = [5, 0]"] ;
685 -> 686 ;
687 [label="TotalSaleLastThree <= 178365.0469\ngini = 0.4444\nsamples = 3\nvalue = [1, 2]"] ;
685 -> 687 ;
688 [label="gini = 0.0\nsamples = 2\nvalue = [0, 2]"] ;
687 -> 688 ;
689 [label="gini = 0.0\nsamples = 1\nvalue = [1, 0]"] ;
687 -> 689 ;
690 [label="TotalSaleLastThree <= 240214.7188\ngini = 0.2419\nsamples = 135\nvalue = [116, 19]"] ;
590 -> 690 ;
691 [label="gini = 0.0\nsamples = 2\nvalue = [0, 2]"] ;
690 -> 691 ;
692 [label="TotalSaleAvgLast <= 21.0\ngini = 0.223\nsamples = 133\nvalue = [116, 17]"] ;
690 -> 692 ;
693 [label="TotalSaleAvgLast <= 1.5\ngini = 0.18\nsamples = 120\nvalue = [108, 12]"] ;
692 -> 693 ;
694 [label="TotalSaleLastThree <= 447916.0\ngini = 0.4444\nsamples = 15\nvalue = [10, 5]"] ;
693 -> 694 ;
695 [label="IP <= 101.592\ngini = 0.375\nsamples = 4\nvalue = [1, 3]"] ;
694 -> 695 ;
696 [label="gini = 0.0\nsamples = 1\nvalue = [1, 0]"] ;
695 -> 696 ;
697 [label="gini = 0.0\nsamples = 3\nvalue = [0, 3]"] ;
695 -> 697 ;
698 [label="Close <= 1373.875\ngini = 0.2975\nsamples = 11\nvalue = [9, 2]"] ;
694 -> 698 ;
699 [label="gini = 0.0\nsamples = 6\nvalue = [6, 0]"] ;
698 -> 699 ;
700 [label="DaysLateLast <= -1.0\ngini = 0.48\nsamples = 5\nvalue = [3, 2]"] ;
698 -> 700 ;
701 [label="gini = 0.0\nsamples = 2\nvalue = [2, 0]"] ;
700 -> 701 ;
702 [label="DaysLateLastThree <= 2488476.75\ngini = 0.4444\nsamples = 3\nvalue = [1, 2]"] ;
700 -> 702 ;
703 [label="gini = 0.0\nsamples = 2\nvalue = [0, 2]"] ;
702 -> 703 ;
704 [label="gini = 0.0\nsamples = 1\nvalue = [1, 0]"] ;
702 -> 704 ;
705 [label="DaysLateLastThree <= 5634052.0\ngini = 0.1244\nsamples = 105\nvalue = [98, 7]"] ;
693 -> 705 ;
706 [label="DaysLateLastThree <= 786085.125\ngini = 0.0666\nsamples = 87\nvalue = [84, 3]"] ;
705 -> 706 ;
707 [label="DaysLateLast <= -0.5\ngini = 0.5\nsamples = 2\nvalue = [1, 1]"] ;
706 -> 707 ;
708 [label="gini = 0.0\nsamples = 1\nvalue = [0, 1]"] ;
707 -> 708 ;
709 [label="gini = 0.0\nsamples = 1\nvalue = [1, 0]"] ;
707 -> 709 ;
710 [label="DaysLateLastThree <= 2564198.5\ngini = 0.046\nsamples = 85\nvalue = [83, 2]"] ;
706 -> 710 ;
711 [label="gini = 0.0\nsamples = 48\nvalue = [48, 0]"] ;
710 -> 711 ;
712 [label="DaysLateLastThree <= 2624190.0\ngini = 0.1023\nsamples = 37\nvalue = [35, 2]"] ;
710 -> 712 ;
713 [label="gini = 0.0\nsamples = 1\nvalue = [0, 1]"] ;
712 -> 713 ;
714 [label="DaysLateLastThree <= 3075866.5\ngini = 0.054\nsamples = 36\nvalue = [35, 1]"] ;
712 -> 714 ;
715 [label="DaysLateLastThree <= 3021963.75\ngini = 0.1653\nsamples = 11\nvalue = [10, 1]"] ;
714 -> 715 ;
716 [label="gini = 0.0\nsamples = 10\nvalue = [10, 0]"] ;
715 -> 716 ;
717 [label="gini = 0.0\nsamples = 1\nvalue = [0, 1]"] ;
715 -> 717 ;
718 [label="gini = 0.0\nsamples = 25\nvalue = [25, 0]"] ;
714 -> 718 ;
719 [label="IP <= 101.9919\ngini = 0.3457\nsamples = 18\nvalue = [14, 4]"] ;
705 -> 719 ;
720 [label="gini = 0.0\nsamples = 10\nvalue = [10, 0]"] ;
719 -> 720 ;
721 [label="TotalSaleLastThree <= 858495.1875\ngini = 0.5\nsamples = 8\nvalue = [4, 4]"] ;
719 -> 721 ;
722 [label="gini = 0.0\nsamples = 3\nvalue = [0, 3]"] ;
721 -> 722 ;
723 [label="TotalSaleLastThree <= 2241754.0\ngini = 0.32\nsamples = 5\nvalue = [4, 1]"] ;
721 -> 723 ;
724 [label="gini = 0.0\nsamples = 4\nvalue = [4, 0]"] ;
723 -> 724 ;
725 [label="gini = 0.0\nsamples = 1\nvalue = [0, 1]"] ;
723 -> 725 ;
726 [label="IP <= 101.3497\ngini = 0.4734\nsamples = 13\nvalue = [8, 5]"] ;
692 -> 726 ;
727 [label="DaysLateLastThree <= 7414695.0\ngini = 0.4688\nsamples = 8\nvalue = [3, 5]"] ;
726 -> 727 ;
728 [label="gini = 0.0\nsamples = 4\nvalue = [0, 4]"] ;
727 -> 728 ;
729 [label="TotalSaleAvgLast <= 93.0\ngini = 0.375\nsamples = 4\nvalue = [3, 1]"] ;
727 -> 729 ;
730 [label="TotalSaleLastThree <= 354421.75\ngini = 0.5\nsamples = 2\nvalue = [1, 1]"] ;
729 -> 730 ;
731 [label="gini = 0.0\nsamples = 1\nvalue = [0, 1]"] ;
730 -> 731 ;
732 [label="gini = 0.0\nsamples = 1\nvalue = [1, 0]"] ;
730 -> 732 ;
733 [label="gini = 0.0\nsamples = 2\nvalue = [2, 0]"] ;
729 -> 733 ;
734 [label="gini = 0.0\nsamples = 5\nvalue = [5, 0]"] ;
726 -> 734 ;
735 [label="gini = 0.0\nsamples = 1\nvalue = [0, 1]"] ;
561 -> 735 ;
736 [label="TotalSaleAvgLast <= 2.5\ngini = 0.21\nsamples = 520\nvalue = [458, 62]"] ;
2 -> 736 ;
737 [label="TotalSaleLastThree <= 1106747.5\ngini = 0.4316\nsamples = 73\nvalue = [50, 23]"] ;
736 -> 737 ;
738 [label="DaysLateLastThree <= 45152.6641\ngini = 0.4166\nsamples = 71\nvalue = [50, 21]"] ;
737 -> 738 ;
739 [label="DaysLateLast <= -3.3333\ngini = 0.4444\nsamples = 6\nvalue = [2, 4]"] ;
738 -> 739 ;
740 [label="gini = 0.0\nsamples = 3\nvalue = [0, 3]"] ;
739 -> 740 ;
741 [label="DaysLateLast <= -1.5\ngini = 0.4444\nsamples = 3\nvalue = [2, 1]"] ;
739 -> 741 ;
742 [label="gini = 0.0\nsamples = 2\nvalue = [2, 0]"] ;
741 -> 742 ;
743 [label="gini = 0.0\nsamples = 1\nvalue = [0, 1]"] ;
741 -> 743 ;
744 [label="IsCallLast <= 0.5\ngini = 0.3863\nsamples = 65\nvalue = [48, 17]"] ;
738 -> 744 ;
745 [label="DaysLateLast <= -21.0\ngini = 0.3537\nsamples = 61\nvalue = [47, 14]"] ;
744 -> 745 ;
746 [label="gini = 0.0\nsamples = 1\nvalue = [0, 1]"] ;
745 -> 746 ;
747 [label="DaysLateLast <= -3.5\ngini = 0.3394\nsamples = 60\nvalue = [47, 13]"] ;
745 -> 747 ;
748 [label="DaysLateLastThree <= 313517.5938\ngini = 0.2659\nsamples = 38\nvalue = [32, 6]"] ;
747 -> 748 ;
749 [label="gini = 0.0\nsamples = 18\nvalue = [18, 0]"] ;
748 -> 749 ;
750 [label="DaysLateLast <= -7.5\ngini = 0.42\nsamples = 20\nvalue = [14, 6]"] ;
748 -> 750 ;
751 [label="gini = 0.0\nsamples = 5\nvalue = [5, 0]"] ;
750 -> 751 ;
752 [label="DaysLateLast <= -5.5\ngini = 0.48\nsamples = 15\nvalue = [9, 6]"] ;
750 -> 752 ;
753 [label="TotalSaleLastThree <= 117357.0\ngini = 0.4688\nsamples = 8\nvalue = [3, 5]"] ;
752 -> 753 ;
754 [label="gini = 0.0\nsamples = 2\nvalue = [0, 2]"] ;
753 -> 754 ;
755 [label="TotalSaleAvgLast <= 1.5\ngini = 0.5\nsamples = 6\nvalue = [3, 3]"] ;
753 -> 755 ;
756 [label="gini = 0.0\nsamples = 1\nvalue = [1, 0]"] ;
755 -> 756 ;
757 [label="IP <= 105.2619\ngini = 0.48\nsamples = 5\nvalue = [2, 3]"] ;
755 -> 757 ;
758 [label="DaysLateLast <= -5.8333\ngini = 0.4444\nsamples = 3\nvalue = [2, 1]"] ;
757 -> 758 ;
759 [label="gini = 0.0\nsamples = 1\nvalue = [0, 1]"] ;
758 -> 759 ;
760 [label="gini = 0.0\nsamples = 2\nvalue = [2, 0]"] ;
758 -> 760 ;
761 [label="gini = 0.0\nsamples = 2\nvalue = [0, 2]"] ;
757 -> 761 ;
762 [label="IP <= 105.6095\ngini = 0.2449\nsamples = 7\nvalue = [6, 1]"] ;
752 -> 762 ;
763 [label="gini = 0.0\nsamples = 5\nvalue = [5, 0]"] ;
762 -> 763 ;
764 [label="TotalSaleAvgLast <= 1.5\ngini = 0.5\nsamples = 2\nvalue = [1, 1]"] ;
762 -> 764 ;
765 [label="gini = 0.0\nsamples = 1\nvalue = [0, 1]"] ;
764 -> 765 ;
766 [label="gini = 0.0\nsamples = 1\nvalue = [1, 0]"] ;
764 -> 766 ;
767 [label="DaysLateLastThree <= 202058.3438\ngini = 0.4339\nsamples = 22\nvalue = [15, 7]"] ;
747 -> 767 ;
768 [label="gini = 0.0\nsamples = 3\nvalue = [0, 3]"] ;
767 -> 768 ;
769 [label="IP <= 105.2619\ngini = 0.3324\nsamples = 19\nvalue = [15, 4]"] ;
767 -> 769 ;
770 [label="DaysLateLastThree <= 238593.3438\ngini = 0.375\nsamples = 4\nvalue = [1, 3]"] ;
769 -> 770 ;
771 [label="gini = 0.0\nsamples = 1\nvalue = [1, 0]"] ;
770 -> 771 ;
772 [label="gini = 0.0\nsamples = 3\nvalue = [0, 3]"] ;
770 -> 772 ;
773 [label="Close <= 1749.52\ngini = 0.1244\nsamples = 15\nvalue = [14, 1]"] ;
769 -> 773 ;
774 [label="gini = 0.0\nsamples = 11\nvalue = [11, 0]"] ;
773 -> 774 ;
775 [label="IP <= 105.6095\ngini = 0.375\nsamples = 4\nvalue = [3, 1]"] ;
773 -> 775 ;
776 [label="gini = 0.0\nsamples = 1\nvalue = [0, 1]"] ;
775 -> 776 ;
777 [label="gini = 0.0\nsamples = 3\nvalue = [3, 0]"] ;
775 -> 777 ;
778 [label="IP <= 105.6865\ngini = 0.375\nsamples = 4\nvalue = [1, 3]"] ;
744 -> 778 ;
779 [label="gini = 0.0\nsamples = 3\nvalue = [0, 3]"] ;
778 -> 779 ;
780 [label="gini = 0.0\nsamples = 1\nvalue = [1, 0]"] ;
778 -> 780 ;
781 [label="gini = 0.0\nsamples = 2\nvalue = [0, 2]"] ;
737 -> 781 ;
782 [label="IP <= 105.2031\ngini = 0.1593\nsamples = 447\nvalue = [408, 39]"] ;
736 -> 782 ;
783 [label="TotalSaleAvgLast <= 208.0\ngini = 0.2989\nsamples = 82\nvalue = [67, 15]"] ;
782 -> 783 ;
784 [label="DaysLateLast <= -1.1667\ngini = 0.2859\nsamples = 81\nvalue = [67, 14]"] ;
783 -> 784 ;
785 [label="TotalSaleAvgLast <= 18.5\ngini = 0.2503\nsamples = 75\nvalue = [64, 11]"] ;
784 -> 785 ;
786 [label="DaysLateLast <= -2.5\ngini = 0.3153\nsamples = 51\nvalue = [41, 10]"] ;
785 -> 786 ;
787 [label="TotalSaleAvgLast <= 10.5\ngini = 0.3944\nsamples = 37\nvalue = [27, 10]"] ;
786 -> 787 ;
788 [label="TotalSaleLastThree <= 588007.0\ngini = 0.2268\nsamples = 23\nvalue = [20, 3]"] ;
787 -> 788 ;
789 [label="IP <= 105.1792\ngini = 0.1653\nsamples = 22\nvalue = [20, 2]"] ;
788 -> 789 ;
790 [label="TotalSaleLastThree <= 97321.7969\ngini = 0.4082\nsamples = 7\nvalue = [5, 2]"] ;
789 -> 790 ;
791 [label="gini = 0.0\nsamples = 4\nvalue = [4, 0]"] ;
790 -> 791 ;
792 [label="TotalSaleLastThree <= 284990.0\ngini = 0.4444\nsamples = 3\nvalue = [1, 2]"] ;
790 -> 792 ;
793 [label="gini = 0.0\nsamples = 2\nvalue = [0, 2]"] ;
792 -> 793 ;
794 [label="gini = 0.0\nsamples = 1\nvalue = [1, 0]"] ;
792 -> 794 ;
795 [label="gini = 0.0\nsamples = 15\nvalue = [15, 0]"] ;
789 -> 795 ;
796 [label="gini = 0.0\nsamples = 1\nvalue = [0, 1]"] ;
788 -> 796 ;
797 [label="DaysLateLastThree <= 2216947.25\ngini = 0.5\nsamples = 14\nvalue = [7, 7]"] ;
787 -> 797 ;
798 [label="TotalSaleLastThree <= 63867.375\ngini = 0.2778\nsamples = 6\nvalue = [1, 5]"] ;
797 -> 798 ;
799 [label="gini = 0.0\nsamples = 1\nvalue = [1, 0]"] ;
798 -> 799 ;
800 [label="gini = 0.0\nsamples = 5\nvalue = [0, 5]"] ;
798 -> 800 ;
801 [label="DaysLateLastThree <= 4593712.5\ngini = 0.375\nsamples = 8\nvalue = [6, 2]"] ;
797 -> 801 ;
802 [label="DaysLateLast <= -8.3333\ngini = 0.2449\nsamples = 7\nvalue = [6, 1]"] ;
801 -> 802 ;
803 [label="DaysLateLast <= -9.0\ngini = 0.5\nsamples = 2\nvalue = [1, 1]"] ;
802 -> 803 ;
804 [label="gini = 0.0\nsamples = 1\nvalue = [1, 0]"] ;
803 -> 804 ;
805 [label="gini = 0.0\nsamples = 1\nvalue = [0, 1]"] ;
803 -> 805 ;
806 [label="gini = 0.0\nsamples = 5\nvalue = [5, 0]"] ;
802 -> 806 ;
807 [label="gini = 0.0\nsamples = 1\nvalue = [0, 1]"] ;
801 -> 807 ;
808 [label="gini = 0.0\nsamples = 14\nvalue = [14, 0]"] ;
786 -> 808 ;
809 [label="TotalSaleAvgLast <= 91.5\ngini = 0.0799\nsamples = 24\nvalue = [23, 1]"] ;
785 -> 809 ;
810 [label="gini = 0.0\nsamples = 21\nvalue = [21, 0]"] ;
809 -> 810 ;
811 [label="DaysLateLast <= -2.3333\ngini = 0.4444\nsamples = 3\nvalue = [2, 1]"] ;
809 -> 811 ;
812 [label="gini = 0.0\nsamples = 2\nvalue = [2, 0]"] ;
811 -> 812 ;
813 [label="gini = 0.0\nsamples = 1\nvalue = [0, 1]"] ;
811 -> 813 ;
814 [label="Close <= 1776.375\ngini = 0.5\nsamples = 6\nvalue = [3, 3]"] ;
784 -> 814 ;
815 [label="gini = 0.0\nsamples = 3\nvalue = [3, 0]"] ;
814 -> 815 ;
816 [label="gini = 0.0\nsamples = 3\nvalue = [0, 3]"] ;
814 -> 816 ;
817 [label="gini = 0.0\nsamples = 1\nvalue = [0, 1]"] ;
783 -> 817 ;
818 [label="TotalSaleLastThree <= 3583672.5\ngini = 0.1229\nsamples = 365\nvalue = [341, 24]"] ;
782 -> 818 ;
819 [label="IsCallLast <= 0.5\ngini = 0.1184\nsamples = 364\nvalue = [341, 23]"] ;
818 -> 819 ;
820 [label="DaysLateLast <= -4.8333\ngini = 0.1142\nsamples = 362\nvalue = [340, 22]"] ;
819 -> 820 ;
821 [label="DaysLateLast <= -8.8333\ngini = 0.0468\nsamples = 125\nvalue = [122, 3]"] ;
820 -> 821 ;
822 [label="Close <= 1749.52\ngini = 0.2778\nsamples = 6\nvalue = [5, 1]"] ;
821 -> 822 ;
823 [label="gini = 0.0\nsamples = 4\nvalue = [4, 0]"] ;
822 -> 823 ;
824 [label="TotalSaleAvgLast <= 5.0\ngini = 0.5\nsamples = 2\nvalue = [1, 1]"] ;
822 -> 824 ;
825 [label="gini = 0.0\nsamples = 1\nvalue = [0, 1]"] ;
824 -> 825 ;
826 [label="gini = 0.0\nsamples = 1\nvalue = [1, 0]"] ;
824 -> 826 ;
827 [label="TotalSaleLastThree <= 18208.1465\ngini = 0.033\nsamples = 119\nvalue = [117, 2]"] ;
821 -> 827 ;
828 [label="TotalSaleLastThree <= 13662.1592\ngini = 0.2449\nsamples = 7\nvalue = [6, 1]"] ;
827 -> 828 ;
829 [label="gini = 0.0\nsamples = 6\nvalue = [6, 0]"] ;
828 -> 829 ;
830 [label="gini = 0.0\nsamples = 1\nvalue = [0, 1]"] ;
828 -> 830 ;
831 [label="IP <= 106.1236\ngini = 0.0177\nsamples = 112\nvalue = [111, 1]"] ;
827 -> 831 ;
832 [label="gini = 0.0\nsamples = 87\nvalue = [87, 0]"] ;
831 -> 832 ;
833 [label="TotalSaleAvgLast <= 6.5\ngini = 0.0768\nsamples = 25\nvalue = [24, 1]"] ;
831 -> 833 ;
834 [label="DaysLateLastThree <= 935347.0\ngini = 0.2188\nsamples = 8\nvalue = [7, 1]"] ;
833 -> 834 ;
835 [label="gini = 0.0\nsamples = 6\nvalue = [6, 0]"] ;
834 -> 835 ;
836 [label="TotalSaleLastThree <= 198875.4219\ngini = 0.5\nsamples = 2\nvalue = [1, 1]"] ;
834 -> 836 ;
837 [label="gini = 0.0\nsamples = 1\nvalue = [0, 1]"] ;
836 -> 837 ;
838 [label="gini = 0.0\nsamples = 1\nvalue = [1, 0]"] ;
836 -> 838 ;
839 [label="gini = 0.0\nsamples = 17\nvalue = [17, 0]"] ;
833 -> 839 ;
840 [label="TotalSaleLastThree <= 506053.8438\ngini = 0.1475\nsamples = 237\nvalue = [218, 19]"] ;
820 -> 840 ;
841 [label="DaysLateLast <= -3.5\ngini = 0.1374\nsamples = 229\nvalue = [212, 17]"] ;
840 -> 841 ;
842 [label="TotalSaleLastThree <= 241672.2812\ngini = 0.2024\nsamples = 70\nvalue = [62, 8]"] ;
841 -> 842 ;
843 [label="TotalSaleLastThree <= 237836.1719\ngini = 0.2604\nsamples = 52\nvalue = [44, 8]"] ;
842 -> 843 ;
844 [label="Close <= 1423.4551\ngini = 0.2368\nsamples = 51\nvalue = [44, 7]"] ;
843 -> 844 ;
845 [label="TotalSaleLastThree <= 28801.332\ngini = 0.5\nsamples = 4\nvalue = [2, 2]"] ;
844 -> 845 ;
846 [label="gini = 0.0\nsamples = 1\nvalue = [1, 0]"] ;
845 -> 846 ;
847 [label="DaysLateLast <= -4.3333\ngini = 0.4444\nsamples = 3\nvalue = [1, 2]"] ;
845 -> 847 ;
848 [label="gini = 0.0\nsamples = 1\nvalue = [1, 0]"] ;
847 -> 848 ;
849 [label="gini = 0.0\nsamples = 2\nvalue = [0, 2]"] ;
847 -> 849 ;
850 [label="TotalSaleAvgLast <= 24.5\ngini = 0.1901\nsamples = 47\nvalue = [42, 5]"] ;
844 -> 850 ;
851 [label="TotalSaleAvgLast <= 4.5\ngini = 0.0644\nsamples = 30\nvalue = [29, 1]"] ;
850 -> 851 ;
852 [label="DaysLateLastThree <= 502299.6875\ngini = 0.2778\nsamples = 6\nvalue = [5, 1]"] ;
851 -> 852 ;
853 [label="TotalSaleAvgLast <= 3.5\ngini = 0.5\nsamples = 2\nvalue = [1, 1]"] ;
852 -> 853 ;
854 [label="gini = 0.0\nsamples = 1\nvalue = [1, 0]"] ;
853 -> 854 ;
855 [label="gini = 0.0\nsamples = 1\nvalue = [0, 1]"] ;
853 -> 855 ;
856 [label="gini = 0.0\nsamples = 4\nvalue = [4, 0]"] ;
852 -> 856 ;
857 [label="gini = 0.0\nsamples = 24\nvalue = [24, 0]"] ;
851 -> 857 ;
858 [label="TotalSaleAvgLast <= 30.0\ngini = 0.3599\nsamples = 17\nvalue = [13, 4]"] ;
850 -> 858 ;
859 [label="Close <= 1705.905\ngini = 0.375\nsamples = 4\nvalue = [1, 3]"] ;
858 -> 859 ;
860 [label="gini = 0.0\nsamples = 1\nvalue = [1, 0]"] ;
859 -> 860 ;
861 [label="gini = 0.0\nsamples = 3\nvalue = [0, 3]"] ;
859 -> 861 ;
862 [label="DaysLateLast <= -4.5\ngini = 0.142\nsamples = 13\nvalue = [12, 1]"] ;
858 -> 862 ;
863 [label="gini = 0.0\nsamples = 1\nvalue = [0, 1]"] ;
862 -> 863 ;
864 [label="gini = 0.0\nsamples = 12\nvalue = [12, 0]"] ;
862 -> 864 ;
865 [label="gini = 0.0\nsamples = 1\nvalue = [0, 1]"] ;
843 -> 865 ;
866 [label="gini = 0.0\nsamples = 18\nvalue = [18, 0]"] ;
842 -> 866 ;
867 [label="TotalSaleLastThree <= 93491.0625\ngini = 0.1068\nsamples = 159\nvalue = [150, 9]"] ;
841 -> 867 ;
868 [label="gini = 0.0\nsamples = 53\nvalue = [53, 0]"] ;
867 -> 868 ;
869 [label="TotalSaleLastThree <= 95515.2812\ngini = 0.1554\nsamples = 106\nvalue = [97, 9]"] ;
867 -> 869 ;
870 [label="gini = 0.0\nsamples = 1\nvalue = [0, 1]"] ;
869 -> 870 ;
871 [label="TotalSaleLastThree <= 103025.9219\ngini = 0.1408\nsamples = 105\nvalue = [97, 8]"] ;
869 -> 871 ;
872 [label="IP <= 105.2619\ngini = 0.4082\nsamples = 7\nvalue = [5, 2]"] ;
871 -> 872 ;
873 [label="gini = 0.0\nsamples = 1\nvalue = [0, 1]"] ;
872 -> 873 ;
874 [label="TotalSaleLastThree <= 100491.3203\ngini = 0.2778\nsamples = 6\nvalue = [5, 1]"] ;
872 -> 874 ;
875 [label="gini = 0.0\nsamples = 5\nvalue = [5, 0]"] ;
874 -> 875 ;
876 [label="gini = 0.0\nsamples = 1\nvalue = [0, 1]"] ;
874 -> 876 ;
877 [label="DaysLateLastThree <= 1905894.375\ngini = 0.115\nsamples = 98\nvalue = [92, 6]"] ;
871 -> 877 ;
878 [label="TotalSaleLastThree <= 250584.9062\ngini = 0.2055\nsamples = 43\nvalue = [38, 5]"] ;
877 -> 878 ;
879 [label="TotalSaleAvgLast <= 10.5\ngini = 0.1049\nsamples = 36\nvalue = [34, 2]"] ;
878 -> 879 ;
880 [label="gini = 0.0\nsamples = 28\nvalue = [28, 0]"] ;
879 -> 880 ;
881 [label="DaysLateLastThree <= 1197487.5\ngini = 0.375\nsamples = 8\nvalue = [6, 2]"] ;
879 -> 881 ;
882 [label="gini = 0.0\nsamples = 1\nvalue = [0, 1]"] ;
881 -> 882 ;
883 [label="Close <= 1497.5549\ngini = 0.2449\nsamples = 7\nvalue = [6, 1]"] ;
881 -> 883 ;
884 [label="gini = 0.0\nsamples = 1\nvalue = [0, 1]"] ;
883 -> 884 ;
885 [label="gini = 0.0\nsamples = 6\nvalue = [6, 0]"] ;
883 -> 885 ;
886 [label="IP <= 105.696\ngini = 0.4898\nsamples = 7\nvalue = [4, 3]"] ;
878 -> 886 ;
887 [label="gini = 0.0\nsamples = 3\nvalue = [3, 0]"] ;
886 -> 887 ;
888 [label="TotalSaleAvgLast <= 7.0\ngini = 0.375\nsamples = 4\nvalue = [1, 3]"] ;
886 -> 888 ;
889 [label="gini = 0.0\nsamples = 3\nvalue = [0, 3]"] ;
888 -> 889 ;
890 [label="gini = 0.0\nsamples = 1\nvalue = [1, 0]"] ;
888 -> 890 ;
891 [label="DaysLateLast <= -1.1667\ngini = 0.0357\nsamples = 55\nvalue = [54, 1]"] ;
877 -> 891 ;
892 [label="gini = 0.0\nsamples = 41\nvalue = [41, 0]"] ;
891 -> 892 ;
893 [label="Close <= 1749.52\ngini = 0.1327\nsamples = 14\nvalue = [13, 1]"] ;
891 -> 893 ;
894 [label="gini = 0.0\nsamples = 11\nvalue = [11, 0]"] ;
893 -> 894 ;
895 [label="Close <= 1995.17\ngini = 0.4444\nsamples = 3\nvalue = [2, 1]"] ;
893 -> 895 ;
896 [label="gini = 0.0\nsamples = 1\nvalue = [0, 1]"] ;
895 -> 896 ;
897 [label="gini = 0.0\nsamples = 2\nvalue = [2, 0]"] ;
895 -> 897 ;
898 [label="TotalSaleLastThree <= 522807.625\ngini = 0.375\nsamples = 8\nvalue = [6, 2]"] ;
840 -> 898 ;
899 [label="gini = 0.0\nsamples = 1\nvalue = [0, 1]"] ;
898 -> 899 ;
900 [label="DaysLateLastThree <= 4062883.5\ngini = 0.2449\nsamples = 7\nvalue = [6, 1]"] ;
898 -> 900 ;
901 [label="gini = 0.0\nsamples = 1\nvalue = [0, 1]"] ;
900 -> 901 ;
902 [label="gini = 0.0\nsamples = 6\nvalue = [6, 0]"] ;
900 -> 902 ;
903 [label="TotalSaleAvgLast <= 11.0\ngini = 0.5\nsamples = 2\nvalue = [1, 1]"] ;
819 -> 903 ;
904 [label="gini = 0.0\nsamples = 1\nvalue = [0, 1]"] ;
903 -> 904 ;
905 [label="gini = 0.0\nsamples = 1\nvalue = [1, 0]"] ;
903 -> 905 ;
906 [label="gini = 0.0\nsamples = 1\nvalue = [0, 1]"] ;
818 -> 906 ;
907 [label="TotalSaleAvgLast <= 0.5\ngini = 0.3433\nsamples = 2981\nvalue = [2325, 656]"] ;
1 -> 907 ;
908 [label="Close <= 1273.4299\ngini = 0.4995\nsamples = 221\nvalue = [114, 107]"] ;
907 -> 908 ;
909 [label="IP <= 92.5134\ngini = 0.4475\nsamples = 145\nvalue = [96, 49]"] ;
908 -> 909 ;
910 [label="TotalSaleLastThree <= 6625.0\ngini = 0.4995\nsamples = 31\nvalue = [15, 16]"] ;
909 -> 910 ;
911 [label="DaysLateLast <= 2.5\ngini = 0.4444\nsamples = 24\nvalue = [8, 16]"] ;
910 -> 911 ;
912 [label="Close <= 1100.0601\ngini = 0.4234\nsamples = 23\nvalue = [7, 16]"] ;
911 -> 912 ;
913 [label="DaysLateLast <= 0.8333\ngini = 0.4444\nsamples = 21\nvalue = [7, 14]"] ;
912 -> 913 ;
914 [label="IP <= 91.7061\ngini = 0.455\nsamples = 20\nvalue = [7, 13]"] ;
913 -> 914 ;
915 [label="Close <= 811.875\ngini = 0.4861\nsamples = 12\nvalue = [5, 7]"] ;
914 -> 915 ;
916 [label="IP <= 90.2176\ngini = 0.375\nsamples = 4\nvalue = [1, 3]"] ;
915 -> 916 ;
917 [label="gini = 0.0\nsamples = 1\nvalue = [0, 1]"] ;
916 -> 917 ;
918 [label="gini = 0.4444\nsamples = 3\nvalue = [1, 2]"] ;
916 -> 918 ;
919 [label="Close <= 923.25\ngini = 0.5\nsamples = 8\nvalue = [4, 4]"] ;
915 -> 919 ;
920 [label="gini = 0.5\nsamples = 4\nvalue = [2, 2]"] ;
919 -> 920 ;
921 [label="Close <= 1058.125\ngini = 0.5\nsamples = 4\nvalue = [2, 2]"] ;
919 -> 921 ;
922 [label="gini = 0.5\nsamples = 2\nvalue = [1, 1]"] ;
921 -> 922 ;
923 [label="gini = 0.5\nsamples = 2\nvalue = [1, 1]"] ;
921 -> 923 ;
924 [label="gini = 0.375\nsamples = 8\nvalue = [2, 6]"] ;
914 -> 924 ;
925 [label="gini = 0.0\nsamples = 1\nvalue = [0, 1]"] ;
913 -> 925 ;
926 [label="gini = 0.0\nsamples = 2\nvalue = [0, 2]"] ;
912 -> 926 ;
927 [label="gini = 0.0\nsamples = 1\nvalue = [1, 0]"] ;
911 -> 927 ;
928 [label="gini = 0.0\nsamples = 7\nvalue = [7, 0]"] ;
910 -> 928 ;
929 [label="IP <= 102.3376\ngini = 0.4114\nsamples = 114\nvalue = [81, 33]"] ;
909 -> 929 ;
930 [label="Close <= 1215.11\ngini = 0.3911\nsamples = 105\nvalue = [77, 28]"] ;
929 -> 930 ;
931 [label="Close <= 1040.02\ngini = 0.1528\nsamples = 12\nvalue = [11, 1]"] ;
930 -> 931 ;
932 [label="IP <= 95.695\ngini = 0.4444\nsamples = 3\nvalue = [2, 1]"] ;
931 -> 932 ;
933 [label="gini = 0.5\nsamples = 2\nvalue = [1, 1]"] ;
932 -> 933 ;
934 [label="gini = 0.0\nsamples = 1\nvalue = [1, 0]"] ;
932 -> 934 ;
935 [label="gini = 0.0\nsamples = 9\nvalue = [9, 0]"] ;
931 -> 935 ;
936 [label="IP <= 100.217\ngini = 0.4121\nsamples = 93\nvalue = [66, 27]"] ;
930 -> 936 ;
937 [label="gini = 0.0\nsamples = 1\nvalue = [0, 1]"] ;
936 -> 937 ;
938 [label="gini = 0.4055\nsamples = 92\nvalue = [66, 26]"] ;
936 -> 938 ;
939 [label="DaysLateLast <= 3.3333\ngini = 0.4938\nsamples = 9\nvalue = [4, 5]"] ;
929 -> 939 ;
940 [label="gini = 0.5\nsamples = 8\nvalue = [4, 4]"] ;
939 -> 940 ;
941 [label="gini = 0.0\nsamples = 1\nvalue = [0, 1]"] ;
939 -> 941 ;
942 [label="DaysLateLastThree <= 885327.875\ngini = 0.3615\nsamples = 76\nvalue = [18, 58]"] ;
908 -> 942 ;
943 [label="IP <= 103.0342\ngini = 0.2744\nsamples = 67\nvalue = [11, 56]"] ;
942 -> 943 ;
944 [label="IP <= 96.2197\ngini = 0.1388\nsamples = 40\nvalue = [3, 37]"] ;
943 -> 944 ;
945 [label="gini = 0.0\nsamples = 1\nvalue = [1, 0]"] ;
944 -> 945 ;
946 [label="Close <= 1506.395\ngini = 0.0973\nsamples = 39\nvalue = [2, 37]"] ;
944 -> 946 ;
947 [label="gini = 0.0\nsamples = 29\nvalue = [0, 29]"] ;
946 -> 947 ;
948 [label="IP <= 101.5399\ngini = 0.32\nsamples = 10\nvalue = [2, 8]"] ;
946 -> 948 ;
949 [label="gini = 0.0\nsamples = 1\nvalue = [1, 0]"] ;
948 -> 949 ;
950 [label="Close <= 1618.51\ngini = 0.1975\nsamples = 9\nvalue = [1, 8]"] ;
948 -> 950 ;
951 [label="Close <= 1587.735\ngini = 0.4444\nsamples = 3\nvalue = [1, 2]"] ;
950 -> 951 ;
952 [label="gini = 0.0\nsamples = 1\nvalue = [0, 1]"] ;
951 -> 952 ;
953 [label="gini = 0.5\nsamples = 2\nvalue = [1, 1]"] ;
951 -> 953 ;
954 [label="gini = 0.0\nsamples = 6\nvalue = [0, 6]"] ;
950 -> 954 ;
955 [label="IP <= 103.4723\ngini = 0.417\nsamples = 27\nvalue = [8, 19]"] ;
943 -> 955 ;
956 [label="Close <= 1648.845\ngini = 0.2778\nsamples = 6\nvalue = [5, 1]"] ;
955 -> 956 ;
957 [label="gini = 0.0\nsamples = 4\nvalue = [4, 0]"] ;
956 -> 957 ;
958 [label="gini = 0.5\nsamples = 2\nvalue = [1, 1]"] ;
956 -> 958 ;
959 [label="IP <= 105.6865\ngini = 0.2449\nsamples = 21\nvalue = [3, 18]"] ;
955 -> 959 ;
960 [label="Close <= 1492.86\ngini = 0.18\nsamples = 20\nvalue = [2, 18]"] ;
959 -> 960 ;
961 [label="gini = 0.0\nsamples = 14\nvalue = [0, 14]"] ;
960 -> 961 ;
962 [label="Close <= 1766.995\ngini = 0.4444\nsamples = 6\nvalue = [2, 4]"] ;
960 -> 962 ;
963 [label="Close <= 1516.985\ngini = 0.5\nsamples = 4\nvalue = [2, 2]"] ;
962 -> 963 ;
964 [label="gini = 0.5\nsamples = 2\nvalue = [1, 1]"] ;
963 -> 964 ;
965 [label="gini = 0.5\nsamples = 2\nvalue = [1, 1]"] ;
963 -> 965 ;
966 [label="gini = 0.0\nsamples = 2\nvalue = [0, 2]"] ;
962 -> 966 ;
967 [label="gini = 0.0\nsamples = 1\nvalue = [1, 0]"] ;
959 -> 967 ;
968 [label="IsCallLast <= 0.5\ngini = 0.3457\nsamples = 9\nvalue = [7, 2]"] ;
942 -> 968 ;
969 [label="gini = 0.0\nsamples = 6\nvalue = [6, 0]"] ;
968 -> 969 ;
970 [label="IP <= 102.6982\ngini = 0.4444\nsamples = 3\nvalue = [1, 2]"] ;
968 -> 970 ;
971 [label="gini = 0.0\nsamples = 2\nvalue = [0, 2]"] ;
970 -> 971 ;
972 [label="gini = 0.0\nsamples = 1\nvalue = [1, 0]"] ;
970 -> 972 ;
973 [label="DaysLateLast <= 4.1667\ngini = 0.3187\nsamples = 2760\nvalue = [2211, 549]"] ;
907 -> 973 ;
974 [label="IsCallLast <= 0.5\ngini = 0.2608\nsamples = 1706\nvalue = [1443, 263]"] ;
973 -> 974 ;
975 [label="DaysLateLast <= 1.8333\ngini = 0.2446\nsamples = 1556\nvalue = [1334, 222]"] ;
974 -> 975 ;
976 [label="TotalSaleLastThree <= 1776944.75\ngini = 0.2041\nsamples = 841\nvalue = [744, 97]"] ;
975 -> 976 ;
977 [label="DaysLateLastThree <= 3034929.5\ngini = 0.1967\nsamples = 832\nvalue = [740, 92]"] ;
976 -> 977 ;
978 [label="DaysLateLastThree <= 2916186.0\ngini = 0.2204\nsamples = 579\nvalue = [506, 73]"] ;
977 -> 978 ;
979 [label="TotalSaleLastThree <= 1273008.25\ngini = 0.2098\nsamples = 571\nvalue = [503, 68]"] ;
978 -> 979 ;
980 [label="Close <= 1174.99\ngini = 0.2057\nsamples = 567\nvalue = [501, 66]"] ;
979 -> 980 ;
981 [label="DaysLateLastThree <= 1270913.125\ngini = 0.1244\nsamples = 150\nvalue = [140, 10]"] ;
980 -> 981 ;
982 [label="DaysLateLastThree <= 311317.8125\ngini = 0.0883\nsamples = 108\nvalue = [103, 5]"] ;
981 -> 982 ;
983 [label="DaysLateLastThree <= 280686.1875\ngini = 0.213\nsamples = 33\nvalue = [29, 4]"] ;
982 -> 983 ;
984 [label="DaysLateLastThree <= 226738.1562\ngini = 0.0689\nsamples = 28\nvalue = [27, 1]"] ;
983 -> 984 ;
985 [label="gini = 0.0\nsamples = 21\nvalue = [21, 0]"] ;
984 -> 985 ;
986 [label="DaysLateLastThree <= 228898.3438\ngini = 0.2449\nsamples = 7\nvalue = [6, 1]"] ;
984 -> 986 ;
987 [label="gini = 0.0\nsamples = 1\nvalue = [0, 1]"] ;
986 -> 987 ;
988 [label="gini = 0.0\nsamples = 6\nvalue = [6, 0]"] ;
986 -> 988 ;
989 [label="Close <= 966.98\ngini = 0.48\nsamples = 5\nvalue = [2, 3]"] ;
983 -> 989 ;
990 [label="gini = 0.0\nsamples = 2\nvalue = [2, 0]"] ;
989 -> 990 ;
991 [label="gini = 0.0\nsamples = 3\nvalue = [0, 3]"] ;
989 -> 991 ;
992 [label="Close <= 849.345\ngini = 0.0263\nsamples = 75\nvalue = [74, 1]"] ;
982 -> 992 ;
993 [label="TotalSaleAvgLast <= 3.5\ngini = 0.18\nsamples = 10\nvalue = [9, 1]"] ;
992 -> 993 ;
994 [label="gini = 0.0\nsamples = 7\nvalue = [7, 0]"] ;
993 -> 994 ;
995 [label="TotalSaleAvgLast <= 9.5\ngini = 0.4444\nsamples = 3\nvalue = [2, 1]"] ;
993 -> 995 ;
996 [label="gini = 0.0\nsamples = 1\nvalue = [0, 1]"] ;
995 -> 996 ;
997 [label="gini = 0.0\nsamples = 2\nvalue = [2, 0]"] ;
995 -> 997 ;
998 [label="gini = 0.0\nsamples = 65\nvalue = [65, 0]"] ;
992 -> 998 ;
999 [label="TotalSaleAvgLast <= 1.5\ngini = 0.2098\nsamples = 42\nvalue = [37, 5]"] ;
981 -> 999 ;
1000 [label="gini = 0.0\nsamples = 2\nvalue = [0, 2]"] ;
999 -> 1000 ;
1001 [label="DaysLateLastThree <= 1296700.0\ngini = 0.1388\nsamples = 40\nvalue = [37, 3]"] ;
999 -> 1001 ;
1002 [label="gini = 0.0\nsamples = 1\nvalue = [0, 1]"] ;
1001 -> 1002 ;
1003 [label="IP <= 89.0027\ngini = 0.0973\nsamples = 39\nvalue = [37, 2]"] ;
1001 -> 1003 ;
1004 [label="TotalSaleAvgLast <= 18.0\ngini = 0.4444\nsamples = 3\nvalue = [2, 1]"] ;
1003 -> 1004 ;
1005 [label="gini = 0.0\nsamples = 1\nvalue = [0, 1]"] ;
1004 -> 1005 ;
1006 [label="gini = 0.0\nsamples = 2\nvalue = [2, 0]"] ;
1004 -> 1006 ;
1007 [label="Close <= 1109.7949\ngini = 0.054\nsamples = 36\nvalue = [35, 1]"] ;
1003 -> 1007 ;
1008 [label="gini = 0.0\nsamples = 26\nvalue = [26, 0]"] ;
1007 -> 1008 ;
1009 [label="Close <= 1123.26\ngini = 0.18\nsamples = 10\nvalue = [9, 1]"] ;
1007 -> 1009 ;
1010 [label="TotalSaleAvgLast <= 13.5\ngini = 0.4444\nsamples = 3\nvalue = [2, 1]"] ;
1009 -> 1010 ;
1011 [label="gini = 0.0\nsamples = 1\nvalue = [1, 0]"] ;
1010 -> 1011 ;
1012 [label="DaysLateLastThree <= 1829336.375\ngini = 0.5\nsamples = 2\nvalue = [1, 1]"] ;
1010 -> 1012 ;
1013 [label="gini = 0.0\nsamples = 1\nvalue = [1, 0]"] ;
1012 -> 1013 ;
1014 [label="gini = 0.0\nsamples = 1\nvalue = [0, 1]"] ;
1012 -> 1014 ;
1015 [label="gini = 0.0\nsamples = 7\nvalue = [7, 0]"] ;
1009 -> 1015 ;
1016 [label="DaysLateLastThree <= 141971.5312\ngini = 0.2325\nsamples = 417\nvalue = [361, 56]"] ;
980 -> 1016 ;
1017 [label="Close <= 1382.455\ngini = 0.4132\nsamples = 24\nvalue = [17, 7]"] ;
1016 -> 1017 ;
1018 [label="DaysLateLast <= 1.1667\ngini = 0.1327\nsamples = 14\nvalue = [13, 1]"] ;
1017 -> 1018 ;
1019 [label="gini = 0.0\nsamples = 10\nvalue = [10, 0]"] ;
1018 -> 1019 ;
1020 [label="TotalSaleLastThree <= 17063.332\ngini = 0.375\nsamples = 4\nvalue = [3, 1]"] ;
1018 -> 1020 ;
1021 [label="gini = 0.0\nsamples = 2\nvalue = [2, 0]"] ;
1020 -> 1021 ;
1022 [label="IP <= 99.0263\ngini = 0.5\nsamples = 2\nvalue = [1, 1]"] ;
1020 -> 1022 ;
1023 [label="gini = 0.0\nsamples = 1\nvalue = [0, 1]"] ;
1022 -> 1023 ;
1024 [label="gini = 0.0\nsamples = 1\nvalue = [1, 0]"] ;
1022 -> 1024 ;
1025 [label="DaysLateLastThree <= 57770.3086\ngini = 0.48\nsamples = 10\nvalue = [4, 6]"] ;
1017 -> 1025 ;
1026 [label="Close <= 1406.27\ngini = 0.32\nsamples = 5\nvalue = [4, 1]"] ;
1025 -> 1026 ;
1027 [label="gini = 0.0\nsamples = 1\nvalue = [0, 1]"] ;
1026 -> 1027 ;
1028 [label="gini = 0.0\nsamples = 4\nvalue = [4, 0]"] ;
1026 -> 1028 ;
1029 [label="gini = 0.0\nsamples = 5\nvalue = [0, 5]"] ;
1025 -> 1029 ;
1030 [label="TotalSaleLastThree <= 62816.3125\ngini = 0.2183\nsamples = 393\nvalue = [344, 49]"] ;
1016 -> 1030 ;
1031 [label="IP <= 96.4621\ngini = 0.0655\nsamples = 59\nvalue = [57, 2]"] ;
1030 -> 1031 ;
1032 [label="IP <= 96.2197\ngini = 0.4444\nsamples = 6\nvalue = [4, 2]"] ;
1031 -> 1032 ;
1033 [label="gini = 0.0\nsamples = 4\nvalue = [4, 0]"] ;
1032 -> 1033 ;
1034 [label="gini = 0.0\nsamples = 2\nvalue = [0, 2]"] ;
1032 -> 1034 ;
1035 [label="gini = 0.0\nsamples = 53\nvalue = [53, 0]"] ;
1031 -> 1035 ;
1036 [label="TotalSaleLastThree <= 71967.4844\ngini = 0.2418\nsamples = 334\nvalue = [287, 47]"] ;
1030 -> 1036 ;
1037 [label="DaysLateLastThree <= 766545.25\ngini = 0.455\nsamples = 20\nvalue = [13, 7]"] ;
1036 -> 1037 ;
1038 [label="TotalSaleLastThree <= 71600.4688\ngini = 0.18\nsamples = 10\nvalue = [9, 1]"] ;
1037 -> 1038 ;
1039 [label="gini = 0.0\nsamples = 9\nvalue = [9, 0]"] ;
1038 -> 1039 ;
1040 [label="gini = 0.0\nsamples = 1\nvalue = [0, 1]"] ;
1038 -> 1040 ;
1041 [label="DaysLateLastThree <= 1406226.25\ngini = 0.48\nsamples = 10\nvalue = [4, 6]"] ;
1037 -> 1041 ;
1042 [label="gini = 0.0\nsamples = 4\nvalue = [0, 4]"] ;
1041 -> 1042 ;
1043 [label="Close <= 1242.1851\ngini = 0.4444\nsamples = 6\nvalue = [4, 2]"] ;
1041 -> 1043 ;
1044 [label="gini = 0.0\nsamples = 1\nvalue = [0, 1]"] ;
1043 -> 1044 ;
1045 [label="Close <= 1753.36\ngini = 0.32\nsamples = 5\nvalue = [4, 1]"] ;
1043 -> 1045 ;
1046 [label="gini = 0.0\nsamples = 4\nvalue = [4, 0]"] ;
1045 -> 1046 ;
1047 [label="gini = 0.0\nsamples = 1\nvalue = [0, 1]"] ;
1045 -> 1047 ;
1048 [label="TotalSaleLastThree <= 93541.5703\ngini = 0.2223\nsamples = 314\nvalue = [274, 40]"] ;
1036 -> 1048 ;
1049 [label="TotalSaleAvgLast <= 2.0\ngini = 0.0981\nsamples = 58\nvalue = [55, 3]"] ;
1048 -> 1049 ;
1050 [label="gini = 0.0\nsamples = 1\nvalue = [0, 1]"] ;
1049 -> 1050 ;
1051 [label="Close <= 1966.26\ngini = 0.0677\nsamples = 57\nvalue = [55, 2]"] ;
1049 -> 1051 ;
1052 [label="DaysLateLastThree <= 2783395.0\ngini = 0.0351\nsamples = 56\nvalue = [55, 1]"] ;
1051 -> 1052 ;
1053 [label="gini = 0.0\nsamples = 53\nvalue = [53, 0]"] ;
1052 -> 1053 ;
1054 [label="DaysLateLast <= 1.1667\ngini = 0.4444\nsamples = 3\nvalue = [2, 1]"] ;
1052 -> 1054 ;
1055 [label="gini = 0.0\nsamples = 2\nvalue = [2, 0]"] ;
1054 -> 1055 ;
1056 [label="gini = 0.0\nsamples = 1\nvalue = [0, 1]"] ;
1054 -> 1056 ;
1057 [label="gini = 0.0\nsamples = 1\nvalue = [0, 1]"] ;
1051 -> 1057 ;
1058 [label="TotalSaleLastThree <= 214512.5\ngini = 0.2473\nsamples = 256\nvalue = [219, 37]"] ;
1048 -> 1058 ;
1059 [label="TotalSaleLastThree <= 170525.5938\ngini = 0.3275\nsamples = 126\nvalue = [100, 26]"] ;
1058 -> 1059 ;
1060 [label="IP <= 95.8557\ngini = 0.2682\nsamples = 94\nvalue = [79, 15]"] ;
1059 -> 1060 ;
1061 [label="gini = 0.0\nsamples = 2\nvalue = [0, 2]"] ;
1060 -> 1061 ;
1062 [label="TotalSaleLastThree <= 93733.0156\ngini = 0.2427\nsamples = 92\nvalue = [79, 13]"] ;
1060 -> 1062 ;
1063 [label="gini = 0.0\nsamples = 1\nvalue = [0, 1]"] ;
1062 -> 1063 ;
1064 [label="TotalSaleLastThree <= 117022.3203\ngini = 0.229\nsamples = 91\nvalue = [79, 12]"] ;
1062 -> 1064 ;
1065 [label="TotalSaleLastThree <= 111326.3828\ngini = 0.3427\nsamples = 41\nvalue = [32, 9]"] ;
1064 -> 1065 ;
1066 [label="DaysLateLastThree <= 474358.1562\ngini = 0.2449\nsamples = 35\nvalue = [30, 5]"] ;
1065 -> 1066 ;
1067 [label="IP <= 103.1649\ngini = 0.48\nsamples = 5\nvalue = [2, 3]"] ;
1066 -> 1067 ;
1068 [label="gini = 0.0\nsamples = 2\nvalue = [0, 2]"] ;
1067 -> 1068 ;
1069 [label="TotalSaleAvgLast <= 5.0\ngini = 0.4444\nsamples = 3\nvalue = [2, 1]"] ;
1067 -> 1069 ;
1070 [label="gini = 0.0\nsamples = 2\nvalue = [2, 0]"] ;
1069 -> 1070 ;
1071 [label="gini = 0.0\nsamples = 1\nvalue = [0, 1]"] ;
1069 -> 1071 ;
1072 [label="DaysLateLast <= 1.5\ngini = 0.1244\nsamples = 30\nvalue = [28, 2]"] ;
1066 -> 1072 ;
1073 [label="gini = 0.0\nsamples = 24\nvalue = [24, 0]"] ;
1072 -> 1073 ;
1074 [label="Close <= 1427.21\ngini = 0.4444\nsamples = 6\nvalue = [4, 2]"] ;
1072 -> 1074 ;
1075 [label="TotalSaleLastThree <= 103898.6562\ngini = 0.4444\nsamples = 3\nvalue = [1, 2]"] ;
1074 -> 1075 ;
1076 [label="gini = 0.0\nsamples = 2\nvalue = [0, 2]"] ;
1075 -> 1076 ;
1077 [label="gini = 0.0\nsamples = 1\nvalue = [1, 0]"] ;
1075 -> 1077 ;
1078 [label="gini = 0.0\nsamples = 3\nvalue = [3, 0]"] ;
1074 -> 1078 ;
1079 [label="IP <= 99.7484\ngini = 0.4444\nsamples = 6\nvalue = [2, 4]"] ;
1065 -> 1079 ;
1080 [label="TotalSaleLastThree <= 112743.9688\ngini = 0.4444\nsamples = 3\nvalue = [2, 1]"] ;
1079 -> 1080 ;
1081 [label="gini = 0.0\nsamples = 1\nvalue = [0, 1]"] ;
1080 -> 1081 ;
1082 [label="gini = 0.0\nsamples = 2\nvalue = [2, 0]"] ;
1080 -> 1082 ;
1083 [label="gini = 0.0\nsamples = 3\nvalue = [0, 3]"] ;
1079 -> 1083 ;
1084 [label="Close <= 1307.075\ngini = 0.1128\nsamples = 50\nvalue = [47, 3]"] ;
1064 -> 1084 ;
1085 [label="IP <= 102.6707\ngini = 0.3967\nsamples = 11\nvalue = [8, 3]"] ;
1084 -> 1085 ;
1086 [label="TotalSaleLastThree <= 160301.0\ngini = 0.32\nsamples = 10\nvalue = [8, 2]"] ;
1085 -> 1086 ;
1087 [label="IP <= 98.3453\ngini = 0.1975\nsamples = 9\nvalue = [8, 1]"] ;
1086 -> 1087 ;
1088 [label="gini = 0.0\nsamples = 6\nvalue = [6, 0]"] ;
1087 -> 1088 ;
1089 [label="IP <= 98.5417\ngini = 0.4444\nsamples = 3\nvalue = [2, 1]"] ;
1087 -> 1089 ;
1090 [label="gini = 0.0\nsamples = 1\nvalue = [0, 1]"] ;
1089 -> 1090 ;
1091 [label="gini = 0.0\nsamples = 2\nvalue = [2, 0]"] ;
1089 -> 1091 ;
1092 [label="gini = 0.0\nsamples = 1\nvalue = [0, 1]"] ;
1086 -> 1092 ;
1093 [label="gini = 0.0\nsamples = 1\nvalue = [0, 1]"] ;
1085 -> 1093 ;
1094 [label="gini = 0.0\nsamples = 39\nvalue = [39, 0]"] ;
1084 -> 1094 ;
1095 [label="DaysLateLastThree <= 1015920.375\ngini = 0.4512\nsamples = 32\nvalue = [21, 11]"] ;
1059 -> 1095 ;
1096 [label="TotalSaleAvgLast <= 1.5\ngini = 0.42\nsamples = 10\nvalue = [3, 7]"] ;
1095 -> 1096 ;
1097 [label="gini = 0.0\nsamples = 3\nvalue = [3, 0]"] ;
1096 -> 1097 ;
1098 [label="gini = 0.0\nsamples = 7\nvalue = [0, 7]"] ;
1096 -> 1098 ;
1099 [label="TotalSaleAvgLast <= 14.0\ngini = 0.2975\nsamples = 22\nvalue = [18, 4]"] ;
1095 -> 1099 ;
1100 [label="DaysLateLastThree <= 1445404.75\ngini = 0.2449\nsamples = 21\nvalue = [18, 3]"] ;
1099 -> 1100 ;
1101 [label="gini = 0.0\nsamples = 10\nvalue = [10, 0]"] ;
1100 -> 1101 ;
1102 [label="DaysLateLastThree <= 1766405.375\ngini = 0.3967\nsamples = 11\nvalue = [8, 3]"] ;
1100 -> 1102 ;
1103 [label="TotalSaleLastThree <= 188032.6875\ngini = 0.375\nsamples = 4\nvalue = [1, 3]"] ;
1102 -> 1103 ;
1104 [label="gini = 0.0\nsamples = 1\nvalue = [1, 0]"] ;
1103 -> 1104 ;
1105 [label="gini = 0.0\nsamples = 3\nvalue = [0, 3]"] ;
1103 -> 1105 ;
1106 [label="gini = 0.0\nsamples = 7\nvalue = [7, 0]"] ;
1102 -> 1106 ;
1107 [label="gini = 0.0\nsamples = 1\nvalue = [0, 1]"] ;
1099 -> 1107 ;
1108 [label="Close <= 1490.24\ngini = 0.1549\nsamples = 130\nvalue = [119, 11]"] ;
1058 -> 1108 ;
1109 [label="Close <= 1414.17\ngini = 0.2231\nsamples = 86\nvalue = [75, 11]"] ;
1108 -> 1109 ;
1110 [label="DaysLateLastThree <= 2773052.75\ngini = 0.1362\nsamples = 68\nvalue = [63, 5]"] ;
1109 -> 1110 ;
1111 [label="DaysLateLast <= 0.5\ngini = 0.1123\nsamples = 67\nvalue = [63, 4]"] ;
1110 -> 1111 ;
1112 [label="IP <= 99.1683\ngini = 0.2778\nsamples = 24\nvalue = [20, 4]"] ;
1111 -> 1112 ;
1113 [label="gini = 0.0\nsamples = 10\nvalue = [10, 0]"] ;
1112 -> 1113 ;
1114 [label="IP <= 99.8392\ngini = 0.4082\nsamples = 14\nvalue = [10, 4]"] ;
1112 -> 1114 ;
1115 [label="gini = 0.0\nsamples = 2\nvalue = [0, 2]"] ;
1114 -> 1115 ;
1116 [label="TotalSaleLastThree <= 264804.8125\ngini = 0.2778\nsamples = 12\nvalue = [10, 2]"] ;
1114 -> 1116 ;
1117 [label="gini = 0.0\nsamples = 7\nvalue = [7, 0]"] ;
1116 -> 1117 ;
1118 [label="TotalSaleAvgLast <= 4.5\ngini = 0.48\nsamples = 5\nvalue = [3, 2]"] ;
1116 -> 1118 ;
1119 [label="gini = 0.0\nsamples = 2\nvalue = [2, 0]"] ;
1118 -> 1119 ;
1120 [label="TotalSaleLastThree <= 703273.625\ngini = 0.4444\nsamples = 3\nvalue = [1, 2]"] ;
1118 -> 1120 ;
1121 [label="gini = 0.0\nsamples = 2\nvalue = [0, 2]"] ;
1120 -> 1121 ;
1122 [label="gini = 0.0\nsamples = 1\nvalue = [1, 0]"] ;
1120 -> 1122 ;
1123 [label="gini = 0.0\nsamples = 43\nvalue = [43, 0]"] ;
1111 -> 1123 ;
1124 [label="gini = 0.0\nsamples = 1\nvalue = [0, 1]"] ;
1110 -> 1124 ;
1125 [label="TotalSaleLastThree <= 602366.625\ngini = 0.4444\nsamples = 18\nvalue = [12, 6]"] ;
1109 -> 1125 ;
1126 [label="IP <= 105.1062\ngini = 0.375\nsamples = 16\nvalue = [12, 4]"] ;
1125 -> 1126 ;
1127 [label="DaysLateLastThree <= 1777543.875\ngini = 0.4938\nsamples = 9\nvalue = [5, 4]"] ;
1126 -> 1127 ;
1128 [label="TotalSaleLastThree <= 368797.5\ngini = 0.4082\nsamples = 7\nvalue = [5, 2]"] ;
1127 -> 1128 ;
1129 [label="gini = 0.0\nsamples = 4\nvalue = [4, 0]"] ;
1128 -> 1129 ;
1130 [label="DaysLateLast <= 1.3333\ngini = 0.4444\nsamples = 3\nvalue = [1, 2]"] ;
1128 -> 1130 ;
1131 [label="gini = 0.0\nsamples = 2\nvalue = [0, 2]"] ;
1130 -> 1131 ;
1132 [label="gini = 0.0\nsamples = 1\nvalue = [1, 0]"] ;
1130 -> 1132 ;
1133 [label="gini = 0.0\nsamples = 2\nvalue = [0, 2]"] ;
1127 -> 1133 ;
1134 [label="gini = 0.0\nsamples = 7\nvalue = [7, 0]"] ;
1126 -> 1134 ;
1135 [label="gini = 0.0\nsamples = 2\nvalue = [0, 2]"] ;
1125 -> 1135 ;
1136 [label="gini = 0.0\nsamples = 44\nvalue = [44, 0]"] ;
1108 -> 1136 ;
1137 [label="TotalSaleAvgLast <= 2.5\ngini = 0.5\nsamples = 4\nvalue = [2, 2]"] ;
979 -> 1137 ;
1138 [label="gini = 0.0\nsamples = 2\nvalue = [2, 0]"] ;
1137 -> 1138 ;
1139 [label="gini = 0.0\nsamples = 2\nvalue = [0, 2]"] ;
1137 -> 1139 ;
1140 [label="TotalSaleLastThree <= 193519.9062\ngini = 0.4688\nsamples = 8\nvalue = [3, 5]"] ;
978 -> 1140 ;
1141 [label="DaysLateLastThree <= 2998142.5\ngini = 0.375\nsamples = 4\nvalue = [3, 1]"] ;
1140 -> 1141 ;
1142 [label="gini = 0.0\nsamples = 3\nvalue = [3, 0]"] ;
1141 -> 1142 ;
1143 [label="gini = 0.0\nsamples = 1\nvalue = [0, 1]"] ;
1141 -> 1143 ;
1144 [label="gini = 0.0\nsamples = 4\nvalue = [0, 4]"] ;
1140 -> 1144 ;
1145 [label="IP <= 100.018\ngini = 0.1389\nsamples = 253\nvalue = [234, 19]"] ;
977 -> 1145 ;
1146 [label="DaysLateLastThree <= 4399081.0\ngini = 0.2221\nsamples = 110\nvalue = [96, 14]"] ;
1145 -> 1146 ;
1147 [label="Close <= 1155.9851\ngini = 0.054\nsamples = 36\nvalue = [35, 1]"] ;
1146 -> 1147 ;
1148 [label="TotalSaleAvgLast <= 25.0\ngini = 0.1975\nsamples = 9\nvalue = [8, 1]"] ;
1147 -> 1148 ;
1149 [label="gini = 0.0\nsamples = 7\nvalue = [7, 0]"] ;
1148 -> 1149 ;
1150 [label="TotalSaleAvgLast <= 39.0\ngini = 0.5\nsamples = 2\nvalue = [1, 1]"] ;
1148 -> 1150 ;
1151 [label="gini = 0.0\nsamples = 1\nvalue = [0, 1]"] ;
1150 -> 1151 ;
1152 [label="gini = 0.0\nsamples = 1\nvalue = [1, 0]"] ;
1150 -> 1152 ;
1153 [label="gini = 0.0\nsamples = 27\nvalue = [27, 0]"] ;
1147 -> 1153 ;
1154 [label="DaysLateLastThree <= 4945245.0\ngini = 0.2896\nsamples = 74\nvalue = [61, 13]"] ;
1146 -> 1154 ;
1155 [label="TotalSaleLastThree <= 124145.375\ngini = 0.4938\nsamples = 9\nvalue = [4, 5]"] ;
1154 -> 1155 ;
1156 [label="gini = 0.0\nsamples = 3\nvalue = [3, 0]"] ;
1155 -> 1156 ;
1157 [label="Close <= 1171.355\ngini = 0.2778\nsamples = 6\nvalue = [1, 5]"] ;
1155 -> 1157 ;
1158 [label="gini = 0.0\nsamples = 1\nvalue = [1, 0]"] ;
1157 -> 1158 ;
1159 [label="gini = 0.0\nsamples = 5\nvalue = [0, 5]"] ;
1157 -> 1159 ;
1160 [label="IP <= 88.0592\ngini = 0.2159\nsamples = 65\nvalue = [57, 8]"] ;
1154 -> 1160 ;
1161 [label="gini = 0.0\nsamples = 1\nvalue = [0, 1]"] ;
1160 -> 1161 ;
1162 [label="Close <= 1354.405\ngini = 0.1948\nsamples = 64\nvalue = [57, 7]"] ;
1160 -> 1162 ;
1163 [label="IP <= 99.6915\ngini = 0.1349\nsamples = 55\nvalue = [51, 4]"] ;
1162 -> 1163 ;
1164 [label="DaysLateLast <= 1.5\ngini = 0.1068\nsamples = 53\nvalue = [50, 3]"] ;
1163 -> 1164 ;
1165 [label="Close <= 1316.525\ngini = 0.0444\nsamples = 44\nvalue = [43, 1]"] ;
1164 -> 1165 ;
1166 [label="gini = 0.0\nsamples = 37\nvalue = [37, 0]"] ;
1165 -> 1166 ;
1167 [label="IP <= 96.849\ngini = 0.2449\nsamples = 7\nvalue = [6, 1]"] ;
1165 -> 1167 ;
1168 [label="gini = 0.0\nsamples = 6\nvalue = [6, 0]"] ;
1167 -> 1168 ;
1169 [label="gini = 0.0\nsamples = 1\nvalue = [0, 1]"] ;
1167 -> 1169 ;
1170 [label="Close <= 1110.415\ngini = 0.3457\nsamples = 9\nvalue = [7, 2]"] ;
1164 -> 1170 ;
1171 [label="Close <= 899.745\ngini = 0.4444\nsamples = 3\nvalue = [1, 2]"] ;
1170 -> 1171 ;
1172 [label="gini = 0.0\nsamples = 1\nvalue = [1, 0]"] ;
1171 -> 1172 ;
1173 [label="gini = 0.0\nsamples = 2\nvalue = [0, 2]"] ;
1171 -> 1173 ;
1174 [label="gini = 0.0\nsamples = 6\nvalue = [6, 0]"] ;
1170 -> 1174 ;
1175 [label="TotalSaleAvgLast <= 60.5\ngini = 0.5\nsamples = 2\nvalue = [1, 1]"] ;
1163 -> 1175 ;
1176 [label="gini = 0.0\nsamples = 1\nvalue = [0, 1]"] ;
1175 -> 1176 ;
1177 [label="gini = 0.0\nsamples = 1\nvalue = [1, 0]"] ;
1175 -> 1177 ;
1178 [label="DaysLateLastThree <= 8813395.0\ngini = 0.4444\nsamples = 9\nvalue = [6, 3]"] ;
1162 -> 1178 ;
