digraph Tree {
node [shape=box] ;
0 [label="X[1] <= 8.4167\ngini = 0.3538\nsamples = 10746\nvalue = [8278, 2468]"] ;
1 [label="X[1] <= -0.1667\ngini = 0.2051\nsamples = 8146\nvalue = [7201, 945]"] ;
0 -> 1 [labeldistance=2.5, labelangle=45, headlabel="True"] ;
2 [label="X[3] <= 105.1535\ngini = 0.1056\nsamples = 5165\nvalue = [4876, 289]"] ;
1 -> 2 ;
3 [label="X[1] <= -14.5\ngini = 0.093\nsamples = 4645\nvalue = [4418, 227]"] ;
2 -> 3 ;
4 [label="X[1] <= -20.6667\ngini = 0.4898\nsamples = 7\nvalue = [4, 3]"] ;
3 -> 4 ;
5 [label="gini = 0.0\nsamples = 4\nvalue = [4, 0]"] ;
4 -> 5 ;
6 [label="gini = 0.0\nsamples = 3\nvalue = [0, 3]"] ;
4 -> 6 ;
7 [label="X[1] <= -1.5833\ngini = 0.0919\nsamples = 4638\nvalue = [4414, 224]"] ;
3 -> 7 ;
8 [label="X[6] <= 610930.0\ngini = 0.0801\nsamples = 3877\nvalue = [3715, 162]"] ;
7 -> 8 ;
9 [label="X[5] <= 260.5\ngini = 0.0755\nsamples = 3689\nvalue = [3544, 145]"] ;
8 -> 9 ;
10 [label="X[3] <= 95.4315\ngini = 0.0743\nsamples = 3675\nvalue = [3533, 142]"] ;
9 -> 10 ;
11 [label="X[5] <= 19.5\ngini = 0.046\nsamples = 892\nvalue = [871, 21]"] ;
10 -> 11 ;
12 [label="X[3] <= 88.5134\ngini = 0.03\nsamples = 788\nvalue = [776, 12]"] ;
11 -> 12 ;
13 [label="X[2] <= 827777.625\ngini = 0.0887\nsamples = 129\nvalue = [123, 6]"] ;
12 -> 13 ;
14 [label="X[2] <= 818416.3125\ngini = 0.1356\nsamples = 82\nvalue = [76, 6]"] ;
13 -> 14 ;
15 [label="X[6] <= 247648.9688\ngini = 0.1158\nsamples = 81\nvalue = [76, 5]"] ;
14 -> 15 ;
16 [label="X[1] <= -2.6667\ngini = 0.0788\nsamples = 73\nvalue = [70, 3]"] ;
15 -> 16 ;
17 [label="X[5] <= 10.5\ngini = 0.0563\nsamples = 69\nvalue = [67, 2]"] ;
16 -> 17 ;
18 [label="X[0] <= 919.23\ngini = 0.0317\nsamples = 62\nvalue = [61, 1]"] ;
17 -> 18 ;
19 [label="X[2] <= 203948.0\ngini = 0.0997\nsamples = 19\nvalue = [18, 1]"] ;
18 -> 19 ;
20 [label="X[6] <= 41642.5\ngini = 0.2778\nsamples = 6\nvalue = [5, 1]"] ;
19 -> 20 ;
21 [label="gini = 0.0\nsamples = 5\nvalue = [5, 0]"] ;
20 -> 21 ;
22 [label="gini = 0.0\nsamples = 1\nvalue = [0, 1]"] ;
20 -> 22 ;
23 [label="gini = 0.0\nsamples = 13\nvalue = [13, 0]"] ;
19 -> 23 ;
24 [label="gini = 0.0\nsamples = 43\nvalue = [43, 0]"] ;
18 -> 24 ;
25 [label="X[6] <= 95011.7891\ngini = 0.2449\nsamples = 7\nvalue = [6, 1]"] ;
17 -> 25 ;
26 [label="gini = 0.0\nsamples = 6\nvalue = [6, 0]"] ;
25 -> 26 ;
27 [label="gini = 0.0\nsamples = 1\nvalue = [0, 1]"] ;
25 -> 27 ;
28 [label="X[5] <= 1.5\ngini = 0.375\nsamples = 4\nvalue = [3, 1]"] ;
16 -> 28 ;
29 [label="gini = 0.0\nsamples = 1\nvalue = [0, 1]"] ;
28 -> 29 ;
30 [label="gini = 0.0\nsamples = 3\nvalue = [3, 0]"] ;
28 -> 30 ;
31 [label="X[6] <= 279129.6562\ngini = 0.375\nsamples = 8\nvalue = [6, 2]"] ;
15 -> 31 ;
32 [label="gini = 0.0\nsamples = 2\nvalue = [0, 2]"] ;
31 -> 32 ;
33 [label="gini = 0.0\nsamples = 6\nvalue = [6, 0]"] ;
31 -> 33 ;
34 [label="gini = 0.0\nsamples = 1\nvalue = [0, 1]"] ;
14 -> 34 ;
35 [label="gini = 0.0\nsamples = 47\nvalue = [47, 0]"] ;
13 -> 35 ;
36 [label="X[5] <= 1.5\ngini = 0.018\nsamples = 659\nvalue = [653, 6]"] ;
12 -> 36 ;
37 [label="X[6] <= 110325.0\ngini = 0.0618\nsamples = 94\nvalue = [91, 3]"] ;
36 -> 37 ;
38 [label="gini = 0.0\nsamples = 50\nvalue = [50, 0]"] ;
37 -> 38 ;
39 [label="X[6] <= 116200.0\ngini = 0.1271\nsamples = 44\nvalue = [41, 3]"] ;
37 -> 39 ;
40 [label="gini = 0.0\nsamples = 1\nvalue = [0, 1]"] ;
39 -> 40 ;
41 [label="X[0] <= 1073.245\ngini = 0.0887\nsamples = 43\nvalue = [41, 2]"] ;
39 -> 41 ;
42 [label="gini = 0.0\nsamples = 23\nvalue = [23, 0]"] ;
41 -> 42 ;
43 [label="X[1] <= -7.8333\ngini = 0.18\nsamples = 20\nvalue = [18, 2]"] ;
41 -> 43 ;
44 [label="X[3] <= 91.8514\ngini = 0.4444\nsamples = 3\nvalue = [2, 1]"] ;
43 -> 44 ;
45 [label="gini = 0.0\nsamples = 1\nvalue = [0, 1]"] ;
44 -> 45 ;
46 [label="gini = 0.0\nsamples = 2\nvalue = [2, 0]"] ;
44 -> 46 ;
47 [label="X[0] <= 1092.52\ngini = 0.1107\nsamples = 17\nvalue = [16, 1]"] ;
43 -> 47 ;
48 [label="X[2] <= 292703.8438\ngini = 0.375\nsamples = 4\nvalue = [3, 1]"] ;
47 -> 48 ;
49 [label="gini = 0.0\nsamples = 1\nvalue = [0, 1]"] ;
48 -> 49 ;
50 [label="gini = 0.0\nsamples = 3\nvalue = [3, 0]"] ;
48 -> 50 ;
51 [label="gini = 0.0\nsamples = 13\nvalue = [13, 0]"] ;
47 -> 51 ;
52 [label="X[1] <= -9.4167\ngini = 0.0106\nsamples = 565\nvalue = [562, 3]"] ;
36 -> 52 ;
53 [label="X[1] <= -9.5833\ngini = 0.142\nsamples = 13\nvalue = [12, 1]"] ;
52 -> 53 ;
54 [label="gini = 0.0\nsamples = 12\nvalue = [12, 0]"] ;
53 -> 54 ;
55 [label="gini = 0.0\nsamples = 1\nvalue = [0, 1]"] ;
53 -> 55 ;
56 [label="X[3] <= 89.0027\ngini = 0.0072\nsamples = 552\nvalue = [550, 2]"] ;
52 -> 56 ;
57 [label="X[1] <= -2.8333\ngini = 0.0588\nsamples = 33\nvalue = [32, 1]"] ;
56 -> 57 ;
58 [label="gini = 0.0\nsamples = 28\nvalue = [28, 0]"] ;
57 -> 58 ;
59 [label="X[2] <= 1111751.0\ngini = 0.32\nsamples = 5\nvalue = [4, 1]"] ;
57 -> 59 ;
60 [label="X[6] <= 96195.2344\ngini = 0.5\nsamples = 2\nvalue = [1, 1]"] ;
59 -> 60 ;
61 [label="gini = 0.0\nsamples = 1\nvalue = [1, 0]"] ;
60 -> 61 ;
62 [label="gini = 0.0\nsamples = 1\nvalue = [0, 1]"] ;
60 -> 62 ;
63 [label="gini = 0.0\nsamples = 3\nvalue = [3, 0]"] ;
59 -> 63 ;
64 [label="X[6] <= 30449.75\ngini = 0.0038\nsamples = 519\nvalue = [518, 1]"] ;
56 -> 64 ;
65 [label="X[6] <= 30172.1641\ngini = 0.0357\nsamples = 55\nvalue = [54, 1]"] ;
64 -> 65 ;
66 [label="gini = 0.0\nsamples = 54\nvalue = [54, 0]"] ;
65 -> 66 ;
67 [label="gini = 0.0\nsamples = 1\nvalue = [0, 1]"] ;
65 -> 67 ;
68 [label="gini = 0.0\nsamples = 464\nvalue = [464, 0]"] ;
64 -> 68 ;
69 [label="X[6] <= 277236.5625\ngini = 0.1581\nsamples = 104\nvalue = [95, 9]"] ;
11 -> 69 ;
70 [label="X[5] <= 24.5\ngini = 0.1139\nsamples = 99\nvalue = [93, 6]"] ;
69 -> 70 ;
71 [label="X[6] <= 232425.1562\ngini = 0.2934\nsamples = 28\nvalue = [23, 5]"] ;
70 -> 71 ;
72 [label="X[1] <= -4.5\ngini = 0.2112\nsamples = 25\nvalue = [22, 3]"] ;
71 -> 72 ;
73 [label="gini = 0.0\nsamples = 12\nvalue = [12, 0]"] ;
72 -> 73 ;
74 [label="X[6] <= 27600.6914\ngini = 0.355\nsamples = 13\nvalue = [10, 3]"] ;
72 -> 74 ;
75 [label="gini = 0.0\nsamples = 1\nvalue = [0, 1]"] ;
74 -> 75 ;
76 [label="X[3] <= 92.7059\ngini = 0.2778\nsamples = 12\nvalue = [10, 2]"] ;
74 -> 76 ;
77 [label="gini = 0.0\nsamples = 7\nvalue = [7, 0]"] ;
76 -> 77 ;
78 [label="X[2] <= 1922796.5\ngini = 0.48\nsamples = 5\nvalue = [3, 2]"] ;
76 -> 78 ;
79 [label="X[6] <= 72754.8984\ngini = 0.375\nsamples = 4\nvalue = [3, 1]"] ;
78 -> 79 ;
80 [label="gini = 0.0\nsamples = 1\nvalue = [0, 1]"] ;
79 -> 80 ;
81 [label="gini = 0.0\nsamples = 3\nvalue = [3, 0]"] ;
79 -> 81 ;
82 [label="gini = 0.0\nsamples = 1\nvalue = [0, 1]"] ;
78 -> 82 ;
83 [label="X[3] <= 89.9664\ngini = 0.4444\nsamples = 3\nvalue = [1, 2]"] ;
71 -> 83 ;
84 [label="gini = 0.0\nsamples = 1\nvalue = [1, 0]"] ;
83 -> 84 ;
85 [label="gini = 0.0\nsamples = 2\nvalue = [0, 2]"] ;
83 -> 85 ;
86 [label="X[0] <= 811.875\ngini = 0.0278\nsamples = 71\nvalue = [70, 1]"] ;
70 -> 86 ;
87 [label="X[5] <= 47.0\ngini = 0.2778\nsamples = 6\nvalue = [5, 1]"] ;
86 -> 87 ;
88 [label="gini = 0.0\nsamples = 5\nvalue = [5, 0]"] ;
87 -> 88 ;
89 [label="gini = 0.0\nsamples = 1\nvalue = [0, 1]"] ;
87 -> 89 ;
90 [label="gini = 0.0\nsamples = 65\nvalue = [65, 0]"] ;
86 -> 90 ;
91 [label="X[5] <= 30.5\ngini = 0.48\nsamples = 5\nvalue = [2, 3]"] ;
69 -> 91 ;
92 [label="X[1] <= -4.0\ngini = 0.4444\nsamples = 3\nvalue = [2, 1]"] ;
91 -> 92 ;
93 [label="gini = 0.0\nsamples = 2\nvalue = [2, 0]"] ;
92 -> 93 ;
94 [label="gini = 0.0\nsamples = 1\nvalue = [0, 1]"] ;
92 -> 94 ;
95 [label="gini = 0.0\nsamples = 2\nvalue = [0, 2]"] ;
91 -> 95 ;
96 [label="X[3] <= 95.6227\ngini = 0.0832\nsamples = 2783\nvalue = [2662, 121]"] ;
10 -> 96 ;
97 [label="X[1] <= -3.5\ngini = 0.2449\nsamples = 42\nvalue = [36, 6]"] ;
96 -> 97 ;
98 [label="X[6] <= 405737.5\ngini = 0.0713\nsamples = 27\nvalue = [26, 1]"] ;
97 -> 98 ;
99 [label="gini = 0.0\nsamples = 25\nvalue = [25, 0]"] ;
98 -> 99 ;
100 [label="X[5] <= 17.5\ngini = 0.5\nsamples = 2\nvalue = [1, 1]"] ;
98 -> 100 ;
101 [label="gini = 0.0\nsamples = 1\nvalue = [0, 1]"] ;
100 -> 101 ;
102 [label="gini = 0.0\nsamples = 1\nvalue = [1, 0]"] ;
100 -> 102 ;
103 [label="X[5] <= 15.0\ngini = 0.4444\nsamples = 15\nvalue = [10, 5]"] ;
97 -> 103 ;
104 [label="X[5] <= 1.5\ngini = 0.2975\nsamples = 11\nvalue = [9, 2]"] ;
103 -> 104 ;
105 [label="gini = 0.0\nsamples = 1\nvalue = [0, 1]"] ;
104 -> 105 ;
106 [label="X[1] <= -3.0\ngini = 0.18\nsamples = 10\nvalue = [9, 1]"] ;
104 -> 106 ;
107 [label="X[2] <= 714572.5\ngini = 0.5\nsamples = 2\nvalue = [1, 1]"] ;
106 -> 107 ;
108 [label="gini = 0.0\nsamples = 1\nvalue = [1, 0]"] ;
107 -> 108 ;
109 [label="gini = 0.0\nsamples = 1\nvalue = [0, 1]"] ;
107 -> 109 ;
110 [label="gini = 0.0\nsamples = 8\nvalue = [8, 0]"] ;
106 -> 110 ;
111 [label="X[5] <= 26.0\ngini = 0.375\nsamples = 4\nvalue = [1, 3]"] ;
103 -> 111 ;
112 [label="gini = 0.0\nsamples = 3\nvalue = [0, 3]"] ;
111 -> 112 ;
113 [label="gini = 0.0\nsamples = 1\nvalue = [1, 0]"] ;
111 -> 113 ;
114 [label="X[2] <= 3161283.25\ngini = 0.0804\nsamples = 2741\nvalue = [2626, 115]"] ;
96 -> 114 ;
115 [label="X[2] <= 3150483.5\ngini = 0.09\nsamples = 2097\nvalue = [1998, 99]"] ;
114 -> 115 ;
116 [label="X[5] <= 96.0\ngini = 0.0891\nsamples = 2096\nvalue = [1998, 98]"] ;
115 -> 116 ;
117 [label="X[2] <= 2846572.75\ngini = 0.0876\nsamples = 2090\nvalue = [1994, 96]"] ;
116 -> 117 ;
118 [label="X[6] <= 379000.0\ngini = 0.0822\nsamples = 2002\nvalue = [1916, 86]"] ;
117 -> 118 ;
119 [label="X[0] <= 1657.26\ngini = 0.0761\nsamples = 1918\nvalue = [1842, 76]"] ;
118 -> 119 ;
120 [label="X[2] <= 84187.6875\ngini = 0.0863\nsamples = 1572\nvalue = [1501, 71]"] ;
119 -> 120 ;
121 [label="X[3] <= 102.7115\ngini = 0.2221\nsamples = 55\nvalue = [48, 7]"] ;
120 -> 121 ;
122 [label="X[1] <= -3.5\ngini = 0.1195\nsamples = 47\nvalue = [44, 3]"] ;
121 -> 122 ;
123 [label="X[0] <= 1417.33\ngini = 0.054\nsamples = 36\nvalue = [35, 1]"] ;
122 -> 123 ;
124 [label="gini = 0.0\nsamples = 33\nvalue = [33, 0]"] ;
123 -> 124 ;
125 [label="X[2] <= 4102.9214\ngini = 0.4444\nsamples = 3\nvalue = [2, 1]"] ;
123 -> 125 ;
126 [label="gini = 0.0\nsamples = 1\nvalue = [0, 1]"] ;
125 -> 126 ;
127 [label="gini = 0.0\nsamples = 2\nvalue = [2, 0]"] ;
125 -> 127 ;
128 [label="X[0] <= 1305.0249\ngini = 0.2975\nsamples = 11\nvalue = [9, 2]"] ;
122 -> 128 ;
129 [label="X[2] <= 39226.5859\ngini = 0.48\nsamples = 5\nvalue = [3, 2]"] ;
128 -> 129 ;
130 [label="gini = 0.0\nsamples = 2\nvalue = [2, 0]"] ;
129 -> 130 ;
131 [label="X[6] <= 24603.25\ngini = 0.4444\nsamples = 3\nvalue = [1, 2]"] ;
129 -> 131 ;
132 [label="gini = 0.0\nsamples = 2\nvalue = [0, 2]"] ;
131 -> 132 ;
133 [label="gini = 0.0\nsamples = 1\nvalue = [1, 0]"] ;
131 -> 133 ;
134 [label="gini = 0.0\nsamples = 6\nvalue = [6, 0]"] ;
128 -> 134 ;
135 [label="X[0] <= 1420.4299\ngini = 0.5\nsamples = 8\nvalue = [4, 4]"] ;
121 -> 135 ;
136 [label="gini = 0.0\nsamples = 4\nvalue = [0, 4]"] ;
135 -> 136 ;
137 [label="gini = 0.0\nsamples = 4\nvalue = [4, 0]"] ;
135 -> 137 ;
138 [label="X[2] <= 264865.4062\ngini = 0.0808\nsamples = 1517\nvalue = [1453, 64]"] ;
120 -> 138 ;
139 [label="X[3] <= 104.261\ngini = 0.0101\nsamples = 197\nvalue = [196, 1]"] ;
138 -> 139 ;
140 [label="gini = 0.0\nsamples = 183\nvalue = [183, 0]"] ;
139 -> 140 ;
141 [label="X[2] <= 191591.3438\ngini = 0.1327\nsamples = 14\nvalue = [13, 1]"] ;
139 -> 141 ;
142 [label="gini = 0.0\nsamples = 10\nvalue = [10, 0]"] ;
141 -> 142 ;
143 [label="X[5] <= 5.5\ngini = 0.375\nsamples = 4\nvalue = [3, 1]"] ;
141 -> 143 ;
144 [label="gini = 0.0\nsamples = 1\nvalue = [0, 1]"] ;
143 -> 144 ;
145 [label="gini = 0.0\nsamples = 3\nvalue = [3, 0]"] ;
143 -> 145 ;
146 [label="X[2] <= 265407.3438\ngini = 0.0909\nsamples = 1320\nvalue = [1257, 63]"] ;
138 -> 146 ;
147 [label="gini = 0.0\nsamples = 1\nvalue = [0, 1]"] ;
146 -> 147 ;
148 [label="X[6] <= 77503.1719\ngini = 0.0896\nsamples = 1319\nvalue = [1257, 62]"] ;
146 -> 148 ;
149 [label="X[6] <= 77173.25\ngini = 0.1284\nsamples = 406\nvalue = [378, 28]"] ;
148 -> 149 ;
150 [label="X[6] <= 51684.4531\ngini = 0.1244\nsamples = 405\nvalue = [378, 27]"] ;
149 -> 150 ;
151 [label="X[0] <= 1153.78\ngini = 0.0703\nsamples = 192\nvalue = [185, 7]"] ;
150 -> 151 ;
152 [label="X[5] <= 34.5\ngini = 0.3047\nsamples = 16\nvalue = [13, 3]"] ;
151 -> 152 ;
153 [label="X[1] <= -1.8333\ngini = 0.142\nsamples = 13\nvalue = [12, 1]"] ;
152 -> 153 ;
154 [label="gini = 0.0\nsamples = 12\nvalue = [12, 0]"] ;
153 -> 154 ;
155 [label="gini = 0.0\nsamples = 1\nvalue = [0, 1]"] ;
153 -> 155 ;
156 [label="X[6] <= 17396.668\ngini = 0.4444\nsamples = 3\nvalue = [1, 2]"] ;
152 -> 156 ;
157 [label="gini = 0.0\nsamples = 1\nvalue = [1, 0]"] ;
156 -> 157 ;
158 [label="gini = 0.0\nsamples = 2\nvalue = [0, 2]"] ;
156 -> 158 ;
159 [label="X[1] <= -2.5\ngini = 0.0444\nsamples = 176\nvalue = [172, 4]"] ;
151 -> 159 ;
160 [label="X[5] <= 1.5\ngini = 0.0136\nsamples = 146\nvalue = [145, 1]"] ;
159 -> 160 ;
161 [label="X[6] <= 38075.0\ngini = 0.1327\nsamples = 14\nvalue = [13, 1]"] ;
160 -> 161 ;
162 [label="gini = 0.0\nsamples = 11\nvalue = [11, 0]"] ;
161 -> 162 ;
163 [label="X[6] <= 40893.5\ngini = 0.4444\nsamples = 3\nvalue = [2, 1]"] ;
161 -> 163 ;
164 [label="gini = 0.0\nsamples = 1\nvalue = [0, 1]"] ;
163 -> 164 ;
165 [label="gini = 0.0\nsamples = 2\nvalue = [2, 0]"] ;
163 -> 165 ;
166 [label="gini = 0.0\nsamples = 132\nvalue = [132, 0]"] ;
160 -> 166 ;
167 [label="X[2] <= 271115.6875\ngini = 0.18\nsamples = 30\nvalue = [27, 3]"] ;
159 -> 167 ;
168 [label="X[3] <= 101.3683\ngini = 0.5\nsamples = 2\nvalue = [1, 1]"] ;
167 -> 168 ;
169 [label="gini = 0.0\nsamples = 1\nvalue = [1, 0]"] ;
168 -> 169 ;
170 [label="gini = 0.0\nsamples = 1\nvalue = [0, 1]"] ;
168 -> 170 ;
171 [label="X[6] <= 45427.4766\ngini = 0.1327\nsamples = 28\nvalue = [26, 2]"] ;
167 -> 171 ;
172 [label="X[6] <= 21227.25\ngini = 0.0799\nsamples = 24\nvalue = [23, 1]"] ;
171 -> 172 ;
173 [label="X[0] <= 1392.3799\ngini = 0.32\nsamples = 5\nvalue = [4, 1]"] ;
172 -> 173 ;
174 [label="gini = 0.0\nsamples = 1\nvalue = [0, 1]"] ;
173 -> 174 ;
175 [label="gini = 0.0\nsamples = 4\nvalue = [4, 0]"] ;
173 -> 175 ;
176 [label="gini = 0.0\nsamples = 19\nvalue = [19, 0]"] ;
172 -> 176 ;
177 [label="X[2] <= 667400.75\ngini = 0.375\nsamples = 4\nvalue = [3, 1]"] ;
171 -> 177 ;
178 [label="gini = 0.0\nsamples = 3\nvalue = [3, 0]"] ;
177 -> 178 ;
179 [label="gini = 0.0\nsamples = 1\nvalue = [0, 1]"] ;
177 -> 179 ;
180 [label="X[6] <= 51792.1484\ngini = 0.1702\nsamples = 213\nvalue = [193, 20]"] ;
150 -> 180 ;
181 [label="gini = 0.0\nsamples = 1\nvalue = [0, 1]"] ;
180 -> 181 ;
182 [label="X[0] <= 1631.855\ngini = 0.1632\nsamples = 212\nvalue = [193, 19]"] ;
180 -> 182 ;
183 [label="X[5] <= 4.5\ngini = 0.1508\nsamples = 207\nvalue = [190, 17]"] ;
182 -> 183 ;
184 [label="X[6] <= 74927.0\ngini = 0.3018\nsamples = 27\nvalue = [22, 5]"] ;
183 -> 184 ;
185 [label="X[1] <= -4.8333\ngini = 0.2112\nsamples = 25\nvalue = [22, 3]"] ;
184 -> 185 ;
186 [label="gini = 0.0\nsamples = 12\nvalue = [12, 0]"] ;
185 -> 186 ;
187 [label="X[0] <= 1406.7\ngini = 0.355\nsamples = 13\nvalue = [10, 3]"] ;
185 -> 187 ;
188 [label="X[0] <= 1372.79\ngini = 0.4688\nsamples = 8\nvalue = [5, 3]"] ;
187 -> 188 ;
189 [label="X[2] <= 651123.3125\ngini = 0.2778\nsamples = 6\nvalue = [5, 1]"] ;
188 -> 189 ;
190 [label="gini = 0.0\nsamples = 5\nvalue = [5, 0]"] ;
189 -> 190 ;
191 [label="gini = 0.0\nsamples = 1\nvalue = [0, 1]"] ;
189 -> 191 ;
192 [label="gini = 0.0\nsamples = 2\nvalue = [0, 2]"] ;
188 -> 192 ;
193 [label="gini = 0.0\nsamples = 5\nvalue = [5, 0]"] ;
187 -> 193 ;
194 [label="gini = 0.0\nsamples = 2\nvalue = [0, 2]"] ;
184 -> 194 ;
195 [label="X[1] <= -9.1667\ngini = 0.1244\nsamples = 180\nvalue = [168, 12]"] ;
183 -> 195 ;
196 [label="gini = 0.0\nsamples = 1\nvalue = [0, 1]"] ;
195 -> 196 ;
197 [label="X[6] <= 67179.75\ngini = 0.1154\nsamples = 179\nvalue = [168, 11]"] ;
195 -> 197 ;
198 [label="X[6] <= 66835.5\ngini = 0.1866\nsamples = 96\nvalue = [86, 10]"] ;
197 -> 198 ;
199 [label="X[3] <= 95.6682\ngini = 0.1557\nsamples = 94\nvalue = [86, 8]"] ;
198 -> 199 ;
200 [label="X[1] <= -4.3333\ngini = 0.5\nsamples = 2\nvalue = [1, 1]"] ;
199 -> 200 ;
201 [label="gini = 0.0\nsamples = 1\nvalue = [1, 0]"] ;
200 -> 201 ;
202 [label="gini = 0.0\nsamples = 1\nvalue = [0, 1]"] ;
200 -> 202 ;
203 [label="X[0] <= 1289.2\ngini = 0.1406\nsamples = 92\nvalue = [85, 7]"] ;
199 -> 203 ;
204 [label="gini = 0.0\nsamples = 30\nvalue = [30, 0]"] ;
203 -> 204 ;
205 [label="X[0] <= 1325.635\ngini = 0.2003\nsamples = 62\nvalue = [55, 7]"] ;
203 -> 205 ;
206 [label="X[1] <= -3.6667\ngini = 0.4898\nsamples = 7\nvalue = [4, 3]"] ;
205 -> 206 ;
207 [label="X[6] <= 60576.1914\ngini = 0.48\nsamples = 5\nvalue = [2, 3]"] ;
206 -> 207 ;
208 [label="gini = 0.0\nsamples = 3\nvalue = [0, 3]"] ;
207 -> 208 ;
209 [label="gini = 0.0\nsamples = 2\nvalue = [2, 0]"] ;
207 -> 209 ;
210 [label="gini = 0.0\nsamples = 2\nvalue = [2, 0]"] ;
206 -> 210 ;
211 [label="X[6] <= 65098.1562\ngini = 0.1349\nsamples = 55\nvalue = [51, 4]"] ;
205 -> 211 ;
212 [label="X[6] <= 53356.2773\ngini = 0.0768\nsamples = 50\nvalue = [48, 2]"] ;
211 -> 212 ;
213 [label="X[3] <= 103.827\ngini = 0.5\nsamples = 2\nvalue = [1, 1]"] ;
212 -> 213 ;
214 [label="gini = 0.0\nsamples = 1\nvalue = [1, 0]"] ;
213 -> 214 ;
215 [label="gini = 0.0\nsamples = 1\nvalue = [0, 1]"] ;
213 -> 215 ;
216 [label="X[6] <= 64081.0781\ngini = 0.0408\nsamples = 48\nvalue = [47, 1]"] ;
212 -> 216 ;
217 [label="gini = 0.0\nsamples = 42\nvalue = [42, 0]"] ;
216 -> 217 ;
218 [label="X[6] <= 64270.4805\ngini = 0.2778\nsamples = 6\nvalue = [5, 1]"] ;
216 -> 218 ;
219 [label="gini = 0.0\nsamples = 1\nvalue = [0, 1]"] ;
218 -> 219 ;
220 [label="gini = 0.0\nsamples = 5\nvalue = [5, 0]"] ;
218 -> 220 ;
221 [label="X[2] <= 1087431.375\ngini = 0.48\nsamples = 5\nvalue = [3, 2]"] ;
211 -> 221 ;
222 [label="gini = 0.0\nsamples = 3\nvalue = [3, 0]"] ;
221 -> 222 ;
223 [label="gini = 0.0\nsamples = 2\nvalue = [0, 2]"] ;
221 -> 223 ;
224 [label="gini = 0.0\nsamples = 2\nvalue = [0, 2]"] ;
198 -> 224 ;
225 [label="X[0] <= 1255.45\ngini = 0.0238\nsamples = 83\nvalue = [82, 1]"] ;
197 -> 225 ;
226 [label="X[0] <= 1236.095\ngini = 0.1172\nsamples = 16\nvalue = [15, 1]"] ;
225 -> 226 ;
227 [label="gini = 0.0\nsamples = 15\nvalue = [15, 0]"] ;
226 -> 227 ;
228 [label="gini = 0.0\nsamples = 1\nvalue = [0, 1]"] ;
226 -> 228 ;
229 [label="gini = 0.0\nsamples = 67\nvalue = [67, 0]"] ;
225 -> 229 ;
230 [label="X[6] <= 62929.9062\ngini = 0.48\nsamples = 5\nvalue = [3, 2]"] ;
182 -> 230 ;
231 [label="gini = 0.0\nsamples = 2\nvalue = [2, 0]"] ;
230 -> 231 ;
232 [label="X[5] <= 22.5\ngini = 0.4444\nsamples = 3\nvalue = [1, 2]"] ;
230 -> 232 ;
233 [label="gini = 0.0\nsamples = 2\nvalue = [0, 2]"] ;
232 -> 233 ;
234 [label="gini = 0.0\nsamples = 1\nvalue = [1, 0]"] ;
232 -> 234 ;
235 [label="gini = 0.0\nsamples = 1\nvalue = [0, 1]"] ;
149 -> 235 ;
236 [label="X[2] <= 270961.6562\ngini = 0.0717\nsamples = 913\nvalue = [879, 34]"] ;
148 -> 236 ;
237 [label="X[1] <= -4.5\ngini = 0.4444\nsamples = 3\nvalue = [2, 1]"] ;
236 -> 237 ;
238 [label="gini = 0.0\nsamples = 2\nvalue = [2, 0]"] ;
237 -> 238 ;
239 [label="gini = 0.0\nsamples = 1\nvalue = [0, 1]"] ;
237 -> 239 ;
240 [label="X[6] <= 91760.7656\ngini = 0.0699\nsamples = 910\nvalue = [877, 33]"] ;
236 -> 240 ;
241 [label="gini = 0.0\nsamples = 160\nvalue = [160, 0]"] ;
240 -> 241 ;
242 [label="X[6] <= 91844.1016\ngini = 0.0841\nsamples = 750\nvalue = [717, 33]"] ;
240 -> 242 ;
243 [label="gini = 0.0\nsamples = 1\nvalue = [0, 1]"] ;
242 -> 243 ;
244 [label="X[3] <= 97.7545\ngini = 0.0818\nsamples = 749\nvalue = [717, 32]"] ;
242 -> 244 ;
245 [label="X[2] <= 711819.625\ngini = 0.0427\nsamples = 229\nvalue = [224, 5]"] ;
244 -> 245 ;
246 [label="X[2] <= 702854.375\ngini = 0.0997\nsamples = 57\nvalue = [54, 3]"] ;
245 -> 246 ;
247 [label="X[1] <= -9.1667\ngini = 0.0689\nsamples = 56\nvalue = [54, 2]"] ;
246 -> 247 ;
248 [label="X[0] <= 1335.5149\ngini = 0.5\nsamples = 2\nvalue = [1, 1]"] ;
247 -> 248 ;
249 [label="gini = 0.0\nsamples = 1\nvalue = [0, 1]"] ;
248 -> 249 ;
250 [label="gini = 0.0\nsamples = 1\nvalue = [1, 0]"] ;
248 -> 250 ;
251 [label="X[0] <= 1336.21\ngini = 0.0364\nsamples = 54\nvalue = [53, 1]"] ;
247 -> 251 ;
252 [label="gini = 0.0\nsamples = 47\nvalue = [47, 0]"] ;
251 -> 252 ;
253 [label="X[2] <= 563729.125\ngini = 0.2449\nsamples = 7\nvalue = [6, 1]"] ;
251 -> 253 ;
254 [label="gini = 0.0\nsamples = 5\nvalue = [5, 0]"] ;
253 -> 254 ;
255 [label="X[1] <= -5.3333\ngini = 0.5\nsamples = 2\nvalue = [1, 1]"] ;
253 -> 255 ;
256 [label="gini = 0.0\nsamples = 1\nvalue = [0, 1]"] ;
255 -> 256 ;
257 [label="gini = 0.0\nsamples = 1\nvalue = [1, 0]"] ;
255 -> 257 ;
258 [label="gini = 0.0\nsamples = 1\nvalue = [0, 1]"] ;
246 -> 258 ;
259 [label="X[1] <= -3.1667\ngini = 0.023\nsamples = 172\nvalue = [170, 2]"] ;
245 -> 259 ;
260 [label="gini = 0.0\nsamples = 116\nvalue = [116, 0]"] ;
259 -> 260 ;
261 [label="X[0] <= 1354.405\ngini = 0.0689\nsamples = 56\nvalue = [54, 2]"] ;
259 -> 261 ;
262 [label="X[6] <= 276296.0\ngini = 0.0384\nsamples = 51\nvalue = [50, 1]"] ;
261 -> 262 ;
263 [label="gini = 0.0\nsamples = 45\nvalue = [45, 0]"] ;
262 -> 263 ;
264 [label="X[6] <= 278322.6875\ngini = 0.2778\nsamples = 6\nvalue = [5, 1]"] ;
262 -> 264 ;
265 [label="gini = 0.0\nsamples = 1\nvalue = [0, 1]"] ;
264 -> 265 ;
266 [label="gini = 0.0\nsamples = 5\nvalue = [5, 0]"] ;
264 -> 266 ;
267 [label="X[1] <= -2.1667\ngini = 0.32\nsamples = 5\nvalue = [4, 1]"] ;
261 -> 267 ;
268 [label="gini = 0.0\nsamples = 4\nvalue = [4, 0]"] ;
267 -> 268 ;
269 [label="gini = 0.0\nsamples = 1\nvalue = [0, 1]"] ;
267 -> 269 ;
270 [label="X[0] <= 1232.925\ngini = 0.0985\nsamples = 520\nvalue = [493, 27]"] ;
244 -> 270 ;
271 [label="X[2] <= 2672413.5\ngini = 0.2524\nsamples = 27\nvalue = [23, 4]"] ;
270 -> 271 ;
272 [label="X[1] <= -5.6667\ngini = 0.2041\nsamples = 26\nvalue = [23, 3]"] ;
271 -> 272 ;
273 [label="X[1] <= -6.5\ngini = 0.4082\nsamples = 7\nvalue = [5, 2]"] ;
272 -> 273 ;
274 [label="gini = 0.0\nsamples = 5\nvalue = [5, 0]"] ;
273 -> 274 ;
275 [label="gini = 0.0\nsamples = 2\nvalue = [0, 2]"] ;
273 -> 275 ;
276 [label="X[2] <= 1708088.0\ngini = 0.0997\nsamples = 19\nvalue = [18, 1]"] ;
272 -> 276 ;
277 [label="gini = 0.0\nsamples = 12\nvalue = [12, 0]"] ;
276 -> 277 ;
278 [label="X[2] <= 1787098.0\ngini = 0.2449\nsamples = 7\nvalue = [6, 1]"] ;
276 -> 278 ;
279 [label="gini = 0.0\nsamples = 1\nvalue = [0, 1]"] ;
278 -> 279 ;
280 [label="gini = 0.0\nsamples = 6\nvalue = [6, 0]"] ;
278 -> 280 ;
281 [label="gini = 0.0\nsamples = 1\nvalue = [0, 1]"] ;
271 -> 281 ;
282 [label="X[5] <= 4.5\ngini = 0.089\nsamples = 493\nvalue = [470, 23]"] ;
270 -> 282 ;
283 [label="X[6] <= 108858.0\ngini = 0.1547\nsamples = 142\nvalue = [130, 12]"] ;
282 -> 283 ;
284 [label="X[1] <= -5.0\ngini = 0.3967\nsamples = 11\nvalue = [8, 3]"] ;
283 -> 284 ;
285 [label="gini = 0.0\nsamples = 5\nvalue = [5, 0]"] ;
284 -> 285 ;
286 [label="X[2] <= 1163481.0\ngini = 0.5\nsamples = 6\nvalue = [3, 3]"] ;
284 -> 286 ;
287 [label="gini = 0.0\nsamples = 3\nvalue = [0, 3]"] ;
286 -> 287 ;
288 [label="gini = 0.0\nsamples = 3\nvalue = [3, 0]"] ;
286 -> 288 ;
289 [label="X[0] <= 1631.855\ngini = 0.128\nsamples = 131\nvalue = [122, 9]"] ;
283 -> 289 ;
290 [label="X[1] <= -4.8333\ngini = 0.118\nsamples = 127\nvalue = [119, 8]"] ;
289 -> 290 ;
291 [label="X[1] <= -6.1667\ngini = 0.1913\nsamples = 56\nvalue = [50, 6]"] ;
290 -> 291 ;
292 [label="X[0] <= 1295.165\ngini = 0.0526\nsamples = 37\nvalue = [36, 1]"] ;
291 -> 292 ;
293 [label="X[3] <= 103.0421\ngini = 0.2449\nsamples = 7\nvalue = [6, 1]"] ;
292 -> 293 ;
294 [label="gini = 0.0\nsamples = 6\nvalue = [6, 0]"] ;
293 -> 294 ;
295 [label="gini = 0.0\nsamples = 1\nvalue = [0, 1]"] ;
293 -> 295 ;
296 [label="gini = 0.0\nsamples = 30\nvalue = [30, 0]"] ;
292 -> 296 ;
297 [label="X[3] <= 102.9764\ngini = 0.3878\nsamples = 19\nvalue = [14, 5]"] ;
291 -> 297 ;
298 [label="X[3] <= 99.8994\ngini = 0.2449\nsamples = 14\nvalue = [12, 2]"] ;
297 -> 298 ;
299 [label="X[2] <= 371378.875\ngini = 0.4444\nsamples = 3\nvalue = [1, 2]"] ;
298 -> 299 ;
300 [label="gini = 0.0\nsamples = 1\nvalue = [1, 0]"] ;
299 -> 300 ;
301 [label="gini = 0.0\nsamples = 2\nvalue = [0, 2]"] ;
299 -> 301 ;
302 [label="gini = 0.0\nsamples = 11\nvalue = [11, 0]"] ;
298 -> 302 ;
303 [label="X[6] <= 166830.0\ngini = 0.48\nsamples = 5\nvalue = [2, 3]"] ;
297 -> 303 ;
304 [label="gini = 0.0\nsamples = 2\nvalue = [2, 0]"] ;
303 -> 304 ;
305 [label="gini = 0.0\nsamples = 3\nvalue = [0, 3]"] ;
303 -> 305 ;
306 [label="X[0] <= 1268.79\ngini = 0.0548\nsamples = 71\nvalue = [69, 2]"] ;
290 -> 306 ;
307 [label="X[6] <= 135006.875\ngini = 0.2778\nsamples = 6\nvalue = [5, 1]"] ;
306 -> 307 ;
308 [label="gini = 0.0\nsamples = 1\nvalue = [0, 1]"] ;
307 -> 308 ;
309 [label="gini = 0.0\nsamples = 5\nvalue = [5, 0]"] ;
307 -> 309 ;
310 [label="X[5] <= 1.5\ngini = 0.0303\nsamples = 65\nvalue = [64, 1]"] ;
306 -> 310 ;
311 [label="X[3] <= 101.5303\ngini = 0.18\nsamples = 10\nvalue = [9, 1]"] ;
310 -> 311 ;
312 [label="gini = 0.0\nsamples = 1\nvalue = [0, 1]"] ;
311 -> 312 ;
313 [label="gini = 0.0\nsamples = 9\nvalue = [9, 0]"] ;
311 -> 313 ;
314 [label="gini = 0.0\nsamples = 55\nvalue = [55, 0]"] ;
310 -> 314 ;
315 [label="X[5] <= 2.5\ngini = 0.375\nsamples = 4\nvalue = [3, 1]"] ;
289 -> 315 ;
316 [label="gini = 0.0\nsamples = 1\nvalue = [0, 1]"] ;
315 -> 316 ;
317 [label="gini = 0.0\nsamples = 3\nvalue = [3, 0]"] ;
315 -> 317 ;
318 [label="X[2] <= 1878329.25\ngini = 0.0607\nsamples = 351\nvalue = [340, 11]"] ;
282 -> 318 ;
319 [label="X[3] <= 105.0758\ngini = 0.0312\nsamples = 252\nvalue = [248, 4]"] ;
318 -> 319 ;
320 [label="X[1] <= -5.1667\ngini = 0.0169\nsamples = 234\nvalue = [232, 2]"] ;
319 -> 320 ;
321 [label="X[1] <= -5.5\ngini = 0.0476\nsamples = 82\nvalue = [80, 2]"] ;
320 -> 321 ;
322 [label="gini = 0.0\nsamples = 70\nvalue = [70, 0]"] ;
321 -> 322 ;
323 [label="X[2] <= 1329612.125\ngini = 0.2778\nsamples = 12\nvalue = [10, 2]"] ;
321 -> 323 ;
324 [label="X[0] <= 1515.6851\ngini = 0.48\nsamples = 5\nvalue = [3, 2]"] ;
323 -> 324 ;
325 [label="X[6] <= 222361.8438\ngini = 0.4444\nsamples = 3\nvalue = [1, 2]"] ;
324 -> 325 ;
326 [label="gini = 0.0\nsamples = 2\nvalue = [0, 2]"] ;
325 -> 326 ;
327 [label="gini = 0.0\nsamples = 1\nvalue = [1, 0]"] ;
325 -> 327 ;
328 [label="gini = 0.0\nsamples = 2\nvalue = [2, 0]"] ;
324 -> 328 ;
329 [label="gini = 0.0\nsamples = 7\nvalue = [7, 0]"] ;
323 -> 329 ;
330 [label="gini = 0.0\nsamples = 152\nvalue = [152, 0]"] ;
320 -> 330 ;
331 [label="X[1] <= -5.6667\ngini = 0.1975\nsamples = 18\nvalue = [16, 2]"] ;
319 -> 331 ;
332 [label="X[0] <= 1468.8201\ngini = 0.48\nsamples = 5\nvalue = [3, 2]"] ;
331 -> 332 ;
333 [label="gini = 0.0\nsamples = 2\nvalue = [2, 0]"] ;
332 -> 333 ;
334 [label="X[0] <= 1516.985\ngini = 0.4444\nsamples = 3\nvalue = [1, 2]"] ;
332 -> 334 ;
335 [label="gini = 0.0\nsamples = 2\nvalue = [0, 2]"] ;
334 -> 335 ;
336 [label="gini = 0.0\nsamples = 1\nvalue = [1, 0]"] ;
334 -> 336 ;
337 [label="gini = 0.0\nsamples = 13\nvalue = [13, 0]"] ;
331 -> 337 ;
338 [label="X[2] <= 1899795.75\ngini = 0.1314\nsamples = 99\nvalue = [92, 7]"] ;
318 -> 338 ;
339 [label="gini = 0.0\nsamples = 1\nvalue = [0, 1]"] ;
338 -> 339 ;
340 [label="X[0] <= 1601.925\ngini = 0.115\nsamples = 98\nvalue = [92, 6]"] ;
338 -> 340 ;
341 [label="X[2] <= 2076909.25\ngini = 0.0659\nsamples = 88\nvalue = [85, 3]"] ;
340 -> 341 ;
342 [label="X[2] <= 2075777.5\ngini = 0.1975\nsamples = 18\nvalue = [16, 2]"] ;
341 -> 342 ;
343 [label="X[6] <= 108847.6719\ngini = 0.1107\nsamples = 17\nvalue = [16, 1]"] ;
342 -> 343 ;
344 [label="X[6] <= 104165.3906\ngini = 0.4444\nsamples = 3\nvalue = [2, 1]"] ;
343 -> 344 ;
345 [label="gini = 0.0\nsamples = 2\nvalue = [2, 0]"] ;
344 -> 345 ;
346 [label="gini = 0.0\nsamples = 1\nvalue = [0, 1]"] ;
344 -> 346 ;
347 [label="gini = 0.0\nsamples = 14\nvalue = [14, 0]"] ;
343 -> 347 ;
348 [label="gini = 0.0\nsamples = 1\nvalue = [0, 1]"] ;
342 -> 348 ;
349 [label="X[6] <= 312183.5\ngini = 0.0282\nsamples = 70\nvalue = [69, 1]"] ;
341 -> 349 ;
350 [label="gini = 0.0\nsamples = 63\nvalue = [63, 0]"] ;
349 -> 350 ;
351 [label="X[6] <= 315790.5\ngini = 0.2449\nsamples = 7\nvalue = [6, 1]"] ;
349 -> 351 ;
352 [label="gini = 0.0\nsamples = 1\nvalue = [0, 1]"] ;
351 -> 352 ;
353 [label="gini = 0.0\nsamples = 6\nvalue = [6, 0]"] ;
351 -> 353 ;
354 [label="X[5] <= 13.0\ngini = 0.42\nsamples = 10\nvalue = [7, 3]"] ;
340 -> 354 ;
355 [label="X[1] <= -5.8333\ngini = 0.375\nsamples = 4\nvalue = [1, 3]"] ;
354 -> 355 ;
356 [label="gini = 0.0\nsamples = 2\nvalue = [0, 2]"] ;
355 -> 356 ;
357 [label="X[2] <= 2232487.0\ngini = 0.5\nsamples = 2\nvalue = [1, 1]"] ;
355 -> 357 ;
358 [label="gini = 0.0\nsamples = 1\nvalue = [0, 1]"] ;
357 -> 358 ;
359 [label="gini = 0.0\nsamples = 1\nvalue = [1, 0]"] ;
357 -> 359 ;
360 [label="gini = 0.0\nsamples = 6\nvalue = [6, 0]"] ;
354 -> 360 ;
361 [label="X[2] <= 739468.5625\ngini = 0.0285\nsamples = 346\nvalue = [341, 5]"] ;
119 -> 361 ;
362 [label="gini = 0.0\nsamples = 160\nvalue = [160, 0]"] ;
361 -> 362 ;
363 [label="X[2] <= 741036.25\ngini = 0.0523\nsamples = 186\nvalue = [181, 5]"] ;
361 -> 363 ;
364 [label="gini = 0.0\nsamples = 1\nvalue = [0, 1]"] ;
363 -> 364 ;
365 [label="X[6] <= 112305.5\ngini = 0.0423\nsamples = 185\nvalue = [181, 4]"] ;
363 -> 365 ;
366 [label="X[6] <= 110608.0938\ngini = 0.0928\nsamples = 82\nvalue = [78, 4]"] ;
365 -> 366 ;
367 [label="X[5] <= 10.5\ngini = 0.0713\nsamples = 81\nvalue = [78, 3]"] ;
366 -> 367 ;
368 [label="X[0] <= 1683.64\ngini = 0.1748\nsamples = 31\nvalue = [28, 3]"] ;
367 -> 368 ;
369 [label="X[2] <= 1429711.75\ngini = 0.5\nsamples = 2\nvalue = [1, 1]"] ;
368 -> 369 ;
370 [label="gini = 0.0\nsamples = 1\nvalue = [0, 1]"] ;
369 -> 370 ;
371 [label="gini = 0.0\nsamples = 1\nvalue = [1, 0]"] ;
369 -> 371 ;
372 [label="X[5] <= 9.5\ngini = 0.1284\nsamples = 29\nvalue = [27, 2]"] ;
368 -> 372 ;
373 [label="X[3] <= 104.1653\ngini = 0.0768\nsamples = 25\nvalue = [24, 1]"] ;
372 -> 373 ;
374 [label="gini = 0.0\nsamples = 19\nvalue = [19, 0]"] ;
373 -> 374 ;
375 [label="X[6] <= 84165.4219\ngini = 0.2778\nsamples = 6\nvalue = [5, 1]"] ;
373 -> 375 ;
376 [label="gini = 0.0\nsamples = 5\nvalue = [5, 0]"] ;
375 -> 376 ;
377 [label="gini = 0.0\nsamples = 1\nvalue = [0, 1]"] ;
375 -> 377 ;
378 [label="X[6] <= 88728.75\ngini = 0.375\nsamples = 4\nvalue = [3, 1]"] ;
372 -> 378 ;
379 [label="gini = 0.0\nsamples = 1\nvalue = [0, 1]"] ;
378 -> 379 ;
380 [label="gini = 0.0\nsamples = 3\nvalue = [3, 0]"] ;
378 -> 380 ;
381 [label="gini = 0.0\nsamples = 50\nvalue = [50, 0]"] ;
367 -> 381 ;
382 [label="gini = 0.0\nsamples = 1\nvalue = [0, 1]"] ;
366 -> 382 ;
383 [label="gini = 0.0\nsamples = 103\nvalue = [103, 0]"] ;
365 -> 383 ;
384 [label="X[6] <= 406475.0\ngini = 0.2098\nsamples = 84\nvalue = [74, 10]"] ;
118 -> 384 ;
385 [label="X[5] <= 2.5\ngini = 0.4082\nsamples = 21\nvalue = [15, 6]"] ;
384 -> 385 ;
386 [label="X[1] <= -9.1667\ngini = 0.2604\nsamples = 13\nvalue = [11, 2]"] ;
385 -> 386 ;
387 [label="gini = 0.0\nsamples = 1\nvalue = [0, 1]"] ;
386 -> 387 ;
388 [label="X[0] <= 1721.135\ngini = 0.1528\nsamples = 12\nvalue = [11, 1]"] ;
386 -> 388 ;
389 [label="gini = 0.0\nsamples = 11\nvalue = [11, 0]"] ;
388 -> 389 ;
390 [label="gini = 0.0\nsamples = 1\nvalue = [0, 1]"] ;
388 -> 390 ;
391 [label="X[6] <= 389144.0\ngini = 0.5\nsamples = 8\nvalue = [4, 4]"] ;
385 -> 391 ;
392 [label="gini = 0.0\nsamples = 3\nvalue = [3, 0]"] ;
391 -> 392 ;
393 [label="X[1] <= -7.8333\ngini = 0.32\nsamples = 5\nvalue = [1, 4]"] ;
391 -> 393 ;
394 [label="X[0] <= 1220.875\ngini = 0.5\nsamples = 2\nvalue = [1, 1]"] ;
393 -> 394 ;
395 [label="gini = 0.0\nsamples = 1\nvalue = [0, 1]"] ;
394 -> 395 ;
396 [label="gini = 0.0\nsamples = 1\nvalue = [1, 0]"] ;
394 -> 396 ;
397 [label="gini = 0.0\nsamples = 3\nvalue = [0, 3]"] ;
393 -> 397 ;
398 [label="X[0] <= 1013.83\ngini = 0.1189\nsamples = 63\nvalue = [59, 4]"] ;
384 -> 398 ;
399 [label="X[2] <= 2221626.0\ngini = 0.5\nsamples = 2\nvalue = [1, 1]"] ;
398 -> 399 ;
400 [label="gini = 0.0\nsamples = 1\nvalue = [0, 1]"] ;
399 -> 400 ;
401 [label="gini = 0.0\nsamples = 1\nvalue = [1, 0]"] ;
399 -> 401 ;
402 [label="X[3] <= 105.1455\ngini = 0.0935\nsamples = 61\nvalue = [58, 3]"] ;
398 -> 402 ;
403 [label="X[3] <= 102.5139\ngini = 0.0655\nsamples = 59\nvalue = [57, 2]"] ;
402 -> 403 ;
404 [label="gini = 0.0\nsamples = 36\nvalue = [36, 0]"] ;
403 -> 404 ;
405 [label="X[0] <= 1300.415\ngini = 0.1588\nsamples = 23\nvalue = [21, 2]"] ;
403 -> 405 ;
406 [label="gini = 0.0\nsamples = 1\nvalue = [0, 1]"] ;
405 -> 406 ;
407 [label="X[0] <= 1419.5801\ngini = 0.0868\nsamples = 22\nvalue = [21, 1]"] ;
405 -> 407 ;
408 [label="X[0] <= 1412.5601\ngini = 0.2778\nsamples = 6\nvalue = [5, 1]"] ;
407 -> 408 ;
409 [label="gini = 0.0\nsamples = 5\nvalue = [5, 0]"] ;
408 -> 409 ;
410 [label="gini = 0.0\nsamples = 1\nvalue = [0, 1]"] ;
408 -> 410 ;
411 [label="gini = 0.0\nsamples = 16\nvalue = [16, 0]"] ;
407 -> 411 ;
412 [label="X[1] <= -3.5\ngini = 0.5\nsamples = 2\nvalue = [1, 1]"] ;
402 -> 412 ;
413 [label="gini = 0.0\nsamples = 1\nvalue = [0, 1]"] ;
412 -> 413 ;
414 [label="gini = 0.0\nsamples = 1\nvalue = [1, 0]"] ;
412 -> 414 ;
415 [label="X[2] <= 2850897.0\ngini = 0.2014\nsamples = 88\nvalue = [78, 10]"] ;
117 -> 415 ;
416 [label="X[3] <= 101.1853\ngini = 0.4444\nsamples = 3\nvalue = [1, 2]"] ;
415 -> 416 ;
417 [label="gini = 0.0\nsamples = 2\nvalue = [0, 2]"] ;
416 -> 417 ;
418 [label="gini = 0.0\nsamples = 1\nvalue = [1, 0]"] ;
416 -> 418 ;
419 [label="X[3] <= 101.7262\ngini = 0.1705\nsamples = 85\nvalue = [77, 8]"] ;
415 -> 419 ;
420 [label="X[5] <= 6.5\ngini = 0.0444\nsamples = 44\nvalue = [43, 1]"] ;
419 -> 420 ;
421 [label="X[6] <= 138354.75\ngini = 0.2188\nsamples = 8\nvalue = [7, 1]"] ;
420 -> 421 ;
422 [label="gini = 0.0\nsamples = 1\nvalue = [0, 1]"] ;
421 -> 422 ;
423 [label="gini = 0.0\nsamples = 7\nvalue = [7, 0]"] ;
421 -> 423 ;
424 [label="gini = 0.0\nsamples = 36\nvalue = [36, 0]"] ;
420 -> 424 ;
425 [label="X[2] <= 2905531.5\ngini = 0.2832\nsamples = 41\nvalue = [34, 7]"] ;
419 -> 425 ;
426 [label="X[6] <= 95752.0312\ngini = 0.4938\nsamples = 9\nvalue = [5, 4]"] ;
425 -> 426 ;
427 [label="gini = 0.0\nsamples = 5\nvalue = [5, 0]"] ;
426 -> 427 ;
428 [label="gini = 0.0\nsamples = 4\nvalue = [0, 4]"] ;
426 -> 428 ;
429 [label="X[6] <= 73432.1875\ngini = 0.1699\nsamples = 32\nvalue = [29, 3]"] ;
425 -> 429 ;
430 [label="gini = 0.0\nsamples = 1\nvalue = [0, 1]"] ;
429 -> 430 ;
431 [label="X[6] <= 90043.0547\ngini = 0.1207\nsamples = 31\nvalue = [29, 2]"] ;
429 -> 431 ;
432 [label="X[5] <= 31.0\ngini = 0.4444\nsamples = 3\nvalue = [2, 1]"] ;
431 -> 432 ;
433 [label="gini = 0.0\nsamples = 1\nvalue = [0, 1]"] ;
432 -> 433 ;
434 [label="gini = 0.0\nsamples = 2\nvalue = [2, 0]"] ;
432 -> 434 ;
435 [label="X[0] <= 1897.955\ngini = 0.0689\nsamples = 28\nvalue = [27, 1]"] ;
431 -> 435 ;
436 [label="gini = 0.0\nsamples = 24\nvalue = [24, 0]"] ;
435 -> 436 ;
437 [label="X[1] <= -4.0\ngini = 0.375\nsamples = 4\nvalue = [3, 1]"] ;
435 -> 437 ;
438 [label="gini = 0.0\nsamples = 3\nvalue = [3, 0]"] ;
437 -> 438 ;
439 [label="gini = 0.0\nsamples = 1\nvalue = [0, 1]"] ;
437 -> 439 ;
440 [label="X[0] <= 1332.9199\ngini = 0.4444\nsamples = 6\nvalue = [4, 2]"] ;
116 -> 440 ;
441 [label="X[0] <= 1113.175\ngini = 0.4444\nsamples = 3\nvalue = [1, 2]"] ;
440 -> 441 ;
442 [label="gini = 0.0\nsamples = 1\nvalue = [1, 0]"] ;
441 -> 442 ;
443 [label="gini = 0.0\nsamples = 2\nvalue = [0, 2]"] ;
441 -> 443 ;
444 [label="gini = 0.0\nsamples = 3\nvalue = [3, 0]"] ;
440 -> 444 ;
445 [label="gini = 0.0\nsamples = 1\nvalue = [0, 1]"] ;
115 -> 445 ;
446 [label="X[6] <= 306231.5938\ngini = 0.0485\nsamples = 644\nvalue = [628, 16]"] ;
114 -> 446 ;
447 [label="X[6] <= 305691.375\ngini = 0.0658\nsamples = 470\nvalue = [454, 16]"] ;
446 -> 447 ;
448 [label="X[3] <= 105.1455\ngini = 0.0619\nsamples = 469\nvalue = [454, 15]"] ;
447 -> 448 ;
449 [label="X[2] <= 5536384.5\ngini = 0.0584\nsamples = 465\nvalue = [451, 14]"] ;
448 -> 449 ;
450 [label="X[3] <= 99.7484\ngini = 0.0304\nsamples = 259\nvalue = [255, 4]"] ;
449 -> 450 ;
451 [label="X[2] <= 3332131.5\ngini = 0.0799\nsamples = 72\nvalue = [69, 3]"] ;
450 -> 451 ;
452 [label="X[3] <= 98.4874\ngini = 0.4444\nsamples = 3\nvalue = [2, 1]"] ;
451 -> 452 ;
453 [label="gini = 0.0\nsamples = 2\nvalue = [2, 0]"] ;
452 -> 453 ;
454 [label="gini = 0.0\nsamples = 1\nvalue = [0, 1]"] ;
452 -> 454 ;
455 [label="X[6] <= 94380.4609\ngini = 0.0563\nsamples = 69\nvalue = [67, 2]"] ;
451 -> 455 ;
456 [label="X[6] <= 86561.1641\ngini = 0.4444\nsamples = 3\nvalue = [2, 1]"] ;
455 -> 456 ;
457 [label="gini = 0.0\nsamples = 2\nvalue = [2, 0]"] ;
456 -> 457 ;
458 [label="gini = 0.0\nsamples = 1\nvalue = [0, 1]"] ;
456 -> 458 ;
459 [label="X[3] <= 96.2197\ngini = 0.0298\nsamples = 66\nvalue = [65, 1]"] ;
455 -> 459 ;
460 [label="X[6] <= 171455.5469\ngini = 0.1327\nsamples = 14\nvalue = [13, 1]"] ;
459 -> 460 ;
461 [label="X[3] <= 95.9453\ngini = 0.4444\nsamples = 3\nvalue = [2, 1]"] ;
460 -> 461 ;
462 [label="gini = 0.0\nsamples = 2\nvalue = [2, 0]"] ;
461 -> 462 ;
463 [label="gini = 0.0\nsamples = 1\nvalue = [0, 1]"] ;
461 -> 463 ;
464 [label="gini = 0.0\nsamples = 11\nvalue = [11, 0]"] ;
460 -> 464 ;
465 [label="gini = 0.0\nsamples = 52\nvalue = [52, 0]"] ;
459 -> 465 ;
466 [label="X[3] <= 105.0758\ngini = 0.0106\nsamples = 187\nvalue = [186, 1]"] ;
450 -> 466 ;
467 [label="gini = 0.0\nsamples = 171\nvalue = [171, 0]"] ;
466 -> 467 ;
468 [label="X[3] <= 105.1062\ngini = 0.1172\nsamples = 16\nvalue = [15, 1]"] ;
466 -> 468 ;
469 [label="X[5] <= 18.0\ngini = 0.375\nsamples = 4\nvalue = [3, 1]"] ;
468 -> 469 ;
470 [label="gini = 0.0\nsamples = 1\nvalue = [0, 1]"] ;
469 -> 470 ;
471 [label="gini = 0.0\nsamples = 3\nvalue = [3, 0]"] ;
469 -> 471 ;
472 [label="gini = 0.0\nsamples = 12\nvalue = [12, 0]"] ;
468 -> 472 ;
473 [label="X[2] <= 5548139.0\ngini = 0.0924\nsamples = 206\nvalue = [196, 10]"] ;
449 -> 473 ;
474 [label="gini = 0.0\nsamples = 1\nvalue = [0, 1]"] ;
473 -> 474 ;
475 [label="X[0] <= 1601.925\ngini = 0.084\nsamples = 205\nvalue = [196, 9]"] ;
473 -> 475 ;
476 [label="X[6] <= 258736.75\ngini = 0.0479\nsamples = 163\nvalue = [159, 4]"] ;
475 -> 476 ;
477 [label="X[5] <= 187.0\ngini = 0.0148\nsamples = 134\nvalue = [133, 1]"] ;
476 -> 477 ;
478 [label="gini = 0.0\nsamples = 114\nvalue = [114, 0]"] ;
477 -> 478 ;
479 [label="X[5] <= 189.0\ngini = 0.095\nsamples = 20\nvalue = [19, 1]"] ;
477 -> 479 ;
480 [label="gini = 0.0\nsamples = 1\nvalue = [0, 1]"] ;
479 -> 480 ;
481 [label="gini = 0.0\nsamples = 19\nvalue = [19, 0]"] ;
479 -> 481 ;
482 [label="X[6] <= 260709.6875\ngini = 0.1855\nsamples = 29\nvalue = [26, 3]"] ;
476 -> 482 ;
483 [label="gini = 0.0\nsamples = 1\nvalue = [0, 1]"] ;
482 -> 483 ;
484 [label="X[2] <= 6066282.0\ngini = 0.1327\nsamples = 28\nvalue = [26, 2]"] ;
482 -> 484 ;
485 [label="X[5] <= 27.0\ngini = 0.5\nsamples = 2\nvalue = [1, 1]"] ;
484 -> 485 ;
486 [label="gini = 0.0\nsamples = 1\nvalue = [0, 1]"] ;
485 -> 486 ;
487 [label="gini = 0.0\nsamples = 1\nvalue = [1, 0]"] ;
485 -> 487 ;
488 [label="X[1] <= -6.6667\ngini = 0.074\nsamples = 26\nvalue = [25, 1]"] ;
484 -> 488 ;
489 [label="X[1] <= -7.1667\ngini = 0.2449\nsamples = 7\nvalue = [6, 1]"] ;
488 -> 489 ;
490 [label="gini = 0.0\nsamples = 6\nvalue = [6, 0]"] ;
489 -> 490 ;
491 [label="gini = 0.0\nsamples = 1\nvalue = [0, 1]"] ;
489 -> 491 ;
492 [label="gini = 0.0\nsamples = 19\nvalue = [19, 0]"] ;
488 -> 492 ;
493 [label="X[3] <= 102.8623\ngini = 0.2098\nsamples = 42\nvalue = [37, 5]"] ;
475 -> 493 ;
494 [label="X[6] <= 158551.4062\ngini = 0.3512\nsamples = 22\nvalue = [17, 5]"] ;
493 -> 494 ;
495 [label="X[1] <= -2.6667\ngini = 0.48\nsamples = 5\nvalue = [2, 3]"] ;
494 -> 495 ;
496 [label="X[3] <= 102.4567\ngini = 0.375\nsamples = 4\nvalue = [1, 3]"] ;
495 -> 496 ;
497 [label="gini = 0.0\nsamples = 2\nvalue = [0, 2]"] ;
496 -> 497 ;
498 [label="X[2] <= 13306875.0\ngini = 0.5\nsamples = 2\nvalue = [1, 1]"] ;
496 -> 498 ;
499 [label="gini = 0.0\nsamples = 1\nvalue = [0, 1]"] ;
498 -> 499 ;
500 [label="gini = 0.0\nsamples = 1\nvalue = [1, 0]"] ;
498 -> 500 ;
501 [label="gini = 0.0\nsamples = 1\nvalue = [1, 0]"] ;
495 -> 501 ;
502 [label="X[1] <= -1.8333\ngini = 0.2076\nsamples = 17\nvalue = [15, 2]"] ;
494 -> 502 ;
503 [label="X[6] <= 298951.75\ngini = 0.1172\nsamples = 16\nvalue = [15, 1]"] ;
502 -> 503 ;
504 [label="gini = 0.0\nsamples = 15\nvalue = [15, 0]"] ;
503 -> 504 ;
505 [label="gini = 0.0\nsamples = 1\nvalue = [0, 1]"] ;
503 -> 505 ;
506 [label="gini = 0.0\nsamples = 1\nvalue = [0, 1]"] ;
502 -> 506 ;
507 [label="gini = 0.0\nsamples = 20\nvalue = [20, 0]"] ;
493 -> 507 ;
508 [label="X[5] <= 29.5\ngini = 0.375\nsamples = 4\nvalue = [3, 1]"] ;
448 -> 508 ;
509 [label="gini = 0.0\nsamples = 3\nvalue = [3, 0]"] ;
508 -> 509 ;
510 [label="gini = 0.0\nsamples = 1\nvalue = [0, 1]"] ;
508 -> 510 ;
511 [label="gini = 0.0\nsamples = 1\nvalue = [0, 1]"] ;
447 -> 511 ;
512 [label="gini = 0.0\nsamples = 174\nvalue = [174, 0]"] ;
446 -> 512 ;
513 [label="X[2] <= 62610072.0\ngini = 0.3367\nsamples = 14\nvalue = [11, 3]"] ;
9 -> 513 ;
514 [label="X[0] <= 1395.05\ngini = 0.48\nsamples = 5\nvalue = [2, 3]"] ;
513 -> 514 ;
515 [label="gini = 0.0\nsamples = 2\nvalue = [2, 0]"] ;
514 -> 515 ;
516 [label="gini = 0.0\nsamples = 3\nvalue = [0, 3]"] ;
514 -> 516 ;
517 [label="gini = 0.0\nsamples = 9\nvalue = [9, 0]"] ;
513 -> 517 ;
518 [label="X[2] <= 1069445.625\ngini = 0.1645\nsamples = 188\nvalue = [171, 17]"] ;
8 -> 518 ;
519 [label="X[2] <= 864849.8125\ngini = 0.4753\nsamples = 18\nvalue = [11, 7]"] ;
518 -> 519 ;
520 [label="X[1] <= -7.3333\ngini = 0.1975\nsamples = 9\nvalue = [8, 1]"] ;
519 -> 520 ;
521 [label="X[2] <= 612109.5625\ngini = 0.375\nsamples = 4\nvalue = [3, 1]"] ;
520 -> 521 ;
522 [label="gini = 0.0\nsamples = 2\nvalue = [2, 0]"] ;
521 -> 522 ;
523 [label="X[6] <= 624511.0\ngini = 0.5\nsamples = 2\nvalue = [1, 1]"] ;
521 -> 523 ;
524 [label="gini = 0.0\nsamples = 1\nvalue = [1, 0]"] ;
523 -> 524 ;
525 [label="gini = 0.0\nsamples = 1\nvalue = [0, 1]"] ;
523 -> 525 ;
526 [label="gini = 0.0\nsamples = 5\nvalue = [5, 0]"] ;
520 -> 526 ;
527 [label="X[3] <= 96.2183\ngini = 0.4444\nsamples = 9\nvalue = [3, 6]"] ;
519 -> 527 ;
528 [label="gini = 0.0\nsamples = 2\nvalue = [2, 0]"] ;
527 -> 528 ;
529 [label="X[5] <= 3.5\ngini = 0.2449\nsamples = 7\nvalue = [1, 6]"] ;
527 -> 529 ;
530 [label="gini = 0.0\nsamples = 6\nvalue = [0, 6]"] ;
529 -> 530 ;
531 [label="gini = 0.0\nsamples = 1\nvalue = [1, 0]"] ;
529 -> 531 ;
532 [label="X[3] <= 94.1837\ngini = 0.1107\nsamples = 170\nvalue = [160, 10]"] ;
518 -> 532 ;
533 [label="X[3] <= 91.2199\ngini = 0.3878\nsamples = 19\nvalue = [14, 5]"] ;
532 -> 533 ;
534 [label="X[6] <= 1098887.5\ngini = 0.1653\nsamples = 11\nvalue = [10, 1]"] ;
533 -> 534 ;
535 [label="X[1] <= -5.0\ngini = 0.4444\nsamples = 3\nvalue = [2, 1]"] ;
534 -> 535 ;
536 [label="gini = 0.0\nsamples = 2\nvalue = [2, 0]"] ;
535 -> 536 ;
537 [label="gini = 0.0\nsamples = 1\nvalue = [0, 1]"] ;
535 -> 537 ;
538 [label="gini = 0.0\nsamples = 8\nvalue = [8, 0]"] ;
534 -> 538 ;
539 [label="X[1] <= -3.6667\ngini = 0.5\nsamples = 8\nvalue = [4, 4]"] ;
533 -> 539 ;
540 [label="X[1] <= -9.5\ngini = 0.32\nsamples = 5\nvalue = [4, 1]"] ;
539 -> 540 ;
541 [label="gini = 0.0\nsamples = 1\nvalue = [0, 1]"] ;
540 -> 541 ;
542 [label="gini = 0.0\nsamples = 4\nvalue = [4, 0]"] ;
540 -> 542 ;
543 [label="gini = 0.0\nsamples = 3\nvalue = [0, 3]"] ;
539 -> 543 ;
544 [label="X[6] <= 612541.5\ngini = 0.064\nsamples = 151\nvalue = [146, 5]"] ;
532 -> 544 ;
545 [label="gini = 0.0\nsamples = 1\nvalue = [0, 1]"] ;
544 -> 545 ;
546 [label="X[0] <= 1878.145\ngini = 0.0519\nsamples = 150\nvalue = [146, 4]"] ;
544 -> 546 ;
547 [label="X[6] <= 1405638.0\ngini = 0.0282\nsamples = 140\nvalue = [138, 2]"] ;
546 -> 547 ;
548 [label="gini = 0.0\nsamples = 109\nvalue = [109, 0]"] ;
547 -> 548 ;
549 [label="X[6] <= 1427423.0\ngini = 0.1207\nsamples = 31\nvalue = [29, 2]"] ;
547 -> 549 ;
550 [label="gini = 0.0\nsamples = 1\nvalue = [0, 1]"] ;
549 -> 550 ;
551 [label="X[2] <= 2745581.0\ngini = 0.0644\nsamples = 30\nvalue = [29, 1]"] ;
549 -> 551 ;
552 [label="X[6] <= 1875417.0\ngini = 0.2778\nsamples = 6\nvalue = [5, 1]"] ;
551 -> 552 ;
553 [label="gini = 0.0\nsamples = 1\nvalue = [0, 1]"] ;
552 -> 553 ;
554 [label="gini = 0.0\nsamples = 5\nvalue = [5, 0]"] ;
552 -> 554 ;
555 [label="gini = 0.0\nsamples = 24\nvalue = [24, 0]"] ;
551 -> 555 ;
556 [label="X[2] <= 3138410.0\ngini = 0.32\nsamples = 10\nvalue = [8, 2]"] ;
546 -> 556 ;
557 [label="gini = 0.0\nsamples = 7\nvalue = [7, 0]"] ;
556 -> 557 ;
558 [label="X[1] <= -8.0\ngini = 0.4444\nsamples = 3\nvalue = [1, 2]"] ;
556 -> 558 ;
559 [label="gini = 0.0\nsamples = 1\nvalue = [1, 0]"] ;
558 -> 559 ;
560 [label="gini = 0.0\nsamples = 2\nvalue = [0, 2]"] ;
558 -> 560 ;
561 [label="X[5] <= 1229.5\ngini = 0.1497\nsamples = 761\nvalue = [699, 62]"] ;
7 -> 561 ;
562 [label="X[2] <= -32310.166\ngini = 0.1476\nsamples = 760\nvalue = [699, 61]"] ;
561 -> 562 ;
563 [label="gini = 0.0\nsamples = 1\nvalue = [0, 1]"] ;
562 -> 563 ;
564 [label="X[3] <= 95.4315\ngini = 0.1456\nsamples = 759\nvalue = [699, 60]"] ;
562 -> 564 ;
565 [label="X[5] <= 25.5\ngini = 0.0359\nsamples = 164\nvalue = [161, 3]"] ;
564 -> 565 ;
566 [label="X[0] <= 1178.0601\ngini = 0.0141\nsamples = 141\nvalue = [140, 1]"] ;
565 -> 566 ;
567 [label="gini = 0.0\nsamples = 132\nvalue = [132, 0]"] ;
566 -> 567 ;
568 [label="X[2] <= 716282.6875\ngini = 0.1975\nsamples = 9\nvalue = [8, 1]"] ;
566 -> 568 ;
569 [label="X[6] <= 137556.8906\ngini = 0.4444\nsamples = 3\nvalue = [2, 1]"] ;
568 -> 569 ;
570 [label="gini = 0.0\nsamples = 2\nvalue = [2, 0]"] ;
569 -> 570 ;
571 [label="gini = 0.0\nsamples = 1\nvalue = [0, 1]"] ;
569 -> 571 ;
572 [label="gini = 0.0\nsamples = 6\nvalue = [6, 0]"] ;
568 -> 572 ;
573 [label="X[5] <= 26.5\ngini = 0.1588\nsamples = 23\nvalue = [21, 2]"] ;
565 -> 573 ;
574 [label="gini = 0.0\nsamples = 1\nvalue = [0, 1]"] ;
573 -> 574 ;
575 [label="X[6] <= 119605.75\ngini = 0.0868\nsamples = 22\nvalue = [21, 1]"] ;
573 -> 575 ;
576 [label="gini = 0.0\nsamples = 15\nvalue = [15, 0]"] ;
575 -> 576 ;
577 [label="X[6] <= 130909.9219\ngini = 0.2449\nsamples = 7\nvalue = [6, 1]"] ;
575 -> 577 ;
578 [label="gini = 0.0\nsamples = 1\nvalue = [0, 1]"] ;
577 -> 578 ;
579 [label="gini = 0.0\nsamples = 6\nvalue = [6, 0]"] ;
577 -> 579 ;
580 [label="X[3] <= 95.6227\ngini = 0.1732\nsamples = 595\nvalue = [538, 57]"] ;
564 -> 580 ;
581 [label="X[2] <= 2566166.5\ngini = 0.4444\nsamples = 15\nvalue = [10, 5]"] ;
580 -> 581 ;
582 [label="X[1] <= -0.8333\ngini = 0.355\nsamples = 13\nvalue = [10, 3]"] ;
581 -> 582 ;
583 [label="X[6] <= 226706.2031\ngini = 0.4688\nsamples = 8\nvalue = [5, 3]"] ;
582 -> 583 ;
584 [label="X[5] <= 6.0\ngini = 0.32\nsamples = 5\nvalue = [4, 1]"] ;
583 -> 584 ;
585 [label="X[5] <= 3.5\ngini = 0.5\nsamples = 2\nvalue = [1, 1]"] ;
584 -> 585 ;
586 [label="gini = 0.0\nsamples = 1\nvalue = [1, 0]"] ;
585 -> 586 ;
587 [label="gini = 0.0\nsamples = 1\nvalue = [0, 1]"] ;
585 -> 587 ;
588 [label="gini = 0.0\nsamples = 3\nvalue = [3, 0]"] ;
584 -> 588 ;
589 [label="X[6] <= 383348.0625\ngini = 0.4444\nsamples = 3\nvalue = [1, 2]"] ;
583 -> 589 ;
590 [label="gini = 0.0\nsamples = 2\nvalue = [0, 2]"] ;
589 -> 590 ;
591 [label="gini = 0.0\nsamples = 1\nvalue = [1, 0]"] ;
589 -> 591 ;
592 [label="gini = 0.0\nsamples = 5\nvalue = [5, 0]"] ;
582 -> 592 ;
593 [label="gini = 0.0\nsamples = 2\nvalue = [0, 2]"] ;
581 -> 593 ;
594 [label="X[6] <= 236638.2969\ngini = 0.1632\nsamples = 580\nvalue = [528, 52]"] ;
580 -> 594 ;
595 [label="X[2] <= 641062.125\ngini = 0.1373\nsamples = 445\nvalue = [412, 33]"] ;
594 -> 595 ;
596 [label="X[5] <= 8.5\ngini = 0.061\nsamples = 127\nvalue = [123, 4]"] ;
595 -> 596 ;
597 [label="X[0] <= 1284.475\ngini = 0.02\nsamples = 99\nvalue = [98, 1]"] ;
596 -> 597 ;
598 [label="X[0] <= 1276.5149\ngini = 0.1049\nsamples = 18\nvalue = [17, 1]"] ;
597 -> 598 ;
599 [label="gini = 0.0\nsamples = 17\nvalue = [17, 0]"] ;
598 -> 599 ;
600 [label="gini = 0.0\nsamples = 1\nvalue = [0, 1]"] ;
598 -> 600 ;
601 [label="gini = 0.0\nsamples = 81\nvalue = [81, 0]"] ;
597 -> 601 ;
602 [label="X[2] <= 57998.668\ngini = 0.1913\nsamples = 28\nvalue = [25, 3]"] ;
596 -> 602 ;
603 [label="gini = 0.0\nsamples = 1\nvalue = [0, 1]"] ;
602 -> 603 ;
604 [label="X[3] <= 105.0844\ngini = 0.1372\nsamples = 27\nvalue = [25, 2]"] ;
602 -> 604 ;
605 [label="X[2] <= 110640.6406\ngini = 0.0768\nsamples = 25\nvalue = [24, 1]"] ;
604 -> 605 ;
606 [label="X[2] <= 93678.0156\ngini = 0.4444\nsamples = 3\nvalue = [2, 1]"] ;
605 -> 606 ;
607 [label="gini = 0.0\nsamples = 2\nvalue = [2, 0]"] ;
606 -> 607 ;
608 [label="gini = 0.0\nsamples = 1\nvalue = [0, 1]"] ;
606 -> 608 ;
609 [label="gini = 0.0\nsamples = 22\nvalue = [22, 0]"] ;
605 -> 609 ;
610 [label="X[5] <= 11.0\ngini = 0.5\nsamples = 2\nvalue = [1, 1]"] ;
604 -> 610 ;
611 [label="gini = 0.0\nsamples = 1\nvalue = [1, 0]"] ;
610 -> 611 ;
612 [label="gini = 0.0\nsamples = 1\nvalue = [0, 1]"] ;
610 -> 612 ;
613 [label="X[2] <= 646126.0\ngini = 0.1658\nsamples = 318\nvalue = [289, 29]"] ;
595 -> 613 ;
614 [label="gini = 0.0\nsamples = 1\nvalue = [0, 1]"] ;
613 -> 614 ;
615 [label="X[5] <= 5.5\ngini = 0.1611\nsamples = 317\nvalue = [289, 28]"] ;
613 -> 615 ;
616 [label="X[6] <= 168680.0\ngini = 0.32\nsamples = 40\nvalue = [32, 8]"] ;
615 -> 616 ;
617 [label="X[5] <= 3.5\ngini = 0.417\nsamples = 27\nvalue = [19, 8]"] ;
616 -> 617 ;
618 [label="X[3] <= 95.6682\ngini = 0.2449\nsamples = 14\nvalue = [12, 2]"] ;
617 -> 618 ;
619 [label="gini = 0.0\nsamples = 1\nvalue = [0, 1]"] ;
618 -> 619 ;
620 [label="X[4] <= 0.5\ngini = 0.142\nsamples = 13\nvalue = [12, 1]"] ;
618 -> 620 ;
621 [label="gini = 0.0\nsamples = 11\nvalue = [11, 0]"] ;
620 -> 621 ;
622 [label="X[2] <= 896905.25\ngini = 0.5\nsamples = 2\nvalue = [1, 1]"] ;
620 -> 622 ;
623 [label="gini = 0.0\nsamples = 1\nvalue = [0, 1]"] ;
622 -> 623 ;
624 [label="gini = 0.0\nsamples = 1\nvalue = [1, 0]"] ;
622 -> 624 ;
625 [label="X[2] <= 2479888.5\ngini = 0.497\nsamples = 13\nvalue = [7, 6]"] ;
617 -> 625 ;
626 [label="X[0] <= 1423.355\ngini = 0.4959\nsamples = 11\nvalue = [5, 6]"] ;
625 -> 626 ;
627 [label="X[0] <= 1273.4299\ngini = 0.4688\nsamples = 8\nvalue = [5, 3]"] ;
626 -> 627 ;
628 [label="X[5] <= 4.5\ngini = 0.375\nsamples = 4\nvalue = [1, 3]"] ;
627 -> 628 ;
629 [label="gini = 0.0\nsamples = 3\nvalue = [0, 3]"] ;
628 -> 629 ;
630 [label="gini = 0.0\nsamples = 1\nvalue = [1, 0]"] ;
628 -> 630 ;
631 [label="gini = 0.0\nsamples = 4\nvalue = [4, 0]"] ;
627 -> 631 ;
632 [label="gini = 0.0\nsamples = 3\nvalue = [0, 3]"] ;
626 -> 632 ;
633 [label="gini = 0.0\nsamples = 2\nvalue = [2, 0]"] ;
625 -> 633 ;
634 [label="gini = 0.0\nsamples = 13\nvalue = [13, 0]"] ;
616 -> 634 ;
635 [label="X[0] <= 1618.51\ngini = 0.134\nsamples = 277\nvalue = [257, 20]"] ;
615 -> 635 ;
636 [label="X[0] <= 1307.075\ngini = 0.1006\nsamples = 226\nvalue = [214, 12]"] ;
635 -> 636 ;
637 [label="X[0] <= 1232.925\ngini = 0.1748\nsamples = 93\nvalue = [84, 9]"] ;
636 -> 637 ;
638 [label="gini = 0.0\nsamples = 38\nvalue = [38, 0]"] ;
637 -> 638 ;
639 [label="X[5] <= 43.5\ngini = 0.2737\nsamples = 55\nvalue = [46, 9]"] ;
637 -> 639 ;
640 [label="X[6] <= 87150.2656\ngini = 0.2188\nsamples = 48\nvalue = [42, 6]"] ;
639 -> 640 ;
641 [label="gini = 0.0\nsamples = 20\nvalue = [20, 0]"] ;
640 -> 641 ;
642 [label="X[6] <= 150264.4531\ngini = 0.3367\nsamples = 28\nvalue = [22, 6]"] ;
640 -> 642 ;
643 [label="X[6] <= 132884.0625\ngini = 0.4688\nsamples = 16\nvalue = [10, 6]"] ;
642 -> 643 ;
644 [label="X[2] <= 1863793.75\ngini = 0.4082\nsamples = 14\nvalue = [10, 4]"] ;
643 -> 644 ;
645 [label="X[6] <= 90877.1094\ngini = 0.4938\nsamples = 9\nvalue = [5, 4]"] ;
644 -> 645 ;
646 [label="gini = 0.0\nsamples = 2\nvalue = [0, 2]"] ;
645 -> 646 ;
647 [label="X[2] <= 1309075.25\ngini = 0.4082\nsamples = 7\nvalue = [5, 2]"] ;
645 -> 647 ;
648 [label="gini = 0.0\nsamples = 4\nvalue = [4, 0]"] ;
647 -> 648 ;
649 [label="X[6] <= 120549.7031\ngini = 0.4444\nsamples = 3\nvalue = [1, 2]"] ;
647 -> 649 ;
650 [label="gini = 0.0\nsamples = 2\nvalue = [0, 2]"] ;
649 -> 650 ;
651 [label="gini = 0.0\nsamples = 1\nvalue = [1, 0]"] ;
649 -> 651 ;
652 [label="gini = 0.0\nsamples = 5\nvalue = [5, 0]"] ;
644 -> 652 ;
653 [label="gini = 0.0\nsamples = 2\nvalue = [0, 2]"] ;
643 -> 653 ;
654 [label="gini = 0.0\nsamples = 12\nvalue = [12, 0]"] ;
642 -> 654 ;
655 [label="X[5] <= 103.0\ngini = 0.4898\nsamples = 7\nvalue = [4, 3]"] ;
639 -> 655 ;
656 [label="X[6] <= 101870.625\ngini = 0.375\nsamples = 4\nvalue = [1, 3]"] ;
655 -> 656 ;
657 [label="gini = 0.0\nsamples = 3\nvalue = [0, 3]"] ;
656 -> 657 ;
658 [label="gini = 0.0\nsamples = 1\nvalue = [1, 0]"] ;
656 -> 658 ;
659 [label="gini = 0.0\nsamples = 3\nvalue = [3, 0]"] ;
655 -> 659 ;
660 [label="X[6] <= 190731.9688\ngini = 0.0441\nsamples = 133\nvalue = [130, 3]"] ;
636 -> 660 ;
661 [label="X[6] <= 61436.4453\ngini = 0.0175\nsamples = 113\nvalue = [112, 1]"] ;
660 -> 661 ;
662 [label="X[6] <= 60673.2578\ngini = 0.142\nsamples = 13\nvalue = [12, 1]"] ;
661 -> 662 ;
663 [label="gini = 0.0\nsamples = 12\nvalue = [12, 0]"] ;
662 -> 663 ;
664 [label="gini = 0.0\nsamples = 1\nvalue = [0, 1]"] ;
662 -> 664 ;
665 [label="gini = 0.0\nsamples = 100\nvalue = [100, 0]"] ;
661 -> 665 ;
666 [label="X[6] <= 192385.3438\ngini = 0.18\nsamples = 20\nvalue = [18, 2]"] ;
660 -> 666 ;
667 [label="gini = 0.0\nsamples = 1\nvalue = [0, 1]"] ;
666 -> 667 ;
668 [label="X[2] <= 1839232.5\ngini = 0.0997\nsamples = 19\nvalue = [18, 1]"] ;
666 -> 668 ;
669 [label="X[2] <= 1625852.875\ngini = 0.375\nsamples = 4\nvalue = [3, 1]"] ;
668 -> 669 ;
670 [label="gini = 0.0\nsamples = 3\nvalue = [3, 0]"] ;
669 -> 670 ;
671 [label="gini = 0.0\nsamples = 1\nvalue = [0, 1]"] ;
669 -> 671 ;
672 [label="gini = 0.0\nsamples = 15\nvalue = [15, 0]"] ;
668 -> 672 ;
673 [label="X[5] <= 42.5\ngini = 0.2645\nsamples = 51\nvalue = [43, 8]"] ;
635 -> 673 ;
674 [label="X[2] <= 2241871.5\ngini = 0.1761\nsamples = 41\nvalue = [37, 4]"] ;
673 -> 674 ;
675 [label="X[2] <= 2038349.5\ngini = 0.3457\nsamples = 18\nvalue = [14, 4]"] ;
674 -> 675 ;
676 [label="X[0] <= 1683.64\ngini = 0.2907\nsamples = 17\nvalue = [14, 3]"] ;
675 -> 676 ;
677 [label="X[3] <= 102.2388\ngini = 0.48\nsamples = 5\nvalue = [3, 2]"] ;
676 -> 677 ;
678 [label="gini = 0.0\nsamples = 3\nvalue = [3, 0]"] ;
677 -> 678 ;
679 [label="gini = 0.0\nsamples = 2\nvalue = [0, 2]"] ;
677 -> 679 ;
680 [label="X[1] <= -0.5\ngini = 0.1528\nsamples = 12\nvalue = [11, 1]"] ;
676 -> 680 ;
681 [label="gini = 0.0\nsamples = 8\nvalue = [8, 0]"] ;
680 -> 681 ;
682 [label="X[5] <= 9.0\ngini = 0.375\nsamples = 4\nvalue = [3, 1]"] ;
680 -> 682 ;
683 [label="gini = 0.0\nsamples = 3\nvalue = [3, 0]"] ;
682 -> 683 ;
684 [label="gini = 0.0\nsamples = 1\nvalue = [0, 1]"] ;
682 -> 684 ;
685 [label="gini = 0.0\nsamples = 1\nvalue = [0, 1]"] ;
675 -> 685 ;
686 [label="gini = 0.0\nsamples = 23\nvalue = [23, 0]"] ;
674 -> 686 ;
687 [label="X[5] <= 50.0\ngini = 0.48\nsamples = 10\nvalue = [6, 4]"] ;
673 -> 687 ;
688 [label="gini = 0.0\nsamples = 2\nvalue = [0, 2]"] ;
687 -> 688 ;
689 [label="X[6] <= 96561.25\ngini = 0.375\nsamples = 8\nvalue = [6, 2]"] ;
687 -> 689 ;
690 [label="gini = 0.0\nsamples = 5\nvalue = [5, 0]"] ;
689 -> 690 ;
691 [label="X[6] <= 178365.0469\ngini = 0.4444\nsamples = 3\nvalue = [1, 2]"] ;
689 -> 691 ;
692 [label="gini = 0.0\nsamples = 2\nvalue = [0, 2]"] ;
691 -> 692 ;
693 [label="gini = 0.0\nsamples = 1\nvalue = [1, 0]"] ;
691 -> 693 ;
694 [label="X[6] <= 240214.7188\ngini = 0.2419\nsamples = 135\nvalue = [116, 19]"] ;
594 -> 694 ;
695 [label="gini = 0.0\nsamples = 2\nvalue = [0, 2]"] ;
694 -> 695 ;
696 [label="X[5] <= 21.0\ngini = 0.223\nsamples = 133\nvalue = [116, 17]"] ;
694 -> 696 ;
697 [label="X[5] <= 1.5\ngini = 0.18\nsamples = 120\nvalue = [108, 12]"] ;
696 -> 697 ;
698 [label="X[6] <= 447916.0\ngini = 0.4444\nsamples = 15\nvalue = [10, 5]"] ;
697 -> 698 ;
699 [label="X[1] <= -0.8333\ngini = 0.375\nsamples = 4\nvalue = [1, 3]"] ;
698 -> 699 ;
700 [label="gini = 0.0\nsamples = 1\nvalue = [1, 0]"] ;
699 -> 700 ;
701 [label="gini = 0.0\nsamples = 3\nvalue = [0, 3]"] ;
699 -> 701 ;
702 [label="X[0] <= 1373.875\ngini = 0.2975\nsamples = 11\nvalue = [9, 2]"] ;
698 -> 702 ;
703 [label="gini = 0.0\nsamples = 6\nvalue = [6, 0]"] ;
702 -> 703 ;
704 [label="X[1] <= -1.0\ngini = 0.48\nsamples = 5\nvalue = [3, 2]"] ;
702 -> 704 ;
705 [label="gini = 0.0\nsamples = 2\nvalue = [2, 0]"] ;
704 -> 705 ;
706 [label="X[2] <= 2488476.75\ngini = 0.4444\nsamples = 3\nvalue = [1, 2]"] ;
704 -> 706 ;
707 [label="gini = 0.0\nsamples = 2\nvalue = [0, 2]"] ;
706 -> 707 ;
708 [label="gini = 0.0\nsamples = 1\nvalue = [1, 0]"] ;
706 -> 708 ;
709 [label="X[2] <= 5634052.0\ngini = 0.1244\nsamples = 105\nvalue = [98, 7]"] ;
697 -> 709 ;
710 [label="X[2] <= 786085.125\ngini = 0.0666\nsamples = 87\nvalue = [84, 3]"] ;
709 -> 710 ;
711 [label="X[5] <= 2.5\ngini = 0.5\nsamples = 2\nvalue = [1, 1]"] ;
710 -> 711 ;
712 [label="gini = 0.0\nsamples = 1\nvalue = [0, 1]"] ;
711 -> 712 ;
713 [label="gini = 0.0\nsamples = 1\nvalue = [1, 0]"] ;
711 -> 713 ;
714 [label="X[2] <= 2564198.5\ngini = 0.046\nsamples = 85\nvalue = [83, 2]"] ;
710 -> 714 ;
715 [label="gini = 0.0\nsamples = 48\nvalue = [48, 0]"] ;
714 -> 715 ;
716 [label="X[2] <= 2624190.0\ngini = 0.1023\nsamples = 37\nvalue = [35, 2]"] ;
714 -> 716 ;
717 [label="gini = 0.0\nsamples = 1\nvalue = [0, 1]"] ;
716 -> 717 ;
718 [label="X[2] <= 3075866.5\ngini = 0.054\nsamples = 36\nvalue = [35, 1]"] ;
716 -> 718 ;
719 [label="X[2] <= 3021963.75\ngini = 0.1653\nsamples = 11\nvalue = [10, 1]"] ;
718 -> 719 ;
720 [label="gini = 0.0\nsamples = 10\nvalue = [10, 0]"] ;
719 -> 720 ;
721 [label="gini = 0.0\nsamples = 1\nvalue = [0, 1]"] ;
719 -> 721 ;
722 [label="gini = 0.0\nsamples = 25\nvalue = [25, 0]"] ;
718 -> 722 ;
723 [label="X[3] <= 101.9919\ngini = 0.3457\nsamples = 18\nvalue = [14, 4]"] ;
709 -> 723 ;
724 [label="gini = 0.0\nsamples = 10\nvalue = [10, 0]"] ;
723 -> 724 ;
725 [label="X[3] <= 104.5744\ngini = 0.5\nsamples = 8\nvalue = [4, 4]"] ;
723 -> 725 ;
726 [label="gini = 0.0\nsamples = 3\nvalue = [0, 3]"] ;
725 -> 726 ;
727 [label="X[2] <= 19278640.0\ngini = 0.32\nsamples = 5\nvalue = [4, 1]"] ;
725 -> 727 ;
728 [label="gini = 0.0\nsamples = 4\nvalue = [4, 0]"] ;
727 -> 728 ;
729 [label="gini = 0.0\nsamples = 1\nvalue = [0, 1]"] ;
727 -> 729 ;
730 [label="X[3] <= 101.3497\ngini = 0.4734\nsamples = 13\nvalue = [8, 5]"] ;
696 -> 730 ;
731 [label="X[2] <= 7414695.0\ngini = 0.4688\nsamples = 8\nvalue = [3, 5]"] ;
730 -> 731 ;
732 [label="gini = 0.0\nsamples = 4\nvalue = [0, 4]"] ;
731 -> 732 ;
733 [label="X[3] <= 99.8997\ngini = 0.375\nsamples = 4\nvalue = [3, 1]"] ;
731 -> 733 ;
734 [label="gini = 0.0\nsamples = 2\nvalue = [2, 0]"] ;
733 -> 734 ;
735 [label="X[2] <= 11755829.0\ngini = 0.5\nsamples = 2\nvalue = [1, 1]"] ;
733 -> 735 ;
736 [label="gini = 0.0\nsamples = 1\nvalue = [1, 0]"] ;
735 -> 736 ;
737 [label="gini = 0.0\nsamples = 1\nvalue = [0, 1]"] ;
735 -> 737 ;
738 [label="gini = 0.0\nsamples = 5\nvalue = [5, 0]"] ;
730 -> 738 ;
739 [label="gini = 0.0\nsamples = 1\nvalue = [0, 1]"] ;
561 -> 739 ;
740 [label="X[5] <= 2.5\ngini = 0.21\nsamples = 520\nvalue = [458, 62]"] ;
2 -> 740 ;
741 [label="X[6] <= 1106747.5\ngini = 0.4316\nsamples = 73\nvalue = [50, 23]"] ;
740 -> 741 ;
742 [label="X[2] <= 45152.6641\ngini = 0.4166\nsamples = 71\nvalue = [50, 21]"] ;
741 -> 742 ;
743 [label="X[1] <= -3.3333\ngini = 0.4444\nsamples = 6\nvalue = [2, 4]"] ;
742 -> 743 ;
744 [label="gini = 0.0\nsamples = 3\nvalue = [0, 3]"] ;
743 -> 744 ;
745 [label="X[6] <= 24304.75\ngini = 0.4444\nsamples = 3\nvalue = [2, 1]"] ;
743 -> 745 ;
746 [label="gini = 0.0\nsamples = 2\nvalue = [2, 0]"] ;
745 -> 746 ;
747 [label="gini = 0.0\nsamples = 1\nvalue = [0, 1]"] ;
745 -> 747 ;
748 [label="X[4] <= 0.5\ngini = 0.3863\nsamples = 65\nvalue = [48, 17]"] ;
742 -> 748 ;
749 [label="X[1] <= -21.0\ngini = 0.3537\nsamples = 61\nvalue = [47, 14]"] ;
748 -> 749 ;
750 [label="gini = 0.0\nsamples = 1\nvalue = [0, 1]"] ;
749 -> 750 ;
751 [label="X[1] <= -3.5\ngini = 0.3394\nsamples = 60\nvalue = [47, 13]"] ;
749 -> 751 ;
752 [label="X[2] <= 313517.5938\ngini = 0.2659\nsamples = 38\nvalue = [32, 6]"] ;
751 -> 752 ;
753 [label="gini = 0.0\nsamples = 18\nvalue = [18, 0]"] ;
752 -> 753 ;
754 [label="X[1] <= -7.5\ngini = 0.42\nsamples = 20\nvalue = [14, 6]"] ;
752 -> 754 ;
755 [label="gini = 0.0\nsamples = 5\nvalue = [5, 0]"] ;
754 -> 755 ;
756 [label="X[1] <= -5.5\ngini = 0.48\nsamples = 15\nvalue = [9, 6]"] ;
754 -> 756 ;
757 [label="X[6] <= 117357.0\ngini = 0.4688\nsamples = 8\nvalue = [3, 5]"] ;
756 -> 757 ;
758 [label="gini = 0.0\nsamples = 2\nvalue = [0, 2]"] ;
757 -> 758 ;
759 [label="X[1] <= -6.1667\ngini = 0.5\nsamples = 6\nvalue = [3, 3]"] ;
757 -> 759 ;
760 [label="gini = 0.0\nsamples = 1\nvalue = [1, 0]"] ;
759 -> 760 ;
761 [label="X[3] <= 105.2619\ngini = 0.48\nsamples = 5\nvalue = [2, 3]"] ;
759 -> 761 ;
762 [label="X[6] <= 168346.75\ngini = 0.4444\nsamples = 3\nvalue = [2, 1]"] ;
761 -> 762 ;
763 [label="gini = 0.0\nsamples = 1\nvalue = [0, 1]"] ;
762 -> 763 ;
764 [label="gini = 0.0\nsamples = 2\nvalue = [2, 0]"] ;
762 -> 764 ;
765 [label="gini = 0.0\nsamples = 2\nvalue = [0, 2]"] ;
761 -> 765 ;
766 [label="X[6] <= 212202.5\ngini = 0.2449\nsamples = 7\nvalue = [6, 1]"] ;
756 -> 766 ;
767 [label="X[3] <= 106.0811\ngini = 0.5\nsamples = 2\nvalue = [1, 1]"] ;
766 -> 767 ;
768 [label="gini = 0.0\nsamples = 1\nvalue = [0, 1]"] ;
767 -> 768 ;
769 [label="gini = 0.0\nsamples = 1\nvalue = [1, 0]"] ;
767 -> 769 ;
770 [label="gini = 0.0\nsamples = 5\nvalue = [5, 0]"] ;
766 -> 770 ;
771 [label="X[2] <= 202058.3438\ngini = 0.4339\nsamples = 22\nvalue = [15, 7]"] ;
751 -> 771 ;
772 [label="gini = 0.0\nsamples = 3\nvalue = [0, 3]"] ;
771 -> 772 ;
773 [label="X[3] <= 105.2619\ngini = 0.3324\nsamples = 19\nvalue = [15, 4]"] ;
771 -> 773 ;
774 [label="X[2] <= 238593.3438\ngini = 0.375\nsamples = 4\nvalue = [1, 3]"] ;
773 -> 774 ;
775 [label="gini = 0.0\nsamples = 1\nvalue = [1, 0]"] ;
774 -> 775 ;
776 [label="gini = 0.0\nsamples = 3\nvalue = [0, 3]"] ;
774 -> 776 ;
777 [label="X[6] <= 570322.0\ngini = 0.1244\nsamples = 15\nvalue = [14, 1]"] ;
773 -> 777 ;
778 [label="gini = 0.0\nsamples = 11\nvalue = [11, 0]"] ;
777 -> 778 ;
779 [label="X[6] <= 593676.5\ngini = 0.375\nsamples = 4\nvalue = [3, 1]"] ;
777 -> 779 ;
780 [label="gini = 0.0\nsamples = 1\nvalue = [0, 1]"] ;
779 -> 780 ;
781 [label="gini = 0.0\nsamples = 3\nvalue = [3, 0]"] ;
779 -> 781 ;
782 [label="X[1] <= -7.5\ngini = 0.375\nsamples = 4\nvalue = [1, 3]"] ;
748 -> 782 ;
783 [label="gini = 0.0\nsamples = 1\nvalue = [1, 0]"] ;
782 -> 783 ;
784 [label="gini = 0.0\nsamples = 3\nvalue = [0, 3]"] ;
782 -> 784 ;
785 [label="gini = 0.0\nsamples = 2\nvalue = [0, 2]"] ;
741 -> 785 ;
786 [label="X[3] <= 105.2031\ngini = 0.1593\nsamples = 447\nvalue = [408, 39]"] ;
740 -> 786 ;
787 [label="X[5] <= 208.0\ngini = 0.2989\nsamples = 82\nvalue = [67, 15]"] ;
786 -> 787 ;
788 [label="X[1] <= -1.1667\ngini = 0.2859\nsamples = 81\nvalue = [67, 14]"] ;
787 -> 788 ;
789 [label="X[5] <= 18.5\ngini = 0.2503\nsamples = 75\nvalue = [64, 11]"] ;
788 -> 789 ;
790 [label="X[1] <= -2.5\ngini = 0.3153\nsamples = 51\nvalue = [41, 10]"] ;
789 -> 790 ;
791 [label="X[5] <= 10.5\ngini = 0.3944\nsamples = 37\nvalue = [27, 10]"] ;
790 -> 791 ;
792 [label="X[6] <= 588007.0\ngini = 0.2268\nsamples = 23\nvalue = [20, 3]"] ;
791 -> 792 ;
793 [label="X[3] <= 105.1792\ngini = 0.1653\nsamples = 22\nvalue = [20, 2]"] ;
792 -> 793 ;
794 [label="X[6] <= 97321.7969\ngini = 0.4082\nsamples = 7\nvalue = [5, 2]"] ;
793 -> 794 ;
795 [label="gini = 0.0\nsamples = 4\nvalue = [4, 0]"] ;
794 -> 795 ;
796 [label="X[6] <= 284990.0\ngini = 0.4444\nsamples = 3\nvalue = [1, 2]"] ;
794 -> 796 ;
797 [label="gini = 0.0\nsamples = 2\nvalue = [0, 2]"] ;
796 -> 797 ;
798 [label="gini = 0.0\nsamples = 1\nvalue = [1, 0]"] ;
796 -> 798 ;
799 [label="gini = 0.0\nsamples = 15\nvalue = [15, 0]"] ;
793 -> 799 ;
800 [label="gini = 0.0\nsamples = 1\nvalue = [0, 1]"] ;
792 -> 800 ;
801 [label="X[2] <= 2216947.25\ngini = 0.5\nsamples = 14\nvalue = [7, 7]"] ;
791 -> 801 ;
802 [label="X[2] <= 549210.3125\ngini = 0.2778\nsamples = 6\nvalue = [1, 5]"] ;
801 -> 802 ;
803 [label="gini = 0.0\nsamples = 1\nvalue = [1, 0]"] ;
802 -> 803 ;
804 [label="gini = 0.0\nsamples = 5\nvalue = [0, 5]"] ;
802 -> 804 ;
805 [label="X[5] <= 17.0\ngini = 0.375\nsamples = 8\nvalue = [6, 2]"] ;
801 -> 805 ;
806 [label="X[1] <= -8.3333\ngini = 0.2449\nsamples = 7\nvalue = [6, 1]"] ;
805 -> 806 ;
807 [label="X[6] <= 199796.125\ngini = 0.5\nsamples = 2\nvalue = [1, 1]"] ;
806 -> 807 ;
808 [label="gini = 0.0\nsamples = 1\nvalue = [1, 0]"] ;
807 -> 808 ;
809 [label="gini = 0.0\nsamples = 1\nvalue = [0, 1]"] ;
807 -> 809 ;
810 [label="gini = 0.0\nsamples = 5\nvalue = [5, 0]"] ;
806 -> 810 ;
811 [label="gini = 0.0\nsamples = 1\nvalue = [0, 1]"] ;
805 -> 811 ;
812 [label="gini = 0.0\nsamples = 14\nvalue = [14, 0]"] ;
790 -> 812 ;
813 [label="X[6] <= 31995.8633\ngini = 0.0799\nsamples = 24\nvalue = [23, 1]"] ;
789 -> 813 ;
814 [label="X[2] <= 2508939.5\ngini = 0.4444\nsamples = 3\nvalue = [2, 1]"] ;
813 -> 814 ;
815 [label="gini = 0.0\nsamples = 2\nvalue = [2, 0]"] ;
814 -> 815 ;
816 [label="gini = 0.0\nsamples = 1\nvalue = [0, 1]"] ;
814 -> 816 ;
817 [label="gini = 0.0\nsamples = 21\nvalue = [21, 0]"] ;
813 -> 817 ;
818 [label="X[3] <= 105.1792\ngini = 0.5\nsamples = 6\nvalue = [3, 3]"] ;
788 -> 818 ;
819 [label="gini = 0.0\nsamples = 3\nvalue = [3, 0]"] ;
818 -> 819 ;
820 [label="gini = 0.0\nsamples = 3\nvalue = [0, 3]"] ;
818 -> 820 ;
821 [label="gini = 0.0\nsamples = 1\nvalue = [0, 1]"] ;
787 -> 821 ;
822 [label="X[6] <= 3583672.5\ngini = 0.1229\nsamples = 365\nvalue = [341, 24]"] ;
786 -> 822 ;
823 [label="X[4] <= 0.5\ngini = 0.1184\nsamples = 364\nvalue = [341, 23]"] ;
822 -> 823 ;
824 [label="X[1] <= -4.8333\ngini = 0.1142\nsamples = 362\nvalue = [340, 22]"] ;
823 -> 824 ;
825 [label="X[1] <= -8.8333\ngini = 0.0468\nsamples = 125\nvalue = [122, 3]"] ;
824 -> 825 ;
826 [label="X[6] <= 210824.0312\ngini = 0.2778\nsamples = 6\nvalue = [5, 1]"] ;
825 -> 826 ;
827 [label="gini = 0.0\nsamples = 4\nvalue = [4, 0]"] ;
826 -> 827 ;
828 [label="X[2] <= 1819792.125\ngini = 0.5\nsamples = 2\nvalue = [1, 1]"] ;
826 -> 828 ;
829 [label="gini = 0.0\nsamples = 1\nvalue = [0, 1]"] ;
828 -> 829 ;
830 [label="gini = 0.0\nsamples = 1\nvalue = [1, 0]"] ;
828 -> 830 ;
831 [label="X[6] <= 18208.1465\ngini = 0.033\nsamples = 119\nvalue = [117, 2]"] ;
825 -> 831 ;
832 [label="X[5] <= 18.0\ngini = 0.2449\nsamples = 7\nvalue = [6, 1]"] ;
831 -> 832 ;
833 [label="gini = 0.0\nsamples = 6\nvalue = [6, 0]"] ;
832 -> 833 ;
834 [label="gini = 0.0\nsamples = 1\nvalue = [0, 1]"] ;
832 -> 834 ;
835 [label="X[3] <= 106.1236\ngini = 0.0177\nsamples = 112\nvalue = [111, 1]"] ;
831 -> 835 ;
836 [label="gini = 0.0\nsamples = 87\nvalue = [87, 0]"] ;
835 -> 836 ;
837 [label="X[5] <= 6.5\ngini = 0.0768\nsamples = 25\nvalue = [24, 1]"] ;
835 -> 837 ;
838 [label="X[2] <= 935347.0\ngini = 0.2188\nsamples = 8\nvalue = [7, 1]"] ;
837 -> 838 ;
839 [label="gini = 0.0\nsamples = 6\nvalue = [6, 0]"] ;
838 -> 839 ;
840 [label="X[6] <= 198875.4219\ngini = 0.5\nsamples = 2\nvalue = [1, 1]"] ;
838 -> 840 ;
841 [label="gini = 0.0\nsamples = 1\nvalue = [0, 1]"] ;
840 -> 841 ;
842 [label="gini = 0.0\nsamples = 1\nvalue = [1, 0]"] ;
840 -> 842 ;
843 [label="gini = 0.0\nsamples = 17\nvalue = [17, 0]"] ;
837 -> 843 ;
844 [label="X[6] <= 506053.8438\ngini = 0.1475\nsamples = 237\nvalue = [218, 19]"] ;
824 -> 844 ;
845 [label="X[1] <= -3.5\ngini = 0.1374\nsamples = 229\nvalue = [212, 17]"] ;
844 -> 845 ;
846 [label="X[6] <= 241672.2812\ngini = 0.2024\nsamples = 70\nvalue = [62, 8]"] ;
845 -> 846 ;
847 [label="X[6] <= 237836.1719\ngini = 0.2604\nsamples = 52\nvalue = [44, 8]"] ;
846 -> 847 ;
848 [label="X[0] <= 1423.4551\ngini = 0.2368\nsamples = 51\nvalue = [44, 7]"] ;
847 -> 848 ;
849 [label="X[2] <= 237754.5\ngini = 0.5\nsamples = 4\nvalue = [2, 2]"] ;
848 -> 849 ;
850 [label="gini = 0.0\nsamples = 1\nvalue = [1, 0]"] ;
849 -> 850 ;
851 [label="X[1] <= -4.3333\ngini = 0.4444\nsamples = 3\nvalue = [1, 2]"] ;
849 -> 851 ;
852 [label="gini = 0.0\nsamples = 1\nvalue = [1, 0]"] ;
851 -> 852 ;
853 [label="gini = 0.0\nsamples = 2\nvalue = [0, 2]"] ;
851 -> 853 ;
854 [label="X[5] <= 24.5\ngini = 0.1901\nsamples = 47\nvalue = [42, 5]"] ;
848 -> 854 ;
855 [label="X[5] <= 4.5\ngini = 0.0644\nsamples = 30\nvalue = [29, 1]"] ;
854 -> 855 ;
856 [label="X[1] <= -3.8333\ngini = 0.2778\nsamples = 6\nvalue = [5, 1]"] ;
855 -> 856 ;
857 [label="gini = 0.0\nsamples = 4\nvalue = [4, 0]"] ;
856 -> 857 ;
858 [label="X[2] <= 502299.6875\ngini = 0.5\nsamples = 2\nvalue = [1, 1]"] ;
856 -> 858 ;
859 [label="gini = 0.0\nsamples = 1\nvalue = [0, 1]"] ;
858 -> 859 ;
860 [label="gini = 0.0\nsamples = 1\nvalue = [1, 0]"] ;
858 -> 860 ;
861 [label="gini = 0.0\nsamples = 24\nvalue = [24, 0]"] ;
855 -> 861 ;
862 [label="X[5] <= 30.0\ngini = 0.3599\nsamples = 17\nvalue = [13, 4]"] ;
854 -> 862 ;
863 [label="X[0] <= 1705.905\ngini = 0.375\nsamples = 4\nvalue = [1, 3]"] ;
862 -> 863 ;
864 [label="gini = 0.0\nsamples = 1\nvalue = [1, 0]"] ;
863 -> 864 ;
865 [label="gini = 0.0\nsamples = 3\nvalue = [0, 3]"] ;
863 -> 865 ;
866 [label="X[1] <= -4.5\ngini = 0.142\nsamples = 13\nvalue = [12, 1]"] ;
862 -> 866 ;
867 [label="gini = 0.0\nsamples = 1\nvalue = [0, 1]"] ;
866 -> 867 ;
868 [label="gini = 0.0\nsamples = 12\nvalue = [12, 0]"] ;
866 -> 868 ;
869 [label="gini = 0.0\nsamples = 1\nvalue = [0, 1]"] ;
847 -> 869 ;
870 [label="gini = 0.0\nsamples = 18\nvalue = [18, 0]"] ;
846 -> 870 ;
871 [label="X[6] <= 93491.0625\ngini = 0.1068\nsamples = 159\nvalue = [150, 9]"] ;
845 -> 871 ;
872 [label="gini = 0.0\nsamples = 53\nvalue = [53, 0]"] ;
871 -> 872 ;
873 [label="X[6] <= 95515.2812\ngini = 0.1554\nsamples = 106\nvalue = [97, 9]"] ;
871 -> 873 ;
874 [label="gini = 0.0\nsamples = 1\nvalue = [0, 1]"] ;
873 -> 874 ;
875 [label="X[6] <= 103025.9219\ngini = 0.1408\nsamples = 105\nvalue = [97, 8]"] ;
873 -> 875 ;
876 [label="X[3] <= 105.2619\ngini = 0.4082\nsamples = 7\nvalue = [5, 2]"] ;
875 -> 876 ;
877 [label="gini = 0.0\nsamples = 1\nvalue = [0, 1]"] ;
876 -> 877 ;
878 [label="X[5] <= 37.5\ngini = 0.2778\nsamples = 6\nvalue = [5, 1]"] ;
876 -> 878 ;
879 [label="gini = 0.0\nsamples = 5\nvalue = [5, 0]"] ;
878 -> 879 ;
880 [label="gini = 0.0\nsamples = 1\nvalue = [0, 1]"] ;
878 -> 880 ;
881 [label="X[2] <= 1905894.375\ngini = 0.115\nsamples = 98\nvalue = [92, 6]"] ;
875 -> 881 ;
882 [label="X[6] <= 250584.9062\ngini = 0.2055\nsamples = 43\nvalue = [38, 5]"] ;
881 -> 882 ;
883 [label="X[5] <= 10.5\ngini = 0.1049\nsamples = 36\nvalue = [34, 2]"] ;
882 -> 883 ;
884 [label="gini = 0.0\nsamples = 28\nvalue = [28, 0]"] ;
883 -> 884 ;
885 [label="X[2] <= 1197487.5\ngini = 0.375\nsamples = 8\nvalue = [6, 2]"] ;
883 -> 885 ;
886 [label="gini = 0.0\nsamples = 1\nvalue = [0, 1]"] ;
885 -> 886 ;
887 [label="X[0] <= 1497.5549\ngini = 0.2449\nsamples = 7\nvalue = [6, 1]"] ;
885 -> 887 ;
888 [label="gini = 0.0\nsamples = 1\nvalue = [0, 1]"] ;
887 -> 888 ;
889 [label="gini = 0.0\nsamples = 6\nvalue = [6, 0]"] ;
887 -> 889 ;
890 [label="X[3] <= 105.696\ngini = 0.4898\nsamples = 7\nvalue = [4, 3]"] ;
882 -> 890 ;
891 [label="gini = 0.0\nsamples = 3\nvalue = [3, 0]"] ;
890 -> 891 ;
892 [label="X[5] <= 7.0\ngini = 0.375\nsamples = 4\nvalue = [1, 3]"] ;
890 -> 892 ;
893 [label="gini = 0.0\nsamples = 3\nvalue = [0, 3]"] ;
892 -> 893 ;
894 [label="gini = 0.0\nsamples = 1\nvalue = [1, 0]"] ;
892 -> 894 ;
895 [label="X[1] <= -1.1667\ngini = 0.0357\nsamples = 55\nvalue = [54, 1]"] ;
881 -> 895 ;
896 [label="gini = 0.0\nsamples = 41\nvalue = [41, 0]"] ;
895 -> 896 ;
897 [label="X[0] <= 1749.52\ngini = 0.1327\nsamples = 14\nvalue = [13, 1]"] ;
895 -> 897 ;
898 [label="gini = 0.0\nsamples = 11\nvalue = [11, 0]"] ;
897 -> 898 ;
899 [label="X[5] <= 30.5\ngini = 0.4444\nsamples = 3\nvalue = [2, 1]"] ;
897 -> 899 ;
900 [label="gini = 0.0\nsamples = 1\nvalue = [0, 1]"] ;
899 -> 900 ;
901 [label="gini = 0.0\nsamples = 2\nvalue = [2, 0]"] ;
899 -> 901 ;
902 [label="X[2] <= 4062883.5\ngini = 0.375\nsamples = 8\nvalue = [6, 2]"] ;
844 -> 902 ;
903 [label="gini = 0.0\nsamples = 1\nvalue = [0, 1]"] ;
902 -> 903 ;
904 [label="X[6] <= 522807.625\ngini = 0.2449\nsamples = 7\nvalue = [6, 1]"] ;
902 -> 904 ;
905 [label="gini = 0.0\nsamples = 1\nvalue = [0, 1]"] ;
904 -> 905 ;
906 [label="gini = 0.0\nsamples = 6\nvalue = [6, 0]"] ;
904 -> 906 ;
907 [label="X[2] <= 1483547.5\ngini = 0.5\nsamples = 2\nvalue = [1, 1]"] ;
823 -> 907 ;
908 [label="gini = 0.0\nsamples = 1\nvalue = [1, 0]"] ;
907 -> 908 ;
909 [label="gini = 0.0\nsamples = 1\nvalue = [0, 1]"] ;
907 -> 909 ;
910 [label="gini = 0.0\nsamples = 1\nvalue = [0, 1]"] ;
822 -> 910 ;
911 [label="X[5] <= 0.5\ngini = 0.3433\nsamples = 2981\nvalue = [2325, 656]"] ;
1 -> 911 ;
912 [label="X[0] <= 1273.4299\ngini = 0.4995\nsamples = 221\nvalue = [114, 107]"] ;
911 -> 912 ;
913 [label="X[3] <= 92.5134\ngini = 0.4475\nsamples = 145\nvalue = [96, 49]"] ;
912 -> 913 ;
914 [label="X[6] <= 6625.0\ngini = 0.4995\nsamples = 31\nvalue = [15, 16]"] ;
913 -> 914 ;
915 [label="X[1] <= 2.5\ngini = 0.4444\nsamples = 24\nvalue = [8, 16]"] ;
914 -> 915 ;
916 [label="X[0] <= 1100.0601\ngini = 0.4234\nsamples = 23\nvalue = [7, 16]"] ;
915 -> 916 ;
917 [label="X[2] <= 366295.8125\ngini = 0.4444\nsamples = 21\nvalue = [7, 14]"] ;
916 -> 917 ;
918 [label="X[3] <= 91.7061\ngini = 0.455\nsamples = 20\nvalue = [7, 13]"] ;
917 -> 918 ;
919 [label="X[0] <= 811.875\ngini = 0.4861\nsamples = 12\nvalue = [5, 7]"] ;
918 -> 919 ;
920 [label="X[0] <= 766.48\ngini = 0.375\nsamples = 4\nvalue = [1, 3]"] ;
919 -> 920 ;
921 [label="gini = 0.4444\nsamples = 3\nvalue = [1, 2]"] ;
920 -> 921 ;
922 [label="gini = 0.0\nsamples = 1\nvalue = [0, 1]"] ;
920 -> 922 ;
923 [label="X[0] <= 923.25\ngini = 0.5\nsamples = 8\nvalue = [4, 4]"] ;
919 -> 923 ;
924 [label="gini = 0.5\nsamples = 4\nvalue = [2, 2]"] ;
923 -> 924 ;
925 [label="X[0] <= 1058.125\ngini = 0.5\nsamples = 4\nvalue = [2, 2]"] ;
923 -> 925 ;
926 [label="gini = 0.5\nsamples = 2\nvalue = [1, 1]"] ;
925 -> 926 ;
927 [label="gini = 0.5\nsamples = 2\nvalue = [1, 1]"] ;
925 -> 927 ;
928 [label="gini = 0.375\nsamples = 8\nvalue = [2, 6]"] ;
918 -> 928 ;
929 [label="gini = 0.0\nsamples = 1\nvalue = [0, 1]"] ;
917 -> 929 ;
930 [label="gini = 0.0\nsamples = 2\nvalue = [0, 2]"] ;
916 -> 930 ;
931 [label="gini = 0.0\nsamples = 1\nvalue = [1, 0]"] ;
915 -> 931 ;
932 [label="gini = 0.0\nsamples = 7\nvalue = [7, 0]"] ;
914 -> 932 ;
933 [label="X[3] <= 102.3376\ngini = 0.4114\nsamples = 114\nvalue = [81, 33]"] ;
913 -> 933 ;
934 [label="X[3] <= 97.4191\ngini = 0.3911\nsamples = 105\nvalue = [77, 28]"] ;
933 -> 934 ;
935 [label="X[0] <= 1040.02\ngini = 0.1528\nsamples = 12\nvalue = [11, 1]"] ;
934 -> 935 ;
936 [label="X[3] <= 95.695\ngini = 0.4444\nsamples = 3\nvalue = [2, 1]"] ;
935 -> 936 ;
937 [label="gini = 0.5\nsamples = 2\nvalue = [1, 1]"] ;
936 -> 937 ;
938 [label="gini = 0.0\nsamples = 1\nvalue = [1, 0]"] ;
936 -> 938 ;
939 [label="gini = 0.0\nsamples = 9\nvalue = [9, 0]"] ;
935 -> 939 ;
940 [label="X[0] <= 1258.5249\ngini = 0.4121\nsamples = 93\nvalue = [66, 27]"] ;
934 -> 940 ;
941 [label="gini = 0.0\nsamples = 1\nvalue = [0, 1]"] ;
940 -> 941 ;
942 [label="gini = 0.4055\nsamples = 92\nvalue = [66, 26]"] ;
940 -> 942 ;
943 [label="X[6] <= -141345.5\ngini = 0.4938\nsamples = 9\nvalue = [4, 5]"] ;
933 -> 943 ;
944 [label="gini = 0.0\nsamples = 1\nvalue = [0, 1]"] ;
943 -> 944 ;
945 [label="gini = 0.5\nsamples = 8\nvalue = [4, 4]"] ;
943 -> 945 ;
946 [label="X[2] <= 885327.875\ngini = 0.3615\nsamples = 76\nvalue = [18, 58]"] ;
912 -> 946 ;
947 [label="X[3] <= 103.0342\ngini = 0.2744\nsamples = 67\nvalue = [11, 56]"] ;
946 -> 947 ;
948 [label="X[3] <= 96.2197\ngini = 0.1388\nsamples = 40\nvalue = [3, 37]"] ;
947 -> 948 ;
949 [label="gini = 0.0\nsamples = 1\nvalue = [1, 0]"] ;
948 -> 949 ;
950 [label="X[0] <= 1506.395\ngini = 0.0973\nsamples = 39\nvalue = [2, 37]"] ;
948 -> 950 ;
951 [label="gini = 0.0\nsamples = 29\nvalue = [0, 29]"] ;
950 -> 951 ;
952 [label="X[0] <= 1541.9351\ngini = 0.32\nsamples = 10\nvalue = [2, 8]"] ;
950 -> 952 ;
953 [label="gini = 0.0\nsamples = 1\nvalue = [1, 0]"] ;
952 -> 953 ;
954 [label="X[0] <= 1618.51\ngini = 0.1975\nsamples = 9\nvalue = [1, 8]"] ;
952 -> 954 ;
955 [label="X[3] <= 101.7262\ngini = 0.4444\nsamples = 3\nvalue = [1, 2]"] ;
954 -> 955 ;
956 [label="gini = 0.0\nsamples = 1\nvalue = [0, 1]"] ;
955 -> 956 ;
957 [label="gini = 0.5\nsamples = 2\nvalue = [1, 1]"] ;
955 -> 957 ;
958 [label="gini = 0.0\nsamples = 6\nvalue = [0, 6]"] ;
954 -> 958 ;
959 [label="X[3] <= 103.4723\ngini = 0.417\nsamples = 27\nvalue = [8, 19]"] ;
947 -> 959 ;
960 [label="X[0] <= 1648.845\ngini = 0.2778\nsamples = 6\nvalue = [5, 1]"] ;
959 -> 960 ;
961 [label="gini = 0.0\nsamples = 4\nvalue = [4, 0]"] ;
960 -> 961 ;
962 [label="gini = 0.5\nsamples = 2\nvalue = [1, 1]"] ;
960 -> 962 ;
963 [label="X[3] <= 105.6865\ngini = 0.2449\nsamples = 21\nvalue = [3, 18]"] ;
959 -> 963 ;
964 [label="X[0] <= 1492.86\ngini = 0.18\nsamples = 20\nvalue = [2, 18]"] ;
963 -> 964 ;
965 [label="gini = 0.0\nsamples = 14\nvalue = [0, 14]"] ;
964 -> 965 ;
966 [label="X[0] <= 1766.995\ngini = 0.4444\nsamples = 6\nvalue = [2, 4]"] ;
964 -> 966 ;
967 [label="X[3] <= 105.1455\ngini = 0.5\nsamples = 4\nvalue = [2, 2]"] ;
966 -> 967 ;
968 [label="gini = 0.5\nsamples = 2\nvalue = [1, 1]"] ;
967 -> 968 ;
969 [label="gini = 0.5\nsamples = 2\nvalue = [1, 1]"] ;
967 -> 969 ;
970 [label="gini = 0.0\nsamples = 2\nvalue = [0, 2]"] ;
966 -> 970 ;
971 [label="gini = 0.0\nsamples = 1\nvalue = [1, 0]"] ;
963 -> 971 ;
972 [label="X[4] <= 0.5\ngini = 0.3457\nsamples = 9\nvalue = [7, 2]"] ;
946 -> 972 ;
973 [label="gini = 0.0\nsamples = 6\nvalue = [6, 0]"] ;
972 -> 973 ;
974 [label="X[0] <= 1406.7\ngini = 0.4444\nsamples = 3\nvalue = [1, 2]"] ;
972 -> 974 ;
975 [label="gini = 0.0\nsamples = 2\nvalue = [0, 2]"] ;
974 -> 975 ;
976 [label="gini = 0.0\nsamples = 1\nvalue = [1, 0]"] ;
974 -> 976 ;
977 [label="X[1] <= 4.1667\ngini = 0.3187\nsamples = 2760\nvalue = [2211, 549]"] ;
911 -> 977 ;
978 [label="X[4] <= 0.5\ngini = 0.2608\nsamples = 1706\nvalue = [1443, 263]"] ;
977 -> 978 ;
979 [label="X[1] <= 1.8333\ngini = 0.2446\nsamples = 1556\nvalue = [1334, 222]"] ;
978 -> 979 ;
980 [label="X[6] <= 1776944.75\ngini = 0.2041\nsamples = 841\nvalue = [744, 97]"] ;
979 -> 980 ;
981 [label="X[2] <= 3034929.5\ngini = 0.1967\nsamples = 832\nvalue = [740, 92]"] ;
980 -> 981 ;
982 [label="X[2] <= 2916186.0\ngini = 0.2204\nsamples = 579\nvalue = [506, 73]"] ;
981 -> 982 ;
983 [label="X[6] <= 1273008.25\ngini = 0.2098\nsamples = 571\nvalue = [503, 68]"] ;
982 -> 983 ;
984 [label="X[0] <= 1174.99\ngini = 0.2057\nsamples = 567\nvalue = [501, 66]"] ;
983 -> 984 ;
985 [label="X[2] <= 1270913.125\ngini = 0.1244\nsamples = 150\nvalue = [140, 10]"] ;
984 -> 985 ;
986 [label="X[2] <= 311317.8125\ngini = 0.0883\nsamples = 108\nvalue = [103, 5]"] ;
985 -> 986 ;
987 [label="X[2] <= 280686.1875\ngini = 0.213\nsamples = 33\nvalue = [29, 4]"] ;
986 -> 987 ;
988 [label="X[2] <= 226738.1562\ngini = 0.0689\nsamples = 28\nvalue = [27, 1]"] ;
987 -> 988 ;
989 [label="gini = 0.0\nsamples = 21\nvalue = [21, 0]"] ;
988 -> 989 ;
990 [label="X[2] <= 228898.3438\ngini = 0.2449\nsamples = 7\nvalue = [6, 1]"] ;
988 -> 990 ;
991 [label="gini = 0.0\nsamples = 1\nvalue = [0, 1]"] ;
990 -> 991 ;
992 [label="gini = 0.0\nsamples = 6\nvalue = [6, 0]"] ;
990 -> 992 ;
993 [label="X[3] <= 94.1837\ngini = 0.48\nsamples = 5\nvalue = [2, 3]"] ;
987 -> 993 ;
994 [label="gini = 0.0\nsamples = 2\nvalue = [2, 0]"] ;
993 -> 994 ;
995 [label="gini = 0.0\nsamples = 3\nvalue = [0, 3]"] ;
993 -> 995 ;
996 [label="X[0] <= 849.345\ngini = 0.0263\nsamples = 75\nvalue = [74, 1]"] ;
986 -> 996 ;
997 [label="X[6] <= 105111.625\ngini = 0.18\nsamples = 10\nvalue = [9, 1]"] ;
996 -> 997 ;
998 [label="gini = 0.0\nsamples = 7\nvalue = [7, 0]"] ;
997 -> 998 ;
999 [label="X[0] <= 811.875\ngini = 0.4444\nsamples = 3\nvalue = [2, 1]"] ;
997 -> 999 ;
1000 [label="gini = 0.0\nsamples = 2\nvalue = [2, 0]"] ;
999 -> 1000 ;
1001 [label="gini = 0.0\nsamples = 1\nvalue = [0, 1]"] ;
999 -> 1001 ;
1002 [label="gini = 0.0\nsamples = 65\nvalue = [65, 0]"] ;
996 -> 1002 ;
1003 [label="X[5] <= 1.5\ngini = 0.2098\nsamples = 42\nvalue = [37, 5]"] ;
985 -> 1003 ;
1004 [label="gini = 0.0\nsamples = 2\nvalue = [0, 2]"] ;
1003 -> 1004 ;
1005 [label="X[2] <= 1296700.0\ngini = 0.1388\nsamples = 40\nvalue = [37, 3]"] ;
1003 -> 1005 ;
1006 [label="gini = 0.0\nsamples = 1\nvalue = [0, 1]"] ;
1005 -> 1006 ;
1007 [label="X[3] <= 89.0027\ngini = 0.0973\nsamples = 39\nvalue = [37, 2]"] ;
1005 -> 1007 ;
1008 [label="X[5] <= 18.0\ngini = 0.4444\nsamples = 3\nvalue = [2, 1]"] ;
1007 -> 1008 ;
1009 [label="gini = 0.0\nsamples = 1\nvalue = [0, 1]"] ;
1008 -> 1009 ;
1010 [label="gini = 0.0\nsamples = 2\nvalue = [2, 0]"] ;
1008 -> 1010 ;
1011 [label="X[0] <= 1109.7949\ngini = 0.054\nsamples = 36\nvalue = [35, 1]"] ;
1007 -> 1011 ;
1012 [label="gini = 0.0\nsamples = 26\nvalue = [26, 0]"] ;
1011 -> 1012 ;
1013 [label="X[0] <= 1123.26\ngini = 0.18\nsamples = 10\nvalue = [9, 1]"] ;
1011 -> 1013 ;
1014 [label="X[5] <= 13.5\ngini = 0.4444\nsamples = 3\nvalue = [2, 1]"] ;
1013 -> 1014 ;
1015 [label="gini = 0.0\nsamples = 1\nvalue = [1, 0]"] ;
1014 -> 1015 ;
1016 [label="X[5] <= 17.5\ngini = 0.5\nsamples = 2\nvalue = [1, 1]"] ;
1014 -> 1016 ;
1017 [label="gini = 0.0\nsamples = 1\nvalue = [0, 1]"] ;
1016 -> 1017 ;
1018 [label="gini = 0.0\nsamples = 1\nvalue = [1, 0]"] ;
1016 -> 1018 ;
1019 [label="gini = 0.0\nsamples = 7\nvalue = [7, 0]"] ;
1013 -> 1019 ;
1020 [label="X[2] <= 141971.5312\ngini = 0.2325\nsamples = 417\nvalue = [361, 56]"] ;
984 -> 1020 ;
1021 [label="X[0] <= 1382.455\ngini = 0.4132\nsamples = 24\nvalue = [17, 7]"] ;
1020 -> 1021 ;
1022 [label="X[1] <= 1.1667\ngini = 0.1327\nsamples = 14\nvalue = [13, 1]"] ;
1021 -> 1022 ;
1023 [label="gini = 0.0\nsamples = 10\nvalue = [10, 0]"] ;
1022 -> 1023 ;
1024 [label="X[5] <= 5.0\ngini = 0.375\nsamples = 4\nvalue = [3, 1]"] ;
1022 -> 1024 ;
1025 [label="gini = 0.0\nsamples = 2\nvalue = [2, 0]"] ;
1024 -> 1025 ;
1026 [label="X[0] <= 1274.9399\ngini = 0.5\nsamples = 2\nvalue = [1, 1]"] ;
1024 -> 1026 ;
1027 [label="gini = 0.0\nsamples = 1\nvalue = [0, 1]"] ;
1026 -> 1027 ;
1028 [label="gini = 0.0\nsamples = 1\nvalue = [1, 0]"] ;
1026 -> 1028 ;
1029 [label="X[2] <= 57770.3086\ngini = 0.48\nsamples = 10\nvalue = [4, 6]"] ;
1021 -> 1029 ;
1030 [label="X[0] <= 1406.27\ngini = 0.32\nsamples = 5\nvalue = [4, 1]"] ;
1029 -> 1030 ;
1031 [label="gini = 0.0\nsamples = 1\nvalue = [0, 1]"] ;
1030 -> 1031 ;
1032 [label="gini = 0.0\nsamples = 4\nvalue = [4, 0]"] ;
1030 -> 1032 ;
1033 [label="gini = 0.0\nsamples = 5\nvalue = [0, 5]"] ;
1029 -> 1033 ;
1034 [label="X[6] <= 62816.3125\ngini = 0.2183\nsamples = 393\nvalue = [344, 49]"] ;
1020 -> 1034 ;
1035 [label="X[3] <= 96.4621\ngini = 0.0655\nsamples = 59\nvalue = [57, 2]"] ;
1034 -> 1035 ;
1036 [label="X[3] <= 96.2197\ngini = 0.4444\nsamples = 6\nvalue = [4, 2]"] ;
1035 -> 1036 ;
1037 [label="gini = 0.0\nsamples = 4\nvalue = [4, 0]"] ;
1036 -> 1037 ;
1038 [label="gini = 0.0\nsamples = 2\nvalue = [0, 2]"] ;
1036 -> 1038 ;
1039 [label="gini = 0.0\nsamples = 53\nvalue = [53, 0]"] ;
1035 -> 1039 ;
1040 [label="X[6] <= 71967.4844\ngini = 0.2418\nsamples = 334\nvalue = [287, 47]"] ;
1034 -> 1040 ;
1041 [label="X[2] <= 766545.25\ngini = 0.455\nsamples = 20\nvalue = [13, 7]"] ;
1040 -> 1041 ;
1042 [label="X[6] <= 71600.4688\ngini = 0.18\nsamples = 10\nvalue = [9, 1]"] ;
1041 -> 1042 ;
1043 [label="gini = 0.0\nsamples = 9\nvalue = [9, 0]"] ;
1042 -> 1043 ;
1044 [label="gini = 0.0\nsamples = 1\nvalue = [0, 1]"] ;
1042 -> 1044 ;
1045 [label="X[2] <= 1406226.25\ngini = 0.48\nsamples = 10\nvalue = [4, 6]"] ;
1041 -> 1045 ;
1046 [label="gini = 0.0\nsamples = 4\nvalue = [0, 4]"] ;
1045 -> 1046 ;
1047 [label="X[3] <= 96.1615\ngini = 0.4444\nsamples = 6\nvalue = [4, 2]"] ;
1045 -> 1047 ;
1048 [label="gini = 0.0\nsamples = 1\nvalue = [0, 1]"] ;
1047 -> 1048 ;
1049 [label="X[3] <= 105.1731\ngini = 0.32\nsamples = 5\nvalue = [4, 1]"] ;
1047 -> 1049 ;
1050 [label="gini = 0.0\nsamples = 4\nvalue = [4, 0]"] ;
1049 -> 1050 ;
1051 [label="gini = 0.0\nsamples = 1\nvalue = [0, 1]"] ;
1049 -> 1051 ;
1052 [label="X[6] <= 93541.5703\ngini = 0.2223\nsamples = 314\nvalue = [274, 40]"] ;
1040 -> 1052 ;
1053 [label="X[3] <= 105.4458\ngini = 0.0981\nsamples = 58\nvalue = [55, 3]"] ;
1052 -> 1053 ;
1054 [label="X[5] <= 2.0\ngini = 0.0677\nsamples = 57\nvalue = [55, 2]"] ;
1053 -> 1054 ;
1055 [label="gini = 0.0\nsamples = 1\nvalue = [0, 1]"] ;
1054 -> 1055 ;
1056 [label="X[2] <= 2783395.0\ngini = 0.0351\nsamples = 56\nvalue = [55, 1]"] ;
1054 -> 1056 ;
1057 [label="gini = 0.0\nsamples = 53\nvalue = [53, 0]"] ;
1056 -> 1057 ;
1058 [label="X[2] <= 2830390.0\ngini = 0.4444\nsamples = 3\nvalue = [2, 1]"] ;
1056 -> 1058 ;
1059 [label="gini = 0.0\nsamples = 1\nvalue = [0, 1]"] ;
1058 -> 1059 ;
1060 [label="gini = 0.0\nsamples = 2\nvalue = [2, 0]"] ;
1058 -> 1060 ;
1061 [label="gini = 0.0\nsamples = 1\nvalue = [0, 1]"] ;
1053 -> 1061 ;
1062 [label="X[6] <= 214512.5\ngini = 0.2473\nsamples = 256\nvalue = [219, 37]"] ;
1052 -> 1062 ;
1063 [label="X[6] <= 170525.5938\ngini = 0.3275\nsamples = 126\nvalue = [100, 26]"] ;
1062 -> 1063 ;
1064 [label="X[3] <= 95.8557\ngini = 0.2682\nsamples = 94\nvalue = [79, 15]"] ;
1063 -> 1064 ;
1065 [label="gini = 0.0\nsamples = 2\nvalue = [0, 2]"] ;
1064 -> 1065 ;
1066 [label="X[6] <= 93733.0156\ngini = 0.2427\nsamples = 92\nvalue = [79, 13]"] ;
1064 -> 1066 ;
1067 [label="gini = 0.0\nsamples = 1\nvalue = [0, 1]"] ;
1066 -> 1067 ;
1068 [label="X[6] <= 117022.3203\ngini = 0.229\nsamples = 91\nvalue = [79, 12]"] ;
1066 -> 1068 ;
1069 [label="X[6] <= 111326.3828\ngini = 0.3427\nsamples = 41\nvalue = [32, 9]"] ;
1068 -> 1069 ;
1070 [label="X[2] <= 474358.1562\ngini = 0.2449\nsamples = 35\nvalue = [30, 5]"] ;
1069 -> 1070 ;
1071 [label="X[0] <= 1352.1\ngini = 0.48\nsamples = 5\nvalue = [2, 3]"] ;
1070 -> 1071 ;
1072 [label="gini = 0.0\nsamples = 2\nvalue = [0, 2]"] ;
1071 -> 1072 ;
1073 [label="X[3] <= 105.2031\ngini = 0.4444\nsamples = 3\nvalue = [2, 1]"] ;
1071 -> 1073 ;
1074 [label="gini = 0.0\nsamples = 2\nvalue = [2, 0]"] ;
1073 -> 1074 ;
1075 [label="gini = 0.0\nsamples = 1\nvalue = [0, 1]"] ;
1073 -> 1075 ;
1076 [label="X[1] <= 1.5\ngini = 0.1244\nsamples = 30\nvalue = [28, 2]"] ;
1070 -> 1076 ;
1077 [label="gini = 0.0\nsamples = 24\nvalue = [24, 0]"] ;
1076 -> 1077 ;
1078 [label="X[0] <= 1427.21\ngini = 0.4444\nsamples = 6\nvalue = [4, 2]"] ;
1076 -> 1078 ;
1079 [label="X[6] <= 103898.6562\ngini = 0.4444\nsamples = 3\nvalue = [1, 2]"] ;
1078 -> 1079 ;
1080 [label="gini = 0.0\nsamples = 2\nvalue = [0, 2]"] ;
1079 -> 1080 ;
1081 [label="gini = 0.0\nsamples = 1\nvalue = [1, 0]"] ;
1079 -> 1081 ;
1082 [label="gini = 0.0\nsamples = 3\nvalue = [3, 0]"] ;
1078 -> 1082 ;
1083 [label="X[3] <= 99.7484\ngini = 0.4444\nsamples = 6\nvalue = [2, 4]"] ;
1069 -> 1083 ;
1084 [label="X[1] <= 1.5\ngini = 0.4444\nsamples = 3\nvalue = [2, 1]"] ;
1083 -> 1084 ;
1085 [label="gini = 0.0\nsamples = 2\nvalue = [2, 0]"] ;
1084 -> 1085 ;
1086 [label="gini = 0.0\nsamples = 1\nvalue = [0, 1]"] ;
1084 -> 1086 ;
1087 [label="gini = 0.0\nsamples = 3\nvalue = [0, 3]"] ;
1083 -> 1087 ;
1088 [label="X[0] <= 1307.075\ngini = 0.1128\nsamples = 50\nvalue = [47, 3]"] ;
1068 -> 1088 ;
1089 [label="X[6] <= 160301.0\ngini = 0.3967\nsamples = 11\nvalue = [8, 3]"] ;
1088 -> 1089 ;
1090 [label="X[0] <= 1298.05\ngini = 0.32\nsamples = 10\nvalue = [8, 2]"] ;
1089 -> 1090 ;
1091 [label="X[3] <= 98.3453\ngini = 0.1975\nsamples = 9\nvalue = [8, 1]"] ;
1090 -> 1091 ;
1092 [label="gini = 0.0\nsamples = 6\nvalue = [6, 0]"] ;
1091 -> 1092 ;
1093 [label="X[2] <= 588487.125\ngini = 0.4444\nsamples = 3\nvalue = [2, 1]"] ;
1091 -> 1093 ;
1094 [label="gini = 0.0\nsamples = 1\nvalue = [0, 1]"] ;
1093 -> 1094 ;
1095 [label="gini = 0.0\nsamples = 2\nvalue = [2, 0]"] ;
1093 -> 1095 ;
1096 [label="gini = 0.0\nsamples = 1\nvalue = [0, 1]"] ;
1090 -> 1096 ;
1097 [label="gini = 0.0\nsamples = 1\nvalue = [0, 1]"] ;
1089 -> 1097 ;
1098 [label="gini = 0.0\nsamples = 39\nvalue = [39, 0]"] ;
1088 -> 1098 ;
1099 [label="X[2] <= 1015920.375\ngini = 0.4512\nsamples = 32\nvalue = [21, 11]"] ;
1063 -> 1099 ;
1100 [label="X[5] <= 1.5\ngini = 0.42\nsamples = 10\nvalue = [3, 7]"] ;
1099 -> 1100 ;
1101 [label="gini = 0.0\nsamples = 3\nvalue = [3, 0]"] ;
1100 -> 1101 ;
1102 [label="gini = 0.0\nsamples = 7\nvalue = [0, 7]"] ;
1100 -> 1102 ;
1103 [label="X[5] <= 14.0\ngini = 0.2975\nsamples = 22\nvalue = [18, 4]"] ;
1099 -> 1103 ;
1104 [label="X[2] <= 1445404.75\ngini = 0.2449\nsamples = 21\nvalue = [18, 3]"] ;
1103 -> 1104 ;
1105 [label="gini = 0.0\nsamples = 10\nvalue = [10, 0]"] ;
1104 -> 1105 ;
1106 [label="X[2] <= 1766405.375\ngini = 0.3967\nsamples = 11\nvalue = [8, 3]"] ;
1104 -> 1106 ;
1107 [label="X[3] <= 99.0409\ngini = 0.375\nsamples = 4\nvalue = [1, 3]"] ;
1106 -> 1107 ;
1108 [label="gini = 0.0\nsamples = 1\nvalue = [1, 0]"] ;
1107 -> 1108 ;
1109 [label="gini = 0.0\nsamples = 3\nvalue = [0, 3]"] ;
1107 -> 1109 ;
1110 [label="gini = 0.0\nsamples = 7\nvalue = [7, 0]"] ;
1106 -> 1110 ;
1111 [label="gini = 0.0\nsamples = 1\nvalue = [0, 1]"] ;
1103 -> 1111 ;
1112 [label="X[0] <= 1490.24\ngini = 0.1549\nsamples = 130\nvalue = [119, 11]"] ;
1062 -> 1112 ;
1113 [label="X[0] <= 1414.17\ngini = 0.2231\nsamples = 86\nvalue = [75, 11]"] ;
1112 -> 1113 ;
1114 [label="X[2] <= 2773052.75\ngini = 0.1362\nsamples = 68\nvalue = [63, 5]"] ;
1113 -> 1114 ;
1115 [label="X[1] <= 0.5\ngini = 0.1123\nsamples = 67\nvalue = [63, 4]"] ;
1114 -> 1115 ;
1116 [label="X[3] <= 99.1683\ngini = 0.2778\nsamples = 24\nvalue = [20, 4]"] ;
1115 -> 1116 ;
1117 [label="gini = 0.0\nsamples = 10\nvalue = [10, 0]"] ;
1116 -> 1117 ;
1118 [label="X[3] <= 99.8392\ngini = 0.4082\nsamples = 14\nvalue = [10, 4]"] ;
1116 -> 1118 ;
1119 [label="gini = 0.0\nsamples = 2\nvalue = [0, 2]"] ;
1118 -> 1119 ;
1120 [label="X[6] <= 264804.8125\ngini = 0.2778\nsamples = 12\nvalue = [10, 2]"] ;
1118 -> 1120 ;
1121 [label="gini = 0.0\nsamples = 7\nvalue = [7, 0]"] ;
1120 -> 1121 ;
1122 [label="X[3] <= 102.7482\ngini = 0.48\nsamples = 5\nvalue = [3, 2]"] ;
1120 -> 1122 ;
1123 [label="gini = 0.0\nsamples = 2\nvalue = [2, 0]"] ;
1122 -> 1123 ;
1124 [label="X[6] <= 709229.625\ngini = 0.4444\nsamples = 3\nvalue = [1, 2]"] ;
1122 -> 1124 ;
1125 [label="gini = 0.0\nsamples = 2\nvalue = [0, 2]"] ;
1124 -> 1125 ;
1126 [label="gini = 0.0\nsamples = 1\nvalue = [1, 0]"] ;
1124 -> 1126 ;
1127 [label="gini = 0.0\nsamples = 43\nvalue = [43, 0]"] ;
1115 -> 1127 ;
1128 [label="gini = 0.0\nsamples = 1\nvalue = [0, 1]"] ;
1114 -> 1128 ;
1129 [label="X[6] <= 602366.625\ngini = 0.4444\nsamples = 18\nvalue = [12, 6]"] ;
1113 -> 1129 ;
1130 [label="X[3] <= 105.1062\ngini = 0.375\nsamples = 16\nvalue = [12, 4]"] ;
1129 -> 1130 ;
1131 [label="X[1] <= 0.1667\ngini = 0.4938\nsamples = 9\nvalue = [5, 4]"] ;
1130 -> 1131 ;
1132 [label="gini = 0.0\nsamples = 2\nvalue = [0, 2]"] ;
1131 -> 1132 ;
1133 [label="X[5] <= 8.5\ngini = 0.4082\nsamples = 7\nvalue = [5, 2]"] ;
1131 -> 1133 ;
1134 [label="X[2] <= 688622.6875\ngini = 0.2778\nsamples = 6\nvalue = [5, 1]"] ;
1133 -> 1134 ;
1135 [label="gini = 0.0\nsamples = 1\nvalue = [0, 1]"] ;
1134 -> 1135 ;
1136 [label="gini = 0.0\nsamples = 5\nvalue = [5, 0]"] ;
1134 -> 1136 ;
1137 [label="gini = 0.0\nsamples = 1\nvalue = [0, 1]"] ;
1133 -> 1137 ;
1138 [label="gini = 0.0\nsamples = 7\nvalue = [7, 0]"] ;
1130 -> 1138 ;
1139 [label="gini = 0.0\nsamples = 2\nvalue = [0, 2]"] ;
1129 -> 1139 ;
1140 [label="gini = 0.0\nsamples = 44\nvalue = [44, 0]"] ;
1112 -> 1140 ;
1141 [label="X[5] <= 2.5\ngini = 0.5\nsamples = 4\nvalue = [2, 2]"] ;
983 -> 1141 ;
1142 [label="gini = 0.0\nsamples = 2\nvalue = [2, 0]"] ;
1141 -> 1142 ;
1143 [label="gini = 0.0\nsamples = 2\nvalue = [0, 2]"] ;
1141 -> 1143 ;
1144 [label="X[6] <= 193519.9062\ngini = 0.4688\nsamples = 8\nvalue = [3, 5]"] ;
982 -> 1144 ;
1145 [label="X[5] <= 23.0\ngini = 0.375\nsamples = 4\nvalue = [3, 1]"] ;
1144 -> 1145 ;
1146 [label="gini = 0.0\nsamples = 3\nvalue = [3, 0]"] ;
1145 -> 1146 ;
1147 [label="gini = 0.0\nsamples = 1\nvalue = [0, 1]"] ;
1145 -> 1147 ;
1148 [label="gini = 0.0\nsamples = 4\nvalue = [0, 4]"] ;
1144 -> 1148 ;
1149 [label="X[3] <= 100.018\ngini = 0.1389\nsamples = 253\nvalue = [234, 19]"] ;
981 -> 1149 ;
1150 [label="X[2] <= 4399081.0\ngini = 0.2221\nsamples = 110\nvalue = [96, 14]"] ;
1149 -> 1150 ;
1151 [label="X[0] <= 1155.9851\ngini = 0.054\nsamples = 36\nvalue = [35, 1]"] ;
1150 -> 1151 ;
1152 [label="X[0] <= 1110.415\ngini = 0.1975\nsamples = 9\nvalue = [8, 1]"] ;
1151 -> 1152 ;
1153 [label="gini = 0.0\nsamples = 7\nvalue = [7, 0]"] ;
1152 -> 1153 ;
1154 [label="X[2] <= 4069669.5\ngini = 0.5\nsamples = 2\nvalue = [1, 1]"] ;
1152 -> 1154 ;
1155 [label="gini = 0.0\nsamples = 1\nvalue = [0, 1]"] ;
1154 -> 1155 ;
1156 [label="gini = 0.0\nsamples = 1\nvalue = [1, 0]"] ;
1154 -> 1156 ;
1157 [label="gini = 0.0\nsamples = 27\nvalue = [27, 0]"] ;
1151 -> 1157 ;
1158 [label="X[2] <= 4945245.0\ngini = 0.2896\nsamples = 74\nvalue = [61, 13]"] ;
1150 -> 1158 ;
1159 [label="X[6] <= 124145.375\ngini = 0.4938\nsamples = 9\nvalue = [4, 5]"] ;
1158 -> 1159 ;
1160 [label="gini = 0.0\nsamples = 3\nvalue = [3, 0]"] ;
1159 -> 1160 ;
1161 [label="X[0] <= 1171.355\ngini = 0.2778\nsamples = 6\nvalue = [1, 5]"] ;
1159 -> 1161 ;
1162 [label="gini = 0.0\nsamples = 1\nvalue = [1, 0]"] ;
1161 -> 1162 ;
1163 [label="gini = 0.0\nsamples = 5\nvalue = [0, 5]"] ;
1161 -> 1163 ;
1164 [label="X[3] <= 88.0592\ngini = 0.2159\nsamples = 65\nvalue = [57, 8]"] ;
1158 -> 1164 ;
1165 [label="gini = 0.0\nsamples = 1\nvalue = [0, 1]"] ;
1164 -> 1165 ;
1166 [label="X[0] <= 1354.405\ngini = 0.1948\nsamples = 64\nvalue = [57, 7]"] ;
1164 -> 1166 ;
1167 [label="X[3] <= 99.6915\ngini = 0.1349\nsamples = 55\nvalue = [51, 4]"] ;
1166 -> 1167 ;
1168 [label="X[1] <= 1.5\ngini = 0.1068\nsamples = 53\nvalue = [50, 3]"] ;
1167 -> 1168 ;
1169 [label="X[0] <= 1316.525\ngini = 0.0444\nsamples = 44\nvalue = [43, 1]"] ;
1168 -> 1169 ;
1170 [label="gini = 0.0\nsamples = 37\nvalue = [37, 0]"] ;
1169 -> 1170 ;
1171 [label="X[0] <= 1323.235\ngini = 0.2449\nsamples = 7\nvalue = [6, 1]"] ;
1169 -> 1171 ;
1172 [label="gini = 0.0\nsamples = 1\nvalue = [0, 1]"] ;
1171 -> 1172 ;
1173 [label="gini = 0.0\nsamples = 6\nvalue = [6, 0]"] ;
1171 -> 1173 ;
1174 [label="X[3] <= 95.1747\ngini = 0.3457\nsamples = 9\nvalue = [7, 2]"] ;
1168 -> 1174 ;
1175 [label="X[0] <= 1129.42\ngini = 0.4444\nsamples = 3\nvalue = [1, 2]"] ;
1174 -> 1175 ;
1176 [label="gini = 0.0\nsamples = 2\nvalue = [0, 2]"] ;
1175 -> 1176 ;
1177 [label="gini = 0.0\nsamples = 1\nvalue = [1, 0]"] ;
1175 -> 1177 ;
1178 [label="gini = 0.0\nsamples = 6\nvalue = [6, 0]"] ;
1174 -> 1178 ;
1179 [label="X[6] <= 388697.1875\ngini = 0.5\nsamples = 2\nvalue = [1, 1]"] ;
1167 -> 1179 ;
1180 [label="gini = 0.0\nsamples = 1\nvalue = [1, 0]"] ;
1179 -> 1180 ;
1181 [label="gini = 0.0\nsamples = 1\nvalue = [0, 1]"] ;
1179 -> 1181 ;
1182 [label="X[2] <= 8813395.0\ngini = 0.4444\nsamples = 9\nvalue = [6, 3]"] ;
1166 -> 1182 ;
1183 [label="X[1] <= 1.3333\ngini = 0.4444\nsamples = 3\nvalue = [1, 2]"] ;
1182 -> 1183 ;
1184 [label="gini = 0.0\nsamples = 2\nvalue = [0, 2]"] ;
1183 -> 1184 ;
1185 [label="gini = 0.0\nsamples = 1\nvalue = [1, 0]"] ;
1183 -> 1185 ;
1186 [label="X[2] <= 34725316.0\ngini = 0.2778\nsamples = 6\nvalue = [5, 1]"] ;
1182 -> 1186 ;
1187 [label="gini = 0.0\nsamples = 4\nvalue = [4, 0]"] ;
1186 -> 1187 ;
1188 [label="X[5] <= 664.5\ngini = 0.5\nsamples = 2\nvalue = [1, 1]"] ;
1186 -> 1188 ;
1189 [label="gini = 0.0\nsamples = 1\nvalue = [0, 1]"] ;
1188 -> 1189 ;
1190 [label="gini = 0.0\nsamples = 1\nvalue = [1, 0]"] ;
1188 -> 1190 ;
1191 [label="X[1] <= 0.8333\ngini = 0.0675\nsamples = 143\nvalue = [138, 5]"] ;
1149 -> 1191 ;
1192 [label="X[5] <= 59.5\ngini = 0.0215\nsamples = 92\nvalue = [91, 1]"] ;
1191 -> 1192 ;
1193 [label="gini = 0.0\nsamples = 76\nvalue = [76, 0]"] ;
1192 -> 1193 ;
1194 [label="X[2] <= 4267494.5\ngini = 0.1172\nsamples = 16\nvalue = [15, 1]"] ;
1192 -> 1194 ;
1195 [label="gini = 0.0\nsamples = 1\nvalue = [0, 1]"] ;
1194 -> 1195 ;
1196 [label="gini = 0.0\nsamples = 15\nvalue = [15, 0]"] ;
1194 -> 1196 ;
1197 [label="X[2] <= 38606456.0\ngini = 0.1446\nsamples = 51\nvalue = [47, 4]"] ;
1191 -> 1197 ;
1198 [label="X[1] <= 1.4167\ngini = 0.115\nsamples = 49\nvalue = [46, 3]"] ;
1197 -> 1198 ;
1199 [label="X[5] <= 87.0\ngini = 0.18\nsamples = 30\nvalue = [27, 3]"] ;
1198 -> 1199 ;
1200 [label="X[3] <= 101.5303\ngini = 0.1327\nsamples = 28\nvalue = [26, 2]"] ;
1199 -> 1200 ;
1201 [label="X[2] <= 4305205.0\ngini = 0.375\nsamples = 4\nvalue = [3, 1]"] ;
1200 -> 1201 ;
1202 [label="gini = 0.0\nsamples = 2\nvalue = [2, 0]"] ;
1201 -> 1202 ;
1203 [label="X[5] <= 32.0\ngini = 0.5\nsamples = 2\nvalue = [1, 1]"] ;
1201 -> 1203 ;
1204 [label="gini = 0.0\nsamples = 1\nvalue = [0, 1]"] ;
1203 -> 1204 ;
1205 [label="gini = 0.0\nsamples = 1\nvalue = [1, 0]"] ;
1203 -> 1205 ;
1206 [label="X[2] <= 3569267.0\ngini = 0.0799\nsamples = 24\nvalue = [23, 1]"] ;
1200 -> 1206 ;
1207 [label="X[2] <= 3525319.5\ngini = 0.32\nsamples = 5\nvalue = [4, 1]"] ;
1206 -> 1207 ;
1208 [label="gini = 0.0\nsamples = 4\nvalue = [4, 0]"] ;
1207 -> 1208 ;
1209 [label="gini = 0.0\nsamples = 1\nvalue = [0, 1]"] ;
1207 -> 1209 ;
1210 [label="gini = 0.0\nsamples = 19\nvalue = [19, 0]"] ;
1206 -> 1210 ;
1211 [label="X[0] <= 1967.02\ngini = 0.5\nsamples = 2\nvalue = [1, 1]"] ;
1199 -> 1211 ;
1212 [label="gini = 0.0\nsamples = 1\nvalue = [1, 0]"] ;
1211 -> 1212 ;
1213 [label="gini = 0.0\nsamples = 1\nvalue = [0, 1]"] ;
1211 -> 1213 ;
1214 [label="gini = 0.0\nsamples = 19\nvalue = [19, 0]"] ;
1198 -> 1214 ;
1215 [label="X[6] <= 429711.0625\ngini = 0.5\nsamples = 2\nvalue = [1, 1]"] ;
1197 -> 1215 ;
1216 [label="gini = 0.0\nsamples = 1\nvalue = [1, 0]"] ;
1215 -> 1216 ;
1217 [label="gini = 0.0\nsamples = 1\nvalue = [0, 1]"] ;
1215 -> 1217 ;
1218 [label="X[2] <= 8851984.0\ngini = 0.4938\nsamples = 9\nvalue = [4, 5]"] ;
980 -> 1218 ;
1219 [label="X[2] <= 4330521.5\ngini = 0.4082\nsamples = 7\nvalue = [2, 5]"] ;
1218 -> 1219 ;
1220 [label="X[0] <= 1808.2\ngini = 0.4444\nsamples = 3\nvalue = [2, 1]"] ;
1219 -> 1220 ;
1221 [label="gini = 0.0\nsamples = 2\nvalue = [2, 0]"] ;
1220 -> 1221 ;
1222 [label="gini = 0.0\nsamples = 1\nvalue = [0, 1]"] ;
1220 -> 1222 ;
1223 [label="gini = 0.0\nsamples = 4\nvalue = [0, 4]"] ;
1219 -> 1223 ;
1224 [label="gini = 0.0\nsamples = 2\nvalue = [2, 0]"] ;
1218 -> 1224 ;
1225 [label="X[0] <= 1987.8301\ngini = 0.2885\nsamples = 715\nvalue = [590, 125]"] ;
979 -> 1225 ;
1226 [label="X[2] <= 550158.375\ngini = 0.2791\nsamples = 692\nvalue = [576, 116]"] ;
1225 -> 1226 ;
1227 [label="X[2] <= 523068.5\ngini = 0.3789\nsamples = 126\nvalue = [94, 32]"] ;
1226 -> 1227 ;
1228 [label="X[3] <= 90.7613\ngini = 0.3436\nsamples = 118\nvalue = [92, 26]"] ;
1227 -> 1228 ;
1229 [label="gini = 0.0\nsamples = 16\nvalue = [16, 0]"] ;
1228 -> 1229 ;
1230 [label="X[6] <= 73466.5\ngini = 0.3799\nsamples = 102\nvalue = [76, 26]"] ;
1228 -> 1230 ;
1231 [label="X[1] <= 3.1667\ngini = 0.2698\nsamples = 56\nvalue = [47, 9]"] ;
1230 -> 1231 ;
1232 [label="X[2] <= 51601.168\ngini = 0.3911\nsamples = 30\nvalue = [22, 8]"] ;
1231 -> 1232 ;
1233 [label="gini = 0.0\nsamples = 2\nvalue = [0, 2]"] ;
1232 -> 1233 ;
1234 [label="X[5] <= 3.0\ngini = 0.3367\nsamples = 28\nvalue = [22, 6]"] ;
1232 -> 1234 ;
1235 [label="gini = 0.0\nsamples = 11\nvalue = [11, 0]"] ;
1234 -> 1235 ;
1236 [label="X[2] <= 259835.5\ngini = 0.4567\nsamples = 17\nvalue = [11, 6]"] ;
1234 -> 1236 ;
1237 [label="X[0] <= 972.785\ngini = 0.4082\nsamples = 7\nvalue = [2, 5]"] ;
1236 -> 1237 ;
1238 [label="gini = 0.0\nsamples = 1\nvalue = [1, 0]"] ;
1237 -> 1238 ;
